{"learner":{"attributes":{"scikit_learn":"{\"_estimator_type\": \"regressor\"}"},"feature_names":["0","1","2","3","5","6","7","8","9","10","11","12","13","14","15","16","17","18","19","20","21","22","23","24","25","26","27","28","29","30","31","32","33","34","35","36","37","38","39","40","41","42","43","44","45","46","47","48","49","50","51","52","53","54","55","56","57","58","59","60","61","62","63","64","65","66","67","68","69","70","71","72","73","74","75","76","77","78","79","80","81","82","83","84","85","86","87","88","89","90","91","92","93","94","95","96","97","98","99","100","101","102","103","104","105","106","107","108","109","110","111","112","113","114","115","116","117"],"feature_types":["float","float","float","float","float","float","float","float","float","float","float","float","float","float","float","float","float","float","float","float","float","float","float","float","float","float","float","float","float","float","float","float","float","float","float","float","float","float","float","float","float","float","float","float","float","float","float","float","float","float","float","float","float","float","float","float","float","float","float","float","float","float","float","float","float","float","float","float","float","float","float","float","float","float","float","float","float","float","float","float","float","float","float","float","float","float","float","float","float","float","float","float","float","float","float","float","float","float","float","float","float","float","float","float","float","float","float","float","float","float","float","float","float","float","float","float","float"],"gradient_booster":{"model":{"gbtree_model_param":{"num_parallel_tree":"1","num_trees":"100"},"iteration_indptr":[0,1,2,3,4,5,6,7,8,9,10,11,12,13,14,15,16,17,18,19,20,21,22,23,24,25,26,27,28,29,30,31,32,33,34,35,36,37,38,39,40,41,42,43,44,45,46,47,48,49,50,51,52,53,54,55,56,57,58,59,60,61,62,63,64,65,66,67,68,69,70,71,72,73,74,75,76,77,78,79,80,81,82,83,84,85,86,87,88,89,90,91,92,93,94,95,96,97,98,99,100],"tree_info":[0,0,0,0,0,0,0,0,0,0,0,0,0,0,0,0,0,0,0,0,0,0,0,0,0,0,0,0,0,0,0,0,0,0,0,0,0,0,0,0,0,0,0,0,0,0,0,0,0,0,0,0,0,0,0,0,0,0,0,0,0,0,0,0,0,0,0,0,0,0,0,0,0,0,0,0,0,0,0,0,0,0,0,0,0,0,0,0,0,0,0,0,0,0,0,0,0,0,0,0],"trees":[{"base_weights":[2.3112577E-6,6.605708E1,-4.9204052E1,5.8956284E1,6.2767816E2,-5.115109E1,2.6281677E2,1.5033198E1,2.3276254E2,-3.5762854E0,-1.8044115E1,2.0722816E2,-5.057781E0],"categories":[],"categories_nodes":[],"categories_segments":[],"categories_sizes":[],"default_left":[0,0,0,0,0,0,0,0,0,0,0,0,0],"id":0,"left_children":[1,3,5,7,-1,9,11,-1,-1,-1,-1,-1,-1],"loss_changes":[4.423626E6,8.2358815E6,4.87306E5,3.6392455E6,0E0,2.7314338E5,6.1007375E5,0E0,0E0,0E0,0E0,0E0,0E0],"parents":[2147483647,0,0,1,1,2,2,3,3,5,5,6,6],"right_children":[2,4,6,8,-1,10,12,-1,-1,-1,-1,-1,-1],"split_conditions":[2.9E1,6.57E2,2.02E2,2.095E3,6.2767816E2,1.5E2,1.6E1,1.5033198E1,2.3276254E2,-3.5762854E0,-1.8044115E1,2.0722816E2,-5.057781E0],"split_indices":[1,45,101,22,0,1,2,0,0,0,0,0,0],"split_type":[0,0,0,0,0,0,0,0,0,0,0,0,0],"sum_hessian":[1.359E3,5.8E2,7.79E2,5.79E2,1E0,7.75E2,4E0,5.73E2,6E0,1.45E2,6.3E2,1E0,3E0],"tree_param":{"num_deleted":"0","num_feature":"117","num_nodes":"13","size_leaf_vector":"1"}},{"base_weights":[7.764905E-1,4.77468E1,-3.4211365E1,4.1696636E1,5.335264E2,-3.5833626E1,2.2440582E2,1.1025017E1,2.9425168E2,-1.0986371E1,8.618476E1,1.7614394E2,-3.9197812E0],"categories":[],"categories_nodes":[],"categories_segments":[],"categories_sizes":[],"default_left":[0,0,0,0,0,0,0,0,0,0,0,0,0],"id":1,"left_children":[1,3,5,7,-1,9,11,-1,-1,-1,-1,-1,-1],"loss_changes":[2.2366445E6,6.00942E6,3.35286E5,2.658369E6,0E0,2.0800475E5,4.383749E5,0E0,0E0,0E0,0E0,0E0,0E0],"parents":[2147483647,0,0,1,1,2,2,3,3,5,5,6,6],"right_children":[2,4,6,8,-1,10,12,-1,-1,-1,-1,-1,-1],"split_conditions":[2.9E1,6.57E2,2.02E2,4.25E3,5.335264E2,1.392E3,1.6E1,1.1025017E1,2.9425168E2,-1.0986371E1,8.618476E1,1.7614394E2,-3.9197812E0],"split_indices":[1,45,101,22,0,91,2,0,0,0,0,0,0],"split_type":[0,0,0,0,0,0,0,0,0,0,0,0,0],"sum_hessian":[1.359E3,5.8E2,7.79E2,5.79E2,1E0,7.75E2,4E0,5.77E2,2E0,7.74E2,1E0,1E0,3E0],"tree_param":{"num_deleted":"0","num_feature":"117","num_nodes":"13","size_leaf_vector":"1"}},{"base_weights":[1.3422375E0,2.2800325E1,-4.1529633E1,2.0326693E1,5.7614124E2,-4.3929226E1,1.1797727E2,4.351479E0,5.206393E1,-6.549419E1,4.4392606E2,-1.3763176E1,4.1352352E1,-1.1867651E1,1.0236352E2],"categories":[],"categories_nodes":[],"categories_segments":[],"categories_sizes":[],"default_left":[0,0,0,0,0,0,0,0,0,0,0,0,0,0,0],"id":2,"left_children":[1,3,5,7,9,11,13,-1,-1,-1,-1,-1,-1,-1,-1],"loss_changes":[1.2520768E6,1.2297564E6,1.7895206E5,8.03859E5,3.1945685E6,1.6495744E5,2.5967033E5,0E0,0E0,0E0,0E0,0E0,0E0,0E0,0E0],"parents":[2147483647,0,0,1,1,2,2,3,3,4,4,5,5,6,6],"right_children":[2,4,6,8,10,12,14,-1,-1,-1,-1,-1,-1,-1,-1],"split_conditions":[1.6E1,5.441E3,2.824E3,2.81E2,3E0,2.385E3,6.7E1,4.351479E0,5.206393E1,-6.549419E1,4.4392606E2,-1.3763176E1,4.1352352E1,-1.1867651E1,1.0236352E2],"split_indices":[2,22,22,64,3,87,19,0,0,0,0,0,0,0,0],"split_type":[0,0,0,0,0,0,0,0,0,0,0,0,0,0,0],"sum_hessian":[1.359E3,9.06E2,4.53E2,9.03E2,3E0,4.47E2,6E0,8.71E2,3.2E1,2E0,1E0,4.43E2,4E0,4E0,2E0],"tree_param":{"num_deleted":"0","num_feature":"117","num_nodes":"15","size_leaf_vector":"1"}},{"base_weights":[1.3461337E0,2.8347298E1,-2.2272442E1,2.3705492E1,4.456879E2,-2.3817585E1,2.625802E2,6.196377E0,1.9755815E2,-7.363819E0,7.5321526E1,1.4906961E2,5.6523423E0],"categories":[],"categories_nodes":[],"categories_segments":[],"categories_sizes":[],"default_left":[0,0,0,0,0,0,0,0,0,0,0,0,0],"id":3,"left_children":[1,3,5,7,-1,9,11,-1,-1,-1,-1,-1,-1],"loss_changes":[8.679428E5,4.2601805E6,3.2579425E5,1.2143165E6,0E0,1.5094416E5,2.1908812E5,0E0,0E0,0E0,0E0,0E0,0E0],"parents":[2147483647,0,0,1,1,2,2,3,3,5,5,6,6],"right_children":[2,4,6,8,-1,10,12,-1,-1,-1,-1,-1,-1],"split_conditions":[6.5E1,6.57E2,2.02E2,4.25E3,4.456879E2,1.392E3,1.6E1,6.196377E0,1.9755815E2,-7.363819E0,7.5321526E1,1.4906961E2,5.6523423E0],"split_indices":[1,45,101,22,0,91,2,0,0,0,0,0,0],"split_type":[0,0,0,0,0,0,0,0,0,0,0,0,0],"sum_hessian":[1.359E3,6.34E2,7.25E2,6.33E2,1E0,7.22E2,3E0,6.31E2,2E0,7.21E2,1E0,1E0,2E0],"tree_param":{"num_deleted":"0","num_feature":"117","num_nodes":"13","size_leaf_vector":"1"}},{"base_weights":[1.5835587E0,-1.1985761E0,1.6336237E2,9.728563E0,-3.21919E1,3.8825308E2,-1.172687E2,1.4724704E0,3.91084E1,-1.0695983E1,5.1487667E1,3.1889148E2,2.3862114E1,-1.0208897E2,2.6711438E0],"categories":[],"categories_nodes":[],"categories_segments":[],"categories_sizes":[],"default_left":[0,0,0,0,0,0,0,0,0,0,0,0,0,0,0],"id":4,"left_children":[1,3,5,7,9,11,13,-1,-1,-1,-1,-1,-1,-1,-1],"loss_changes":[6.1231875E5,4.5345147E5,1.4970905E6,5.750349E5,2.523345E5,2.623275E6,3.1256975E5,0E0,0E0,0E0,0E0,0E0,0E0,0E0,0E0],"parents":[2147483647,0,0,1,1,2,2,3,3,4,4,5,5,6,6],"right_children":[2,4,6,8,10,12,14,-1,-1,-1,-1,-1,-1,-1,-1],"split_conditions":[2.372E3,1.1E2,2.1E1,6E1,1.26E2,2.65E2,2.9E1,1.4724704E0,3.91084E1,-1.0695983E1,5.1487667E1,3.1889148E2,2.3862114E1,-1.0208897E2,2.6711438E0],"split_indices":[22,5,4,85,98,0,1,0,0,0,0,0,0,0,0],"split_type":[0,0,0,0,0,0,0,0,0,0,0,0,0,0,0],"sum_hessian":[1.359E3,1.337E3,2.2E1,9.89E2,3.48E2,1.2E1,1E1,9.52E2,3.7E1,3.43E2,5E0,3E0,9E0,3E0,7E0],"tree_param":{"num_deleted":"0","num_feature":"117","num_nodes":"15","size_leaf_vector":"1"}},{"base_weights":[1.347247E0,9.829933E0,-3.215655E1,2.120806E0,6.6505356E1,-3.5241005E1,1.8562561E2,-5.9078526E-1,3.032647E1,1.4236288E1,3.7861386E2,-2.096033E1,-7.275216E0,-5.958804E0,1.20313576E2],"categories":[],"categories_nodes":[],"categories_segments":[],"categories_sizes":[],"default_left":[0,0,0,0,0,0,0,0,0,0,0,0,0,0,0],"id":5,"left_children":[1,3,5,7,9,11,13,-1,-1,-1,-1,-1,-1,-1,-1],"loss_changes":[3.868311E5,4.74352E5,1.9126997E5,3.8757894E5,2.9010325E6,1.0181741E5,1.8503067E5,0E0,0E0,0E0,0E0,0E0,0E0,0E0,0E0],"parents":[2147483647,0,0,1,1,2,2,3,3,4,4,5,5,6,6],"right_children":[2,4,6,8,10,12,14,-1,-1,-1,-1,-1,-1,-1,-1],"split_conditions":[1.34E2,2.1E2,1.593E3,6E1,5.67E2,1.36E2,4.22E2,-5.9078526E-1,3.032647E1,1.4236288E1,3.7861386E2,-2.096033E1,-7.275216E0,-5.958804E0,1.20313576E2],"split_indices":[10,22,59,85,45,1,0,0,0,0,0,0,0,0,0],"split_type":[0,0,0,0,0,0,0,0,0,0,0,0,0,0,0],"sum_hessian":[1.359E3,1.085E3,2.74E2,9.56E2,1.29E2,2.71E2,3E0,9.19E2,3.7E1,1.28E2,1E0,6.4E1,2.07E2,2E0,1E0],"tree_param":{"num_deleted":"0","num_feature":"117","num_nodes":"15","size_leaf_vector":"1"}},{"base_weights":[1.3171194E0,1.9518959E1,-1.2242607E1,1.5853513E1,3.2182175E2,-1.4580213E1,8.215205E1,3.1614683E0,8.6952225E1,-4.615127E0,5.8153275E1,-8.547892E0,1.19297005E2],"categories":[],"categories_nodes":[],"categories_segments":[],"categories_sizes":[],"default_left":[0,0,0,0,0,0,0,0,0,0,0,0,0],"id":6,"left_children":[1,3,5,7,-1,9,11,-1,-1,-1,-1,-1,-1],"loss_changes":[3.3590325E5,2.2259572E6,1.7331066E5,8.416114E5,0E0,1.3060036E5,6.7460175E5,0E0,0E0,0E0,0E0,0E0,0E0],"parents":[2147483647,0,0,1,1,2,2,3,3,5,5,6,6],"right_children":[2,4,6,8,-1,10,12,-1,-1,-1,-1,-1,-1],"split_conditions":[2.9E1,6.57E2,8.5E1,9.77E2,3.2182175E2,4.497E3,1.9E1,3.1614683E0,8.6952225E1,-4.615127E0,5.8153275E1,-8.547892E0,1.19297005E2],"split_indices":[1,45,101,24,0,72,36,0,0,0,0,0,0],"split_type":[0,0,0,0,0,0,0,0,0,0,0,0,0],"sum_hessian":[1.359E3,5.8E2,7.79E2,5.79E2,1E0,7.61E2,1.8E1,5.69E2,1E1,7.59E2,2E0,1.4E1,4E0],"tree_param":{"num_deleted":"0","num_feature":"117","num_nodes":"13","size_leaf_vector":"1"}},{"base_weights":[1.3456771E0,4.5459923E-1,2.4273686E2,6.791629E0,-2.9648218E1,-1.9201224E2,2.9726E2,1.4509683E0,4.831086E1,-2.5479364E1,-4.745073E0,-1.1049851E2,-3.1392221E0],"categories":[],"categories_nodes":[],"categories_segments":[],"categories_sizes":[],"default_left":[0,0,0,0,0,0,0,0,0,0,0,0,0],"id":7,"left_children":[1,3,5,7,9,11,-1,-1,-1,-1,-1,-1,-1],"loss_changes":[2.924234E5,2.5887525E5,1.8165022E6,3.372684E5,1.7911077E5,1.24185266E5,0E0,0E0,0E0,0E0,0E0,0E0,0E0],"parents":[2147483647,0,0,1,1,2,2,3,3,4,4,5,5],"right_children":[2,4,6,8,10,12,-1,-1,-1,-1,-1,-1,-1],"split_conditions":[5.441E3,1.5E1,3E0,6.57E2,3E1,1.03E2,2.9726E2,1.4509683E0,4.831086E1,-2.5479364E1,-4.745073E0,-1.1049851E2,-3.1392221E0],"split_indices":[22,27,3,45,1,0,0,0,0,0,0,0,0],"split_type":[0,0,0,0,0,0,0,0,0,0,0,0,0],"sum_hessian":[1.359E3,1.355E3,4E0,1.12E3,2.35E2,3E0,1E0,1.107E3,1.3E1,4.6E1,1.89E2,1E0,2E0],"tree_param":{"num_deleted":"0","num_feature":"117","num_nodes":"13","size_leaf_vector":"1"}},{"base_weights":[1.0913568E0,7.468584E0,-2.8700155E1,5.653959E0,6.818342E2,-2.620033E1,-9.392374E1,1.2546829E0,1.24451965E2,4.052355E1,2.6630188E2,-8.379476E0,3.579067E1],"categories":[],"categories_nodes":[],"categories_segments":[],"categories_sizes":[],"default_left":[0,0,0,0,0,0,0,0,0,0,0,0,0],"id":8,"left_children":[1,3,5,7,9,11,-1,-1,-1,-1,-1,-1,-1],"loss_changes":[2.58597E5,1.367936E6,1.6241262E5,6.7211756E5,2.1772475E5,6.353686E4,0E0,0E0,0E0,0E0,0E0,0E0,0E0],"parents":[2147483647,0,0,1,1,2,2,3,3,4,4,5,5],"right_children":[2,4,6,8,10,12,-1,-1,-1,-1,-1,-1,-1],"split_conditions":[8.72E2,8.63E2,5.229E3,5.441E3,1.144E3,1.9E1,-9.392374E1,1.2546829E0,1.24451965E2,4.052355E1,2.6630188E2,-8.379476E0,3.579067E1],"split_indices":[4,4,22,22,0,101,0,0,0,0,0,0,0],"split_type":[0,0,0,0,0,0,0,0,0,0,0,0,0],"sum_hessian":[1.359E3,1.12E3,2.39E2,1.118E3,2E0,2.38E2,1E0,1.115E3,3E0,1E0,1E0,2.36E2,2E0],"tree_param":{"num_deleted":"0","num_feature":"117","num_nodes":"13","size_leaf_vector":"1"}},{"base_weights":[1.03308E0,7.3605847E0,-2.6817062E1,5.25668E0,1.8433157E2,-6.884711E1,-7.5803347E0,2.4443282E-1,2.2730375E1,1.4303706E2,-4.0338036E1,-2.4442345E1,4.0299862E1,-3.2069871E0,5.1969437E1],"categories":[],"categories_nodes":[],"categories_segments":[],"categories_sizes":[],"default_left":[0,0,0,0,0,0,0,0,0,0,0,0,0,0,0],"id":9,"left_children":[1,3,5,7,9,11,13,-1,-1,-1,-1,-1,-1,-1,-1],"loss_changes":[2.398592E5,4.1194512E5,2.0322528E5,3.4352322E5,1.2761432E6,2.136294E5,9.968444E4,0E0,0E0,0E0,0E0,0E0,0E0,0E0,0E0],"parents":[2147483647,0,0,1,1,2,2,3,3,4,4,5,5,6,6],"right_children":[2,4,6,8,10,12,14,-1,-1,-1,-1,-1,-1,-1,-1],"split_conditions":[3.8E1,2.372E3,4.6E1,8.6E1,2.1E1,5.5E1,4.06E2,2.4443282E-1,2.2730375E1,1.4303706E2,-4.0338036E1,-2.4442345E1,4.0299862E1,-3.2069871E0,5.1969437E1],"split_indices":[18,22,1,64,4,36,19,0,0,0,0,0,0,0,0],"split_type":[0,0,0,0,0,0,0,0,0,0,0,0,0,0,0],"sum_hessian":[1.359E3,1.108E3,2.51E2,1.096E3,1.2E1,7.8E1,1.73E2,1.032E3,6.4E1,6E0,6E0,7.4E1,4E0,1.71E2,2E0],"tree_param":{"num_deleted":"0","num_feature":"117","num_nodes":"15","size_leaf_vector":"1"}},{"base_weights":[8.6307853E-1,5.261252E0,-3.412544E1,4.290499E0,2.9662787E2,-2.7800325E1,-6.4357124E1,1.036789E0,1.01336266E2,2.1254762E2,-2.3047268E1,-1.1968233E1,1.2983229E1],"categories":[],"categories_nodes":[],"categories_segments":[],"categories_sizes":[],"default_left":[0,0,0,0,0,0,0,0,0,0,0,0,0],"id":10,"left_children":[1,3,5,7,9,11,-1,-1,-1,-1,-1,-1,-1],"loss_changes":[2.0946394E5,3.4068678E5,1.6747425E5,3.3448094E5,6.696755E5,1.2894714E5,0E0,0E0,0E0,0E0,0E0,0E0,0E0],"parents":[2147483647,0,0,1,1,2,2,3,3,4,4,5,5],"right_children":[2,4,6,8,10,12,-1,-1,-1,-1,-1,-1,-1],"split_conditions":[3.24E2,5.441E3,2.203E3,3.15E2,1.03E2,5.2E1,-6.4357124E1,1.036789E0,1.01336266E2,2.1254762E2,-2.3047268E1,-1.1968233E1,1.2983229E1],"split_indices":[12,22,22,12,0,36,0,0,0,0,0,0,0],"split_type":[0,0,0,0,0,0,0,0,0,0,0,0,0],"sum_hessian":[1.359E3,1.208E3,1.51E2,1.205E3,3E0,1.47E2,4E0,1.203E3,2E0,1E0,2E0,1.26E2,2.1E1],"tree_param":{"num_deleted":"0","num_feature":"117","num_nodes":"13","size_leaf_vector":"1"}},{"base_weights":[7.721937E-1,1.1961962E1,-1.2060194E1,1.0122012E1,4.526291E2,-1.324944E1,1.7855846E2,2.4808664E0,1.02588066E2,2.2815869E2,-2.4475586E1,-4.235833E0,5.2073284E1,9.780135E1,6.2224855E0],"categories":[],"categories_nodes":[],"categories_segments":[],"categories_sizes":[],"default_left":[0,0,0,0,0,0,0,0,0,0,0,0,0,0,0],"id":11,"left_children":[1,3,5,7,9,11,13,-1,-1,-1,-1,-1,-1,-1,-1],"loss_changes":[1.9542864E5,5.848739E5,1.4608884E5,4.4284153E5,5.5550156E5,1.05013586E5,8.631599E4,0E0,0E0,0E0,0E0,0E0,0E0,0E0,0E0],"parents":[2147483647,0,0,1,1,2,2,3,3,4,4,5,5,6,6],"right_children":[2,4,6,8,10,12,14,-1,-1,-1,-1,-1,-1,-1,-1],"split_conditions":[1.5E2,9.82E2,2.02E2,6.57E2,2.32E2,2.255E3,1.6E1,2.4808664E0,1.02588066E2,2.2815869E2,-2.4475586E1,-4.235833E0,5.2073284E1,9.780135E1,6.2224855E0],"split_indices":[1,36,101,45,0,25,2,0,0,0,0,0,0,0,0],"split_type":[0,0,0,0,0,0,0,0,0,0,0,0,0,0,0],"sum_hessian":[1.359E3,7.26E2,6.33E2,7.24E2,2E0,6.3E2,3E0,7.21E2,3E0,1E0,1E0,6.28E2,2E0,1E0,2E0],"tree_param":{"num_deleted":"0","num_feature":"117","num_nodes":"15","size_leaf_vector":"1"}},{"base_weights":[8.792213E-1,3.3467698E-1,2.4708322E2,2.9142318E0,-4.8643852E1,-4.440173E0,1.1562763E2,2.7120095E-1,4.891435E1,-1.203029E1,-3.9071056E1],"categories":[],"categories_nodes":[],"categories_segments":[],"categories_sizes":[],"default_left":[0,0,0,0,0,0,0,0,0,0,0],"id":12,"left_children":[1,3,5,7,9,-1,-1,-1,-1,-1,-1],"loss_changes":[1.8225114E5,1.7171528E5,1.14393266E5,4.1543216E5,4.2176094E4,0E0,0E0,0E0,0E0,0E0,0E0],"parents":[2147483647,0,0,1,1,2,2,3,3,4,4],"right_children":[2,4,6,8,10,-1,-1,-1,-1,-1,-1],"split_conditions":[1.79E3,1.17E2,1.3E1,8.8E1,2.1E1,-4.440173E0,1.1562763E2,2.7120095E-1,4.891435E1,-1.203029E1,-3.9071056E1],"split_indices":[19,40,0,40,64,0,0,0,0,0,0],"split_type":[0,0,0,0,0,0,0,0,0,0,0],"sum_hessian":[1.359E3,1.357E3,2E0,1.29E3,6.7E1,1E0,1E0,1.275E3,1.5E1,6.2E1,5E0],"tree_param":{"num_deleted":"0","num_feature":"117","num_nodes":"11","size_leaf_vector":"1"}},{"base_weights":[6.958019E-1,4.5050755E0,-3.0294369E1,3.7230158E0,1.4273695E2,-3.7108566E1,9.444439E1,6.118071E-1,3.1164879E1,-1.7787477E1,-4.227134E0,-1.5777107E1,1.07109726E2],"categories":[],"categories_nodes":[],"categories_segments":[],"categories_sizes":[],"default_left":[0,0,0,0,0,0,0,0,0,0,0,0,0],"id":13,"left_children":[1,3,5,7,-1,9,11,-1,-1,-1,-1,-1,-1],"loss_changes":[1.6068453E5,4.4493897E5,1.3015386E5,2.0400527E5,0E0,7.167136E4,3.27653E5,0E0,0E0,0E0,0E0,0E0,0E0],"parents":[2147483647,0,0,1,1,2,2,3,3,5,5,6,6],"right_children":[2,4,6,8,-1,10,12,-1,-1,-1,-1,-1,-1],"split_conditions":[2.36E2,2.34E2,1.24E2,2.372E3,1.4273695E2,2.94E2,1.505E3,6.118071E-1,3.1164879E1,-1.7787477E1,-4.227134E0,-1.5777107E1,1.07109726E2],"split_indices":[11,11,94,22,0,1,11,0,0,0,0,0,0],"split_type":[0,0,0,0,0,0,0,0,0,0,0,0,0],"sum_hessian":[1.359E3,1.211E3,1.48E2,1.21E3,1E0,1.41E2,7E0,1.191E3,1.9E1,7.1E1,7E1,5E0,2E0],"tree_param":{"num_deleted":"0","num_feature":"117","num_nodes":"13","size_leaf_vector":"1"}},{"base_weights":[6.663487E-1,-9.8232515E-2,1.4846301E2,-5.6349516E-1,2.0961287E2,1.06484566E2,-5.1209097E0,1.8456684E0,-4.9516954E0,-3.8659182E0,9.819171E1,-8.59199E0,6.0315356E0],"categories":[],"categories_nodes":[],"categories_segments":[],"categories_sizes":[],"default_left":[0,0,0,0,0,0,0,0,0,0,0,0,0],"id":14,"left_children":[1,3,5,7,9,-1,11,-1,-1,-1,-1,-1,-1],"loss_changes":[1.5369805E5,1.322289E5,2.2380767E5,1.4485088E5,8.2777484E4,0E0,3.542272E3,0E0,0E0,0E0,0E0,0E0,0E0],"parents":[2147483647,0,0,1,1,2,2,3,3,4,4,6,6],"right_children":[2,4,6,8,10,-1,12,-1,-1,-1,-1,-1,-1],"split_conditions":[2.02E2,1.79E3,1.6E1,4.6E1,1.3E1,1.06484566E2,4E1,1.8456684E0,-4.9516954E0,-3.8659182E0,9.819171E1,-8.59199E0,6.0315356E0],"split_indices":[101,19,2,5,0,0,1,0,0,0,0,0,0],"split_type":[0,0,0,0,0,0,0,0,0,0,0,0,0],"sum_hessian":[1.359E3,1.353E3,6E0,1.351E3,2E0,2E0,4E0,9.51E2,4E2,1E0,1E0,2E0,2E0],"tree_param":{"num_deleted":"0","num_feature":"117","num_nodes":"13","size_leaf_vector":"1"}},{"base_weights":[6.099312E-1,1.439382E0,-1.11509865E2,9.961691E-2,2.7151834E2,-3.6396984E1,-3.4783592E0,1.8411137E-1,-5.1913292E1],"categories":[],"categories_nodes":[],"categories_segments":[],"categories_sizes":[],"default_left":[0,0,0,0,0,0,0,0,0],"id":15,"left_children":[1,3,5,7,-1,-1,-1,-1,-1],"loss_changes":[1.2663757E5,1.6354855E6,8.3984375E3,1.2027125E5,0E0,0E0,0E0,0E0,0E0],"parents":[2147483647,0,0,1,1,2,2,3,3],"right_children":[2,4,6,8,-1,-1,-1,-1,-1],"split_conditions":[3.57E2,3.39E2,4.4E2,5.937E3,2.7151834E2,-3.6396984E1,-3.4783592E0,1.8411137E-1,-5.1913292E1],"split_indices":[85,85,1,22,0,0,0,0,0],"split_type":[0,0,0,0,0,0,0,0,0],"sum_hessian":[1.359E3,1.35E3,9E0,1.349E3,1E0,8E0,1E0,1.346E3,3E0],"tree_param":{"num_deleted":"0","num_feature":"117","num_nodes":"9","size_leaf_vector":"1"}},{"base_weights":[5.59241E-1,4.028068E0,-2.5117815E1,2.4031444E0,1.7930138E2,-2.9515083E1,1.55953E2,5.8108664E-1,8.343534E1,-2.8252811E0,3.099737E2,-9.820334E0,4.4641014E1,6.440293E1,-3.0325918E0],"categories":[],"categories_nodes":[],"categories_segments":[],"categories_sizes":[],"default_left":[0,0,0,0,0,0,0,0,0,0,0,0,0,0,0],"id":16,"left_children":[1,3,5,7,9,11,13,-1,-1,-1,-1,-1,-1,-1,-1],"loss_changes":[1.2123539E5,3.4105125E5,1.3359006E5,1.5228956E5,1.7824411E6,9.6148484E4,4.1176938E4,0E0,0E0,0E0,0E0,0E0,0E0,0E0,0E0],"parents":[2147483647,0,0,1,1,2,2,3,3,4,4,5,5,6,6],"right_children":[2,4,6,8,10,12,14,-1,-1,-1,-1,-1,-1,-1,-1],"split_conditions":[1.154E3,1.068E3,2.189E3,1.79E3,2.4E1,2.159E3,4.31E2,5.8108664E-1,8.343534E1,-2.8252811E0,3.099737E2,-9.820334E0,4.4641014E1,6.440293E1,-3.0325918E0],"split_indices":[3,3,22,19,77,54,1,0,0,0,0,0,0,0,0],"split_type":[0,0,0,0,0,0,0,0,0,0,0,0,0,0,0],"sum_hessian":[1.359E3,1.198E3,1.61E2,1.188E3,1E1,1.58E2,3E0,1.187E3,1E0,9E0,1E0,1.56E2,2E0,2E0,1E0],"tree_param":{"num_deleted":"0","num_feature":"117","num_nodes":"15","size_leaf_vector":"1"}},{"base_weights":[7.498199E-1,3.0102248E0,-3.4064003E1,2.2002897E0,2.6042447E2,-4.7507782E1,1.8516046E2,1.9560866E0,-4.9370623E0,1.7518631E2,-1.2621083E1,-1.640658E1,4.5790733E1,9.559236E1,-3.0121303E0],"categories":[],"categories_nodes":[],"categories_segments":[],"categories_sizes":[],"default_left":[0,0,0,0,0,0,0,0,0,0,0,0,0,0,0],"id":17,"left_children":[1,3,5,7,9,11,13,-1,-1,-1,-1,-1,-1,-1,-1],"loss_changes":[1.0712549E5,2.6587572E5,2.5341456E5,1.0287093E5,4.160315E5,1.2188578E5,1.334771E5,0E0,0E0,0E0,0E0,0E0,0E0,0E0,0E0],"parents":[2147483647,0,0,1,1,2,2,3,3,4,4,5,5,6,6],"right_children":[2,4,6,8,10,12,14,-1,-1,-1,-1,-1,-1,-1,-1],"split_conditions":[2.5E1,5.441E3,5.5E1,2.3E1,1.03E2,2.96E2,1.3E1,1.9560866E0,-4.9370623E0,1.7518631E2,-1.2621083E1,-1.640658E1,4.5790733E1,9.559236E1,-3.0121303E0],"split_indices":[69,22,111,18,0,92,0,0,0,0,0,0,0,0,0],"split_type":[0,0,0,0,0,0,0,0,0,0,0,0,0,0,0],"sum_hessian":[1.359E3,1.277E3,8.2E1,1.274E3,3E0,7.8E1,4E0,1.035E3,2.39E2,1E0,2E0,7.6E1,2E0,2E0,2E0],"tree_param":{"num_deleted":"0","num_feature":"117","num_nodes":"15","size_leaf_vector":"1"}},{"base_weights":[7.3189557E-1,-3.0079124E0,2.1696682E1,-4.328729E0,1.3475056E2,1.5279647E1,4.5082288E2,-1.7530644E0,2.1978445E1,-1.6143131E0,2.3041E2,1.0978628E2,2.9987903E0,-3.7154908E0,2.0658578E2],"categories":[],"categories_nodes":[],"categories_segments":[],"categories_sizes":[],"default_left":[0,0,0,0,0,0,0,0,0,0,0,0,0,0,0],"id":18,"left_children":[1,3,5,7,9,11,13,-1,-1,-1,-1,-1,-1,-1,-1],"loss_changes":[1.0669508E5,2.1073984E5,5.6037744E5,1.350058E5,9.80305E5,3.7432384E5,3.38976E5,0E0,0E0,0E0,0E0,0E0,0E0,0E0,0E0],"parents":[2147483647,0,0,1,1,2,2,3,3,4,4,5,5,6,6],"right_children":[2,4,6,8,10,12,14,-1,-1,-1,-1,-1,-1,-1,-1],"split_conditions":[1.08E2,2.88E2,5.67E2,1.32E2,2.2E1,1.13E2,3.56E2,-1.7530644E0,2.1978445E1,-1.6143131E0,2.3041E2,1.0978628E2,2.9987903E0,-3.7154908E0,2.0658578E2],"split_indices":[22,85,45,107,11,22,0,0,0,0,0,0,0,0,0],"split_type":[0,0,0,0,0,0,0,0,0,0,0,0,0,0,0],"sum_hessian":[1.359E3,1.154E3,2.05E2,1.144E3,1E1,2.03E2,2E0,1.123E3,2.1E1,9E0,1E0,2E0,2.01E2,1E0,1E0],"tree_param":{"num_deleted":"0","num_feature":"117","num_nodes":"15","size_leaf_vector":"1"}},{"base_weights":[9.275309E-1,3.1681338E-1,1.1892524E2,2.1245975E0,-3.8037113E1,8.499401E1,-3.4926748E0,5.8804783E-3,1.3619815E2,-4.8952953E1,-5.6380663E0,-7.0672364E0,5.320899E0],"categories":[],"categories_nodes":[],"categories_segments":[],"categories_sizes":[],"default_left":[0,0,0,0,0,0,0,0,0,0,0,0,0],"id":19,"left_children":[1,3,5,7,9,-1,11,-1,-1,-1,-1,-1,-1],"loss_changes":[9.796837E4,9.396125E4,1.4185788E5,1.2308216E6,1.4382908E5,0E0,2.5475994E3,0E0,0E0,0E0,0E0,0E0,0E0],"parents":[2147483647,0,0,1,1,2,2,3,3,4,4,6,6],"right_children":[2,4,6,8,10,-1,12,-1,-1,-1,-1,-1,-1],"split_conditions":[2.02E2,1.221E3,1.6E1,1.109E3,2.9E1,8.499401E1,4E1,5.8804783E-3,1.3619815E2,-4.8952953E1,-5.6380663E0,-7.0672364E0,5.320899E0],"split_indices":[101,24,2,24,1,0,1,0,0,0,0,0,0],"split_type":[0,0,0,0,0,0,0,0,0,0,0,0,0],"sum_hessian":[1.359E3,1.353E3,6E0,1.293E3,6E1,2E0,4E0,1.288E3,5E0,7E0,5.3E1,2E0,2E0],"tree_param":{"num_deleted":"0","num_feature":"117","num_nodes":"13","size_leaf_vector":"1"}},{"base_weights":[7.7049387E-1,3.3785253E0,-2.4358204E1,2.5866077E0,3.272025E2,-9.608434E1,-1.6109945E1,1.1477271E0,-3.1621243E1,1.4845767E2,-1.2165319E0,-2.2487186E1,-5.2441353E1,-9.616143E0,2.654784E0],"categories":[],"categories_nodes":[],"categories_segments":[],"categories_sizes":[],"default_left":[0,0,0,0,0,0,0,0,0,0,0,0,0,0,0],"id":20,"left_children":[1,3,5,7,9,11,13,-1,-1,-1,-1,-1,-1,-1,-1],"loss_changes":[8.921185E4,3.1534653E5,7.41789E4,1.6513156E5,1.6861903E5,8.51775E3,4.644545E4,0E0,0E0,0E0,0E0,0E0,0E0,0E0,0E0],"parents":[2147483647,0,0,1,1,2,2,3,3,4,4,5,5,6,6],"right_children":[2,4,6,8,10,12,14,-1,-1,-1,-1,-1,-1,-1,-1],"split_conditions":[5.3E1,5.441E3,2.9E1,2.432E3,1.03E2,1.8E1,9.1E1,1.1477271E0,-3.1621243E1,1.4845767E2,-1.2165319E0,-2.2487186E1,-5.2441353E1,-9.616143E0,2.654784E0],"split_indices":[48,22,1,22,0,9,5,0,0,0,0,0,0,0,0],"split_type":[0,0,0,0,0,0,0,0,0,0,0,0,0,0,0],"sum_hessian":[1.359E3,1.232E3,1.27E2,1.23E3,2E0,1.2E1,1.15E2,1.217E3,1.3E1,1E0,1E0,1.1E1,1E0,7E1,4.5E1],"tree_param":{"num_deleted":"0","num_feature":"117","num_nodes":"15","size_leaf_vector":"1"}},{"base_weights":[5.649929E-1,-1.6846268E1,4.273305E0,-1.9301573E1,8.512744E1,2.0237906E2,3.026877E0,-6.499682E0,8.1146194E1,-9.9851054E-1,2.1549356E2,2.1983008E0,-6.1375575E0],"categories":[],"categories_nodes":[],"categories_segments":[],"categories_sizes":[],"default_left":[0,0,0,0,0,0,0,0,0,0,0,0,0],"id":21,"left_children":[1,3,5,7,-1,9,11,-1,-1,-1,-1,-1,-1],"loss_changes":[8.788227E4,1.81877E5,2.7643678E5,1.6890716E5,0E0,7.453092E5,1.1287242E5,0E0,0E0,0E0,0E0,0E0,0E0],"parents":[2147483647,0,0,1,1,2,2,3,3,5,5,6,6],"right_children":[2,4,6,8,-1,10,12,-1,-1,-1,-1,-1,-1],"split_conditions":[3.4E1,1.945E3,3.9E1,3.66E2,8.512744E1,1.9E1,2.8E2,-6.499682E0,8.1146194E1,-9.9851054E-1,2.1549356E2,2.1983008E0,-6.1375575E0],"split_indices":[0,11,0,70,0,8,8,0,0,0,0,0,0],"split_type":[0,0,0,0,0,0,0,0,0,0,0,0,0],"sum_hessian":[1.359E3,2.38E2,1.121E3,2.37E2,1E0,6E0,1.115E3,2.36E2,1E0,5E0,1E0,9.43E2,1.72E2],"tree_param":{"num_deleted":"0","num_feature":"117","num_nodes":"13","size_leaf_vector":"1"}},{"base_weights":[6.677952E-1,-4.965144E-2,8.865736E1,9.768355E-1,-5.6803757E1,-2.572244E1,1.848683E2,4.0403094E-2,1.1178137E2,-2.0271456E1,2.8628223E1,-2.0827593E1,-3.9457934E0],"categories":[],"categories_nodes":[],"categories_segments":[],"categories_sizes":[],"default_left":[0,0,0,0,0,0,0,0,0,0,0,0,0],"id":22,"left_children":[1,3,5,7,9,11,-1,-1,-1,-1,-1,-1,-1],"loss_changes":[8.585823E4,7.870291E4,6.796281E5,4.152603E5,4.578872E4,4.580236E3,0E0,0E0,0E0,0E0,0E0,0E0,0E0],"parents":[2147483647,0,0,1,1,2,2,3,3,4,4,5,5],"right_children":[2,4,6,8,10,12,-1,-1,-1,-1,-1,-1,-1],"split_conditions":[1.528E3,6.44E2,3.6E1,5.99E2,1.35E2,2.9E1,1.848683E2,4.0403094E-2,1.1178137E2,-2.0271456E1,2.8628223E1,-2.0827593E1,-3.9457934E0],"split_indices":[36,64,11,64,36,1,0,0,0,0,0,0,0],"split_type":[0,0,0,0,0,0,0,0,0,0,0,0,0],"sum_hessian":[1.359E3,1.349E3,1E1,1.326E3,2.3E1,9E0,1E0,1.324E3,2E0,2.2E1,1E0,1E0,8E0],"tree_param":{"num_deleted":"0","num_feature":"117","num_nodes":"13","size_leaf_vector":"1"}},{"base_weights":[6.7353934E-1,4.4228034E0,-1.6238825E1,-1.9113274E-1,3.874914E1,-1.903413E1,1.5833461E2,-5.330751E-1,2.7006973E1,3.1388705E0,6.8844536E1,-6.2696147E0,6.510896E1,9.4903786E1,6.465435E-2],"categories":[],"categories_nodes":[],"categories_segments":[],"categories_sizes":[],"default_left":[0,0,0,0,0,0,0,0,0,0,0,0,0,0,0],"id":23,"left_children":[1,3,5,7,9,11,13,-1,-1,-1,-1,-1,-1,-1,-1],"loss_changes":[8.630795E4,1.7644219E5,1.23546375E5,1.4078845E5,7.097534E5,1.1193498E5,9.9870266E4,0E0,0E0,0E0,0E0,0E0,0E0,0E0,0E0],"parents":[2147483647,0,0,1,1,2,2,3,3,4,4,5,5,6,6],"right_children":[2,4,6,8,10,12,14,-1,-1,-1,-1,-1,-1,-1,-1],"split_conditions":[1.789E3,2.1E2,1.593E3,1.75E2,5.2E1,7.036E3,5.08E2,-5.330751E-1,2.7006973E1,3.1388705E0,6.8844536E1,-6.2696147E0,6.510896E1,9.4903786E1,6.465435E-2],"split_indices":[0,22,59,85,45,78,1,0,0,0,0,0,0,0,0],"split_type":[0,0,0,0,0,0,0,0,0,0,0,0,0,0,0],"sum_hessian":[1.359E3,1.113E3,2.46E2,9.82E2,1.31E2,2.43E2,3E0,9.66E2,1.6E1,1.15E2,1.6E1,2.42E2,1E0,1E0,2E0],"tree_param":{"num_deleted":"0","num_feature":"117","num_nodes":"15","size_leaf_vector":"1"}},{"base_weights":[6.569671E-1,1.3336304E0,-9.082594E1,3.8998327E-1,1.912886E2,-3.3365536E1,-3.243258E1,-4.4624165E-1,8.946545E0,-1.10467005E1,-2.8894973E0],"categories":[],"categories_nodes":[],"categories_segments":[],"categories_sizes":[],"default_left":[0,0,0,0,0,0,0,0,0,0,0],"id":24,"left_children":[1,3,5,7,-1,-1,9,-1,-1,-1,-1],"loss_changes":[8.430939E4,8.1094306E5,8.300773E3,7.4641234E4,0E0,0E0,4.570166E1,0E0,0E0,0E0,0E0],"parents":[2147483647,0,0,1,1,2,2,3,3,6,6],"right_children":[2,4,6,8,-1,-1,10,-1,-1,-1,-1],"split_conditions":[3.57E2,3.39E2,9.72E2,8.6E1,1.912886E2,-3.3365536E1,4.4E2,-4.4624165E-1,8.946545E0,-1.10467005E1,-2.8894973E0],"split_indices":[85,85,0,64,0,0,1,0,0,0,0],"split_type":[0,0,0,0,0,0,0,0,0,0,0],"sum_hessian":[1.359E3,1.35E3,9E0,1.349E3,1E0,6E0,3E0,1.269E3,8E1,2E0,1E0],"tree_param":{"num_deleted":"0","num_feature":"117","num_nodes":"11","size_leaf_vector":"1"}},{"base_weights":[5.720006E-1,3.133171E0,-2.288418E1,6.7881054E-1,4.3084747E1,-2.931756E1,1.1924751E2,-1.6322565E-1,2.6376179E1,7.879481E1,-4.635385E0,-1.068168E1,3.1656456E1,1.09994125E2,-1.0685441E0],"categories":[],"categories_nodes":[],"categories_segments":[],"categories_sizes":[],"default_left":[0,0,0,0,0,0,0,0,0,0,0,0,0,0,0],"id":25,"left_children":[1,3,5,7,9,11,13,-1,-1,-1,-1,-1,-1,-1,-1],"loss_changes":[8.1774086E4,1.20284945E5,1.2602392E5,1.2348542E5,9.1658156E5,1.1313282E5,1.8360375E5,0E0,0E0,0E0,0E0,0E0,0E0,0E0,0E0],"parents":[2147483647,0,0,1,1,2,2,3,3,4,4,5,5,6,6],"right_children":[2,4,6,8,10,12,14,-1,-1,-1,-1,-1,-1,-1,-1],"split_conditions":[5.6E1,2E1,1.55E2,6.14E2,1.18E2,2.82E2,2.9E1,-1.6322565E-1,2.6376179E1,7.879481E1,-4.635385E0,-1.068168E1,3.1656456E1,1.09994125E2,-1.0685441E0],"split_indices":[28,28,55,94,0,36,1,0,0,0,0,0,0,0,0],"split_type":[0,0,0,0,0,0,0,0,0,0,0,0,0,0,0],"sum_hessian":[1.359E3,1.226E3,1.33E2,1.156E3,7E1,1.28E2,5E0,1.141E3,1.5E1,1.4E1,5.6E1,1.23E2,5E0,1E0,4E0],"tree_param":{"num_deleted":"0","num_feature":"117","num_nodes":"15","size_leaf_vector":"1"}},{"base_weights":[5.697175E-1,3.0364099E0,-2.2401E1,2.6885688E-1,7.42048E1,-2.6362244E1,7.447831E1,-1.7131971E-1,2.9679865E1,1.3843607E1,1.3830257E2,-1.8070728E1,-4.1604195E0],"categories":[],"categories_nodes":[],"categories_segments":[],"categories_sizes":[],"default_left":[0,0,0,0,0,0,0,0,0,0,0,0,0],"id":26,"left_children":[1,3,5,7,9,11,-1,-1,-1,-1,-1,-1,-1],"loss_changes":[7.7127914E4,2.4204673E5,1.4806962E5,9.8174734E4,4.7798762E5,5.460668E4,0E0,0E0,0E0,0E0,0E0,0E0,0E0],"parents":[2147483647,0,0,1,1,2,2,3,3,4,4,5,5],"right_children":[2,4,6,8,10,12,-1,-1,-1,-1,-1,-1,-1],"split_conditions":[1.61E2,1.05E2,1.65E3,2.88E2,1.9E2,3.7E1,7.447831E1,-1.7131971E-1,2.9679865E1,1.3843607E1,1.3830257E2,-1.8070728E1,-4.1604195E0],"split_indices":[25,25,72,85,36,1,0,0,0,0,0,0,0],"split_type":[0,0,0,0,0,0,0,0,0,0,0,0,0],"sum_hessian":[1.359E3,1.228E3,1.31E2,1.183E3,4.5E1,1.3E2,1E0,1.174E3,9E0,4.3E1,2E0,3.4E1,9.6E1],"tree_param":{"num_deleted":"0","num_feature":"117","num_nodes":"13","size_leaf_vector":"1"}},{"base_weights":[5.7078946E-1,5.405017E-2,1.004414E2,-1.5137414E0,3.389132E1,6.841428E1,3.7894013E0,6.530859E-2,-1.07851515E1,8.9234604E1,-2.7034184E-1,-2.3340092E0,7.5100694E0],"categories":[],"categories_nodes":[],"categories_segments":[],"categories_sizes":[],"default_left":[0,0,0,0,0,0,0,0,0,0,0,0,0],"id":27,"left_children":[1,3,5,7,9,-1,11,-1,-1,-1,-1,-1,-1],"loss_changes":[7.018019E4,7.188071E4,8.5469586E4,7.72223E4,5.504565E5,0E0,1.4236763E3,0E0,0E0,0E0,0E0,0E0,0E0],"parents":[2147483647,0,0,1,1,2,2,3,3,4,4,6,6],"right_children":[2,4,6,8,10,-1,12,-1,-1,-1,-1,-1,-1],"split_conditions":[2.02E2,5.6E1,1.6E1,1.11E3,7.3E1,6.841428E1,3.383E3,6.530859E-2,-1.07851515E1,8.9234604E1,-2.7034184E-1,-2.3340092E0,7.5100694E0],"split_indices":[101,77,2,24,77,0,0,0,0,0,0,0,0],"split_type":[0,0,0,0,0,0,0,0,0,0,0,0,0],"sum_hessian":[1.359E3,1.353E3,6E0,1.294E3,5.9E1,2E0,4E0,1.233E3,6.1E1,6E0,5.3E1,3E0,1E0],"tree_param":{"num_deleted":"0","num_feature":"117","num_nodes":"13","size_leaf_vector":"1"}},{"base_weights":[5.111961E-1,-1.3670019E0,3.2260845E1,-1.9295719E0,1.7927843E2,3.1581903E2,-2.0584682E1,-6.7814744E-1,6.3296764E1,1.2548972E2,-1.1948444E1,3.3988586E1,3.8153705E2,-4.6096647E-1,-3.137576E1],"categories":[],"categories_nodes":[],"categories_segments":[],"categories_sizes":[],"default_left":[0,0,0,0,0,0,0,0,0,0,0,0,0,0,0],"id":28,"left_children":[1,3,5,7,9,11,13,-1,-1,-1,-1,-1,-1,-1,-1],"loss_changes":[8.114379E4,1.30934945E5,1.1453444E6,9.0805375E4,2.2614405E5,2.1791945E6,1.0384353E5,0E0,0E0,0E0,0E0,0E0,0E0,0E0,0E0],"parents":[2147483647,0,0,1,1,2,2,3,3,4,4,5,5,6,6],"right_children":[2,4,6,8,10,12,14,-1,-1,-1,-1,-1,-1,-1,-1],"split_conditions":[9.76E2,5.441E3,1.11E3,1.833E3,1.03E2,1.109E3,3.35E2,-6.7814744E-1,6.3296764E1,1.2548972E2,-1.1948444E1,3.3988586E1,3.8153705E2,-4.6096647E-1,-3.137576E1],"split_indices":[24,22,24,25,0,24,22,0,0,0,0,0,0,0,0],"split_type":[0,0,0,0,0,0,0,0,0,0,0,0,0,0,0],"sum_hessian":[1.359E3,1.284E3,7.5E1,1.281E3,3E0,1.1E1,6.4E1,1.28E3,1E0,1E0,2E0,1E1,1E0,5.3E1,1.1E1],"tree_param":{"num_deleted":"0","num_feature":"117","num_nodes":"15","size_leaf_vector":"1"}},{"base_weights":[7.694902E-1,1.5796701E0,-6.738435E1,4.1650307E-1,3.1322513E2,-7.764154E1,2.9439487E0,1.2945412E0,-5.2459383E0,-6.380898E0,1.6299348E2,-3.6199253E1,-1.2099883E1,1.6955632E0,-3.7078616E-1],"categories":[],"categories_nodes":[],"categories_segments":[],"categories_sizes":[],"default_left":[0,0,0,0,0,0,0,0,0,0,0,0,0,0,0],"id":29,"left_children":[1,3,5,7,9,11,13,-1,-1,-1,-1,-1,-1,-1,-1],"loss_changes":[7.520141E4,4.874263E5,1.17705E4,9.3673375E4,3.9636956E5,1.760486E4,4.0942085E1,0E0,0E0,0E0,0E0,0E0,0E0,0E0,0E0],"parents":[2147483647,0,0,1,1,2,2,3,3,4,4,5,5,6,6],"right_children":[2,4,6,8,10,12,14,-1,-1,-1,-1,-1,-1,-1,-1],"split_conditions":[8.11E2,6.57E2,6.6E1,8E0,1.3E1,1.03E2,1.3E1,1.2945412E0,-5.2459383E0,-6.380898E0,1.6299348E2,-3.6199253E1,-1.2099883E1,1.6955632E0,-3.7078616E-1],"split_indices":[45,45,62,19,0,0,0,0,0,0,0,0,0,0,0],"split_type":[0,0,0,0,0,0,0,0,0,0,0,0,0,0,0],"sum_hessian":[1.359E3,1.344E3,1.5E1,1.34E3,4E0,1.3E1,2E0,1.101E3,2.39E2,2E0,2E0,5E0,8E0,1E0,1E0],"tree_param":{"num_deleted":"0","num_feature":"117","num_nodes":"15","size_leaf_vector":"1"}},{"base_weights":[6.1635476E-1,2.7881926E-1,1.5320197E2,8.704721E-1,-7.956303E1,1.6152773E0,6.7325615E1,2.6816724E-2,1.5806557E2,-3.3196747E1,-7.9017243E0],"categories":[],"categories_nodes":[],"categories_segments":[],"categories_sizes":[],"default_left":[0,0,0,0,0,0,0,0,0,0,0],"id":30,"left_children":[1,3,5,7,9,-1,-1,-1,-1,-1,-1],"loss_changes":[7.0001445E4,6.4219355E4,3.0372953E4,5.5420456E5,1.3634234E4,0E0,0E0,0E0,0E0,0E0,0E0],"parents":[2147483647,0,0,1,1,2,2,3,3,4,4],"right_children":[2,4,6,8,10,-1,-1,-1,-1,-1,-1],"split_conditions":[1.79E3,3.57E2,1.3E1,3.39E2,2.9E1,1.6152773E0,6.7325615E1,2.6816724E-2,1.5806557E2,-3.3196747E1,-7.9017243E0],"split_indices":[19,85,0,85,1,0,0,0,0,0,0],"split_type":[0,0,0,0,0,0,0,0,0,0,0],"sum_hessian":[1.359E3,1.357E3,2E0,1.348E3,9E0,1E0,1E0,1.347E3,1E0,5E0,4E0],"tree_param":{"num_deleted":"0","num_feature":"117","num_nodes":"11","size_leaf_vector":"1"}},{"base_weights":[5.681661E-1,1.7354273E0,-4.0085907E1,-5.823277E-1,9.2356224E1,-7.6115326E1,-2.0529432E1,-5.2752447E0,8.8947064E-1,1.2391877E2,6.100501E0,-2.466301E1,-4.4682714E-1,-8.222649E0,6.176275E-1],"categories":[],"categories_nodes":[],"categories_segments":[],"categories_sizes":[],"default_left":[0,0,0,0,0,0,0,0,0,0,0,0,0,0,0],"id":31,"left_children":[1,3,5,7,9,11,13,-1,-1,-1,-1,-1,-1,-1,-1],"loss_changes":[6.46069E4,2.7793247E5,2.521252E4,7.7911516E4,7.5382325E5,5.790258E3,4.0966475E3,0E0,0E0,0E0,0E0,0E0,0E0,0E0,0E0],"parents":[2147483647,0,0,1,1,2,2,3,3,4,4,5,5,6,6],"right_children":[2,4,6,8,10,12,14,-1,-1,-1,-1,-1,-1,-1,-1],"split_conditions":[1.78E2,6.7E1,7.1E1,3.4E1,7.9E1,3.15E2,1E1,-5.2752447E0,8.8947064E-1,1.2391877E2,6.100501E0,-2.466301E1,-4.4682714E-1,-8.222649E0,6.176275E-1],"split_indices":[74,74,1,0,74,2,6,0,0,0,0,0,0,0,0],"split_type":[0,0,0,0,0,0,0,0,0,0,0,0,0,0,0],"sum_hessian":[1.359E3,1.322E3,3.7E1,1.29E3,3.2E1,1.2E1,2.5E1,2.22E2,1.068E3,5E0,2.7E1,1.1E1,1E0,1.9E1,6E0],"tree_param":{"num_deleted":"0","num_feature":"117","num_nodes":"15","size_leaf_vector":"1"}},{"base_weights":[4.660395E-1,1.3925413E0,-4.9064857E1,6.2832373E-1,1.5324344E2,-5.7722324E1,2.3807161E1,3.304785E-1,-3.131545E1,-2.6228529E1,-4.4001226E0],"categories":[],"categories_nodes":[],"categories_segments":[],"categories_sizes":[],"default_left":[0,0,0,0,0,0,0,0,0,0,0],"id":32,"left_children":[1,3,5,7,-1,9,-1,-1,-1,-1,-1],"loss_changes":[6.247935E4,5.19793E5,3.2375938E4,6.6464086E4,0E0,2.9413758E4,0E0,0E0,0E0,0E0,0E0],"parents":[2147483647,0,0,1,1,2,2,3,3,5,5],"right_children":[2,4,6,8,-1,10,-1,-1,-1,-1,-1],"split_conditions":[6.26E2,5.99E2,1.35E2,4.94E2,1.5324344E2,1.6E1,2.3807161E1,3.304785E-1,-3.131545E1,-2.6228529E1,-4.4001226E0],"split_indices":[64,64,36,64,0,2,0,0,0,0,0],"split_type":[0,0,0,0,0,0,0,0,0,0,0],"sum_hessian":[1.359E3,1.335E3,2.4E1,1.334E3,1E0,2.3E1,1E0,1.329E3,5E0,1.3E1,1E1],"tree_param":{"num_deleted":"0","num_feature":"117","num_nodes":"11","size_leaf_vector":"1"}},{"base_weights":[4.1110894E-1,-1.2238477E0,2.8439686E1,-1.7005185E0,1.5197424E2,1.9672469E2,1.1101062E1,-6.899473E-1,2.5017023E1,1.0628507E2,-1.0067018E1,-9.914835E0,3.7230698E1],"categories":[],"categories_nodes":[],"categories_segments":[],"categories_sizes":[],"default_left":[0,0,0,0,0,0,0,0,0,0,0,0,0],"id":33,"left_children":[1,3,5,7,9,-1,11,-1,-1,-1,-1,-1,-1],"loss_changes":[6.23575E4,9.416864E4,8.084714E5,6.561873E4,1.6202716E5,0E0,3.7329222E5,0E0,0E0,0E0,0E0,0E0,0E0],"parents":[2147483647,0,0,1,1,2,2,3,3,4,4,6,6],"right_children":[2,4,6,8,10,-1,12,-1,-1,-1,-1,-1,-1],"split_conditions":[9.77E2,5.441E3,9.78E2,1.528E3,1.03E2,1.9672469E2,2.6E1,-6.899473E-1,2.5017023E1,1.0628507E2,-1.0067018E1,-9.914835E0,3.7230698E1],"split_indices":[24,22,24,36,0,0,16,0,0,0,0,0,0],"split_type":[0,0,0,0,0,0,0,0,0,0,0,0,0],"sum_hessian":[1.359E3,1.285E3,7.4E1,1.282E3,3E0,1E0,7.3E1,1.274E3,8E0,1E0,2E0,5.3E1,2E1],"tree_param":{"num_deleted":"0","num_feature":"117","num_nodes":"13","size_leaf_vector":"1"}},{"base_weights":[5.4114735E-1,2.8584597E-1,5.2124367E1,2.2170432E0,-2.2104383E1,4.873772E-1,1.11506294E2,-1.8648092E1,-1.0640254E-1],"categories":[],"categories_nodes":[],"categories_segments":[],"categories_sizes":[],"default_left":[0,0,0,0,0,0,0,0,0],"id":34,"left_children":[1,3,-1,5,7,-1,-1,-1,-1],"loss_changes":[6.0089434E4,5.8812094E4,0E0,2.734512E5,9.406806E4,0E0,0E0,0E0,0E0],"parents":[2147483647,0,0,1,1,3,3,4,4],"right_children":[2,4,-1,6,8,-1,-1,-1,-1],"split_conditions":[9.954E3,4.2E1,5.2124367E1,4.1E1,1.5E2,4.873772E-1,1.11506294E2,-1.8648092E1,-1.0640254E-1],"split_indices":[99,53,0,53,1,0,0,0,0],"split_type":[0,0,0,0,0,0,0,0,0],"sum_hessian":[1.359E3,1.358E3,1E0,1.251E3,1.07E2,1.25E3,1E0,3.7E1,7E1],"tree_param":{"num_deleted":"0","num_feature":"117","num_nodes":"9","size_leaf_vector":"1"}},{"base_weights":[4.8568672E-1,3.4076788E0,-1.4191069E1,6.226302E0,-2.0485062E1,-5.435377E1,-9.150184E0,1.6306871E0,1.21314735E2,-7.3167534E0,2.225623E1,-2.1031046E1,4.85459E1,-3.1739955E0,2.6765984E1],"categories":[],"categories_nodes":[],"categories_segments":[],"categories_sizes":[],"default_left":[0,0,0,0,0,0,0,0,0,0,0,0,0,0,0],"id":35,"left_children":[1,3,5,7,9,11,13,-1,-1,-1,-1,-1,-1,-1,-1],"loss_changes":[5.8372453E4,7.656371E4,4.5257605E4,3.176524E5,4.6162855E4,9.646084E4,2.9355188E4,0E0,0E0,0E0,0E0,0E0,0E0,0E0,0E0],"parents":[2147483647,0,0,1,1,2,2,3,3,4,4,5,5,6,6],"right_children":[2,4,6,8,10,12,14,-1,-1,-1,-1,-1,-1,-1,-1],"split_conditions":[2.5E1,2.36E2,8.9E1,2.34E2,6.1E1,6.491E3,2.52E2,1.6306871E0,1.21314735E2,-7.3167534E0,2.225623E1,-2.1031046E1,4.85459E1,-3.1739955E0,2.6765984E1],"split_indices":[15,11,1,11,98,0,65,0,0,0,0,0,0,0,0],"split_type":[0,0,0,0,0,0,0,0,0,0,0,0,0,0,0],"sum_hessian":[1.359E3,1.134E3,2.25E2,1.015E3,1.19E2,2.4E1,2.01E2,1.014E3,1E0,1.15E2,4E0,2.3E1,1E0,1.99E2,2E0],"tree_param":{"num_deleted":"0","num_feature":"117","num_nodes":"15","size_leaf_vector":"1"}},{"base_weights":[4.789455E-1,1.6003393E0,-3.474956E1,8.2831675E-1,6.865961E1,-5.3904488E1,1.6069835E2,-1.689601E-1,9.39153E0,3.518826E1,-1.5620523E1,-1.8886446E1,-1.0614016E0,6.9165504E1,-7.329241E0],"categories":[],"categories_nodes":[],"categories_segments":[],"categories_sizes":[],"default_left":[0,0,0,0,0,0,0,0,0,0,0,0,0,0,0],"id":36,"left_children":[1,3,5,7,9,11,13,-1,-1,-1,-1,-1,-1,-1,-1],"loss_changes":[5.3782445E4,6.822943E4,1.6590155E5,5.536133E4,9.418069E4,1.7554766E4,5.73601E4,0E0,0E0,0E0,0E0,0E0,0E0,0E0,0E0],"parents":[2147483647,0,0,1,1,2,2,3,3,4,4,5,5,6,6],"right_children":[2,4,6,8,10,12,14,-1,-1,-1,-1,-1,-1,-1,-1],"split_conditions":[6.1E1,4E1,5.1E1,5.6E1,3.29E2,1.077E3,2.24E2,-1.689601E-1,9.39153E0,3.518826E1,-1.5620523E1,-1.8886446E1,-1.0614016E0,6.9165504E1,-7.329241E0],"split_indices":[66,66,30,77,0,0,0,0,0,0,0,0,0,0,0],"split_type":[0,0,0,0,0,0,0,0,0,0,0,0,0,0,0],"sum_hessian":[1.359E3,1.318E3,4.1E1,1.304E3,1.4E1,3.8E1,3E0,1.248E3,5.6E1,1E1,4E0,3.2E1,6E0,2E0,1E0],"tree_param":{"num_deleted":"0","num_feature":"117","num_nodes":"15","size_leaf_vector":"1"}},{"base_weights":[3.8723135E-1,9.923648E-2,1.3062384E2,-3.3868322E-1,8.466612E1,1.925827E0,5.68549E1,1.0754304E-2,-3.0373344E1,5.410693E1,3.0956118E0],"categories":[],"categories_nodes":[],"categories_segments":[],"categories_sizes":[],"default_left":[0,0,0,0,0,0,0,0,0,0,0],"id":37,"left_children":[1,3,5,7,9,-1,-1,-1,-1,-1,-1],"loss_changes":[5.09972E4,5.032017E4,2.0727543E4,5.1098863E4,4.7939246E4,0E0,0E0,0E0,0E0,0E0,0E0],"parents":[2147483647,0,0,1,1,2,2,3,3,4,4],"right_children":[2,4,6,8,10,-1,-1,-1,-1,-1,-1],"split_conditions":[1.79E3,2.02E2,1.3E1,1.27E2,1.6E1,1.925827E0,5.68549E1,1.0754304E-2,-3.0373344E1,5.410693E1,3.0956118E0],"split_indices":[19,101,0,101,2,0,0,0,0,0,0],"split_type":[0,0,0,0,0,0,0,0,0,0,0],"sum_hessian":[1.359E3,1.357E3,2E0,1.351E3,6E0,1E0,1E0,1.347E3,4E0,2E0,4E0],"tree_param":{"num_deleted":"0","num_feature":"117","num_nodes":"11","size_leaf_vector":"1"}},{"base_weights":[3.3401737E-1,-1.1637356E0,2.3691238E1,-5.1286225E0,1.0587225E1,9.047768E0,1.8147186E2,-1.8681738E0,2.986012E1,8.386659E-1,5.4708267E1,1.7519745E2,-1.6316767E0],"categories":[],"categories_nodes":[],"categories_segments":[],"categories_sizes":[],"default_left":[0,0,0,0,0,0,0,0,0,0,0,0,0],"id":38,"left_children":[1,3,5,7,9,11,-1,-1,-1,-1,-1,-1,-1],"loss_changes":[4.7604926E4,5.964448E4,6.9242925E5,1.1065997E5,4.317947E5,6.778278E5,0E0,0E0,0E0,0E0,0E0,0E0,0E0],"parents":[2147483647,0,0,1,1,2,2,3,3,4,4,5,5],"right_children":[2,4,6,8,10,12,-1,-1,-1,-1,-1,-1,-1],"split_conditions":[8.6E1,2.51E2,8.6E1,2.88E2,7.1E1,8.8E1,1.8147186E2,-1.8681738E0,2.986012E1,8.386659E-1,5.4708267E1,1.7519745E2,-1.6316767E0],"split_indices":[64,3,107,85,77,64,0,0,0,0,0,0,0],"split_type":[0,0,0,0,0,0,0,0,0,0,0,0,0],"sum_hessian":[1.359E3,1.278E3,8.1E1,9.56E2,3.22E2,8E1,1E0,9.47E2,9E0,3.09E2,1.3E1,1E0,7.9E1],"tree_param":{"num_deleted":"0","num_feature":"117","num_nodes":"13","size_leaf_vector":"1"}},{"base_weights":[5.562954E-1,1.1000257E0,-7.2957306E1,4.6131852E-1,1.2950322E2,-2.5239277E1,-5.6525645E0,2.4226645E-1,-4.6580383E1],"categories":[],"categories_nodes":[],"categories_segments":[],"categories_sizes":[],"default_left":[0,0,0,0,0,0,0,0,0],"id":39,"left_children":[1,3,5,7,-1,-1,-1,-1,-1],"loss_changes":[5.4441594E4,3.7134322E5,4.4614688E3,7.2916195E4,0E0,0E0,0E0,0E0,0E0],"parents":[2147483647,0,0,1,1,2,2,3,3],"right_children":[2,4,6,8,-1,-1,-1,-1,-1],"split_conditions":[3.57E2,3.39E2,3.96E2,3E2,1.2950322E2,-2.5239277E1,-5.6525645E0,2.4226645E-1,-4.6580383E1],"split_indices":[85,85,1,85,0,0,0,0,0],"split_type":[0,0,0,0,0,0,0,0,0],"sum_hessian":[1.359E3,1.35E3,9E0,1.349E3,1E0,7E0,2E0,1.347E3,2E0],"tree_param":{"num_deleted":"0","num_feature":"117","num_nodes":"9","size_leaf_vector":"1"}},{"base_weights":[4.2784405E-1,3.8166769E0,-1.0508259E1,1.915519E0,4.952624E2,-6.445832E1,-5.8880264E-1,-5.954457E-1,9.185365E0,-1.4088769E1,3.182906E2,-2.1548664E1,4.450485E1,-1.1183913E0,5.052486E1],"categories":[],"categories_nodes":[],"categories_segments":[],"categories_sizes":[],"default_left":[0,0,0,0,0,0,0,0,0,0,0,0,0,0,0],"id":40,"left_children":[1,3,5,7,9,11,13,-1,-1,-1,-1,-1,-1,-1,-1],"loss_changes":[5.0442555E4,9.6980556E5,1.7228206E5,1.1603984E5,1.2767859E6,8.9081375E4,1.4546395E5,0E0,0E0,0E0,0E0,0E0,0E0,0E0,0E0],"parents":[2147483647,0,0,1,1,2,2,3,3,4,4,5,5,6,6],"right_children":[2,4,6,8,10,12,14,-1,-1,-1,-1,-1,-1,-1,-1],"split_conditions":[4E1,3.9E1,6.1E1,2.2E2,3.04E2,3E0,1.02E2,-5.954457E-1,9.185365E0,-1.4088769E1,3.182906E2,-2.1548664E1,4.450485E1,-1.1183913E0,5.052486E1],"split_indices":[9,9,1,22,0,66,98,0,0,0,0,0,0,0,0],"split_type":[0,0,0,0,0,0,0,0,0,0,0,0,0,0,0],"sum_hessian":[1.359E3,1.038E3,3.21E2,1.035E3,3E0,4.9E1,2.72E2,9.12E2,1.23E2,2E0,1E0,4.8E1,1E0,2.68E2,4E0],"tree_param":{"num_deleted":"0","num_feature":"117","num_nodes":"15","size_leaf_vector":"1"}},{"base_weights":[5.8269244E-1,2.8247066E0,-1.6014576E1,1.5499074E0,1.403621E2,-1.8642082E1,1.2945729E2,-1.6080305E-1,1.0783427E1,-1.6190898E0,2.3969295E2,-6.3248725E0,2.4546225E1,1.6622577E0,5.6593525E1],"categories":[],"categories_nodes":[],"categories_segments":[],"categories_sizes":[],"default_left":[0,0,0,0,0,0,0,0,0,0,0,0,0,0,0],"id":41,"left_children":[1,3,5,7,9,11,13,-1,-1,-1,-1,-1,-1,-1,-1],"loss_changes":[5.0652617E4,2.100062E5,6.433434E4,8.532384E4,1.0603012E6,4.095894E4,2.0957754E4,0E0,0E0,0E0,0E0,0E0,0E0,0E0,0E0],"parents":[2147483647,0,0,1,1,2,2,3,3,4,4,5,5,6,6],"right_children":[2,4,6,8,10,12,14,-1,-1,-1,-1,-1,-1,-1,-1],"split_conditions":[1.154E3,1.068E3,2.428E3,8.6E1,2.4E1,2.08E3,1.3E1,-1.6080305E-1,1.0783427E1,-1.6190898E0,2.3969295E2,-6.3248725E0,2.4546225E1,1.6622577E0,5.6593525E1],"split_indices":[3,3,22,64,77,54,0,0,0,0,0,0,0,0,0],"split_type":[0,0,0,0,0,0,0,0,0,0,0,0,0,0,0],"sum_hessian":[1.359E3,1.198E3,1.61E2,1.188E3,1E1,1.59E2,2E0,1.121E3,6.7E1,9E0,1E0,1.56E2,3E0,1E0,1E0],"tree_param":{"num_deleted":"0","num_feature":"117","num_nodes":"15","size_leaf_vector":"1"}},{"base_weights":[6.4698195E-1,1.3159534E0,-5.227917E1,7.7036744E-1,8.215894E1,-6.053095E1,6.4061093E0,5.758364E-1,-1.4795165E1,-1.3890037E1,1.06353134E2,-1.9948261E1,3.4431949E0,3.7294912E0,-8.467418E-1],"categories":[],"categories_nodes":[],"categories_segments":[],"categories_sizes":[],"default_left":[0,0,0,0,0,0,0,0,0,0,0,0,0,0,0],"id":42,"left_children":[1,3,5,7,9,11,13,-1,-1,-1,-1,-1,-1,-1,-1],"loss_changes":[4.822107E4,5.921625E4,8.620148E3,7.698816E4,3.3128806E5,7.2042305E3,2.0190918E2,0E0,0E0,0E0,0E0,0E0,0E0,0E0,0E0],"parents":[2147483647,0,0,1,1,2,2,3,3,4,4,5,5,6,6],"right_children":[2,4,6,8,10,12,14,-1,-1,-1,-1,-1,-1,-1,-1],"split_conditions":[1.94E2,1.26E2,2.2E1,4.94E2,1.9E1,6.3E1,1.3E1,5.758364E-1,-1.4795165E1,-1.3890037E1,1.06353134E2,-1.9948261E1,3.4431949E0,3.7294912E0,-8.467418E-1],"split_indices":[98,98,17,64,8,43,0,0,0,0,0,0,0,0,0],"split_type":[0,0,0,0,0,0,0,0,0,0,0,0,0,0,0],"sum_hessian":[1.359E3,1.343E3,1.6E1,1.335E3,8E0,1.4E1,2E0,1.306E3,2.9E1,6E0,2E0,1.3E1,1E0,1E0,1E0],"tree_param":{"num_deleted":"0","num_feature":"117","num_nodes":"15","size_leaf_vector":"1"}},{"base_weights":[5.0040364E-1,1.9607878E0,-2.2583448E1,1.244597E-1,2.4107883E1,-1.4103957E1,-7.526167E1,-1.4602175E-1,2.3971811E1,2.990312E2,1.1413339E0,-6.816401E0,3.7595205E0,-2.439707E1,-9.596637E0],"categories":[],"categories_nodes":[],"categories_segments":[],"categories_sizes":[],"default_left":[0,0,0,0,0,0,0,0,0,0,0,0,0,0,0],"id":43,"left_children":[1,3,5,7,9,11,13,-1,-1,-1,-1,-1,-1,-1,-1],"loss_changes":[4.589164E4,5.2053742E4,3.5119957E4,5.772482E4,1.9315508E6,1.658136E4,2.8403125E2,0E0,0E0,0E0,0E0,0E0,0E0,0E0,0E0],"parents":[2147483647,0,0,1,1,2,2,3,3,4,4,5,5,6,6],"right_children":[2,4,6,8,10,12,14,-1,-1,-1,-1,-1,-1,-1,-1],"split_conditions":[7.6E1,8.4E1,2.38E2,2.4E3,8.8E1,2.44E2,2.8E1,-1.4602175E-1,2.3971811E1,2.990312E2,1.1413339E0,-6.816401E0,3.7595205E0,-2.439707E1,-9.596637E0],"split_indices":[43,45,22,78,45,2,51,0,0,0,0,0,0,0,0],"split_type":[0,0,0,0,0,0,0,0,0,0,0,0,0,0,0],"sum_hessian":[1.359E3,1.279E3,8E1,1.182E3,9.7E1,7E1,1E1,1.174E3,8E0,1E0,9.6E1,5.3E1,1.7E1,8E0,2E0],"tree_param":{"num_deleted":"0","num_feature":"117","num_nodes":"15","size_leaf_vector":"1"}},{"base_weights":[5.612733E-1,1.6527027E0,-2.8067232E1,1.1419642E0,1.6825102E2,-3.8398376E1,1.0034051E2,1.1926507E-1,1.3391483E1,6.841495E1,-1.6717952E0,-1.430026E1,3.4031513E1,6.9936806E1,-6.488332E0],"categories":[],"categories_nodes":[],"categories_segments":[],"categories_sizes":[],"default_left":[0,0,0,0,0,0,0,0,0,0,0,0,0,0,0],"id":44,"left_children":[1,3,5,7,9,11,13,-1,-1,-1,-1,-1,-1,-1,-1],"loss_changes":[4.2540938E4,1.1135848E5,7.018285E4,4.233433E4,4.2848617E4,7.155504E4,6.9822766E4,0E0,0E0,0E0,0E0,0E0,0E0,0E0,0E0],"parents":[2147483647,0,0,1,1,2,2,3,3,4,4,5,5,6,6],"right_children":[2,4,6,8,10,12,14,-1,-1,-1,-1,-1,-1,-1,-1],"split_conditions":[2.5E1,7E0,6.37E2,2.372E3,1.64E2,5.664E3,1.9E1,1.1926507E-1,1.3391483E1,6.841495E1,-1.6717952E0,-1.430026E1,3.4031513E1,6.9936806E1,-6.488332E0],"split_indices":[110,110,35,22,0,0,0,0,0,0,0,0,0,0,0],"split_type":[0,0,0,0,0,0,0,0,0,0,0,0,0,0,0],"sum_hessian":[1.359E3,1.31E3,4.9E1,1.307E3,3E0,4.6E1,3E0,1.286E3,2.1E1,2E0,1E0,4.4E1,2E0,1E0,2E0],"tree_param":{"num_deleted":"0","num_feature":"117","num_nodes":"15","size_leaf_vector":"1"}},{"base_weights":[5.130638E-1,2.167045E0,-1.830188E1,8.974501E-2,2.598882E2,4.114091E0,-5.0771927E1,-3.673506E-1,7.985458E0,-1.4070716E0,8.645933E1,-9.62369E0,-3.389682E1],"categories":[],"categories_nodes":[],"categories_segments":[],"categories_sizes":[],"default_left":[0,0,0,0,0,0,0,0,0,0,0,0,0],"id":45,"left_children":[1,3,5,7,-1,9,11,-1,-1,-1,-1,-1,-1],"loss_changes":[4.2362266E4,2.245531E6,8.027211E4,4.3578895E4,0E0,1.6642869E5,4.871171E4,0E0,0E0,0E0,0E0,0E0,0E0],"parents":[2147483647,0,0,1,1,2,2,3,3,5,5,6,6],"right_children":[2,4,6,8,-1,10,12,-1,-1,-1,-1,-1,-1],"split_conditions":[5.11E2,5.09E2,2.1E1,1.099E3,2.598882E2,4.719E3,2E1,-3.673506E-1,7.985458E0,-1.4070716E0,8.645933E1,-9.62369E0,-3.389682E1],"split_indices":[22,22,4,24,0,22,40,0,0,0,0,0,0],"split_type":[0,0,0,0,0,0,0,0,0,0,0,0,0],"sum_hessian":[1.359E3,1.25E3,1.09E2,1.248E3,2E0,6.5E1,4.4E1,1.19E3,5.8E1,6.4E1,1E0,3.5E1,9E0],"tree_param":{"num_deleted":"0","num_feature":"117","num_nodes":"13","size_leaf_vector":"1"}},{"base_weights":[5.8637923E-1,3.7715754E-1,4.2737793E1,1.4915227E0,-2.5578367E1,2.7650905E-1,1.7402617E1,-2.47429E1,-3.4248838E0],"categories":[],"categories_nodes":[],"categories_segments":[],"categories_sizes":[],"default_left":[0,0,0,0,0,0,0,0,0],"id":46,"left_children":[1,3,-1,5,7,-1,-1,-1,-1],"loss_changes":[4.0315E4,3.9345773E4,0E0,4.194181E4,4.4182887E4,0E0,0E0,0E0,0E0],"parents":[2147483647,0,0,1,1,3,3,4,4],"right_children":[2,4,-1,6,8,-1,-1,-1,-1],"split_conditions":[9.954E3,1.659E3,4.2737793E1,1.387E3,7.3E1,2.7650905E-1,1.7402617E1,-2.47429E1,-3.4248838E0],"split_indices":[99,8,0,8,1,0,0,0,0],"split_type":[0,0,0,0,0,0,0,0,0],"sum_hessian":[1.359E3,1.358E3,1E0,1.303E3,5.5E1,1.291E3,1.2E1,1E1,4.5E1],"tree_param":{"num_deleted":"0","num_feature":"117","num_nodes":"9","size_leaf_vector":"1"}},{"base_weights":[4.3417832E-1,7.9217184E-1,-8.0485054E1,2.19075E0,-2.0395725E1,-3.5478477E1,-3.2879932E0,3.2653186E-1,1.5893757E1,-7.3094125E0,4.635449E1,-2.7521358E0,1.2725387E0],"categories":[],"categories_nodes":[],"categories_segments":[],"categories_sizes":[],"default_left":[0,0,0,0,0,0,0,0,0,0,0,0,0],"id":47,"left_children":[1,3,5,7,9,-1,11,-1,-1,-1,-1,-1,-1],"loss_changes":[3.9461004E4,4.0197297E4,1.7108578E4,7.1154766E4,6.207899E4,0E0,1.7186963E2,0E0,0E0,0E0,0E0,0E0,0E0],"parents":[2147483647,0,0,1,1,2,2,3,3,4,4,6,6],"right_children":[2,4,6,8,10,-1,12,-1,-1,-1,-1,-1,-1],"split_conditions":[2.194E3,5.52E2,4.4E1,3.39E2,1.95E3,-3.5478477E1,3.64E2,3.2653186E-1,1.5893757E1,-7.3094125E0,4.635449E1,-2.7521358E0,1.2725387E0],"split_indices":[26,31,0,31,35,0,0,0,0,0,0,0,0],"split_type":[0,0,0,0,0,0,0,0,0,0,0,0,0],"sum_hessian":[1.359E3,1.354E3,5E0,1.271E3,8.3E1,3E0,2E0,1.245E3,2.6E1,8.2E1,1E0,1E0,1E0],"tree_param":{"num_deleted":"0","num_feature":"117","num_nodes":"13","size_leaf_vector":"1"}},{"base_weights":[3.1738544E-1,6.728901E-2,1.13421906E2,-2.996924E-1,7.0937515E1,2.4735873E0,4.8566273E1,3.0929912E-3,-2.5144918E1,4.306365E1,3.955568E0],"categories":[],"categories_nodes":[],"categories_segments":[],"categories_sizes":[],"default_left":[0,0,0,0,0,0,0,0,0,0,0],"id":48,"left_children":[1,3,5,7,9,-1,-1,-1,-1,-1,-1],"loss_changes":[3.8462742E4,3.53402E4,1.3957551E4,3.5004656E4,2.7460254E4,0E0,0E0,0E0,0E0,0E0,0E0],"parents":[2147483647,0,0,1,1,2,2,3,3,4,4],"right_children":[2,4,6,8,10,-1,-1,-1,-1,-1,-1],"split_conditions":[1.79E3,2.02E2,1.3E1,1.27E2,1.6E1,2.4735873E0,4.8566273E1,3.0929912E-3,-2.5144918E1,4.306365E1,3.955568E0],"split_indices":[19,101,0,101,2,0,0,0,0,0,0],"split_type":[0,0,0,0,0,0,0,0,0,0,0],"sum_hessian":[1.359E3,1.357E3,2E0,1.351E3,6E0,1E0,1E0,1.347E3,4E0,2E0,4E0],"tree_param":{"num_deleted":"0","num_feature":"117","num_nodes":"11","size_leaf_vector":"1"}},{"base_weights":[2.7578524E-1,8.329425E-2,3.9280655E1,8.5135627E-1,-3.1793884E1,8.415292E-1,-3.909763E0,-2.127391E1,-3.2367399E0],"categories":[],"categories_nodes":[],"categories_segments":[],"categories_sizes":[],"default_left":[0,0,0,0,0,0,0,0,0],"id":49,"left_children":[1,3,-1,5,7,-1,-1,-1,-1],"loss_changes":[3.419421E4,3.3300348E4,0E0,3.6059277E4,2.5528932E4,0E0,0E0,0E0,0E0],"parents":[2147483647,0,0,1,1,3,3,4,4],"right_children":[2,4,-1,6,8,-1,-1,-1,-1],"split_conditions":[1.3957E4,5.7E1,3.9280655E1,3.19E2,6.1E1,8.415292E-1,-3.909763E0,-2.127391E1,-3.2367399E0],"split_indices":[27,106,0,16,1,0,0,0,0],"split_type":[0,0,0,0,0,0,0,0,0],"sum_hessian":[1.359E3,1.358E3,1E0,1.327E3,3.1E1,1.164E3,1.63E2,1E1,2.1E1],"tree_param":{"num_deleted":"0","num_feature":"117","num_nodes":"9","size_leaf_vector":"1"}},{"base_weights":[2.0165448E-1,1.3253188E0,-2.1167458E1,2.6090455E-1,8.626258E1,-2.7080242E1,8.020712E1,-9.860574E-3,3.7537636E1,-3.6742833E0,9.1630356E1,-1.6258173E1,-1.529127E0,4.6470806E1,1.1023148E0],"categories":[],"categories_nodes":[],"categories_segments":[],"categories_sizes":[],"default_left":[0,0,0,0,0,0,0,0,0,0,0,0,0,0,0],"id":50,"left_children":[1,3,5,7,9,11,13,-1,-1,-1,-1,-1,-1,-1,-1],"loss_changes":[3.268398E4,1.1687559E5,4.2931625E4,4.6883508E4,3.4919153E5,3.846662E4,2.2297451E4,0E0,0E0,0E0,0E0,0E0,0E0,0E0,0E0],"parents":[2147483647,0,0,1,1,2,2,3,3,4,4,5,5,6,6],"right_children":[2,4,6,8,10,12,14,-1,-1,-1,-1,-1,-1,-1,-1],"split_conditions":[1.17E2,8.8E1,1.002E3,1.0708E4,1.9E1,1.59E2,2.9E1,-9.860574E-3,3.7537636E1,-3.6742833E0,9.1630356E1,-1.6258173E1,-1.529127E0,4.6470806E1,1.1023148E0],"split_indices":[40,40,12,50,36,1,1,0,0,0,0,0,0,0,0],"split_type":[0,0,0,0,0,0,0,0,0,0,0,0,0,0,0],"sum_hessian":[1.359E3,1.292E3,6.7E1,1.277E3,1.5E1,6.4E1,3E0,1.275E3,2E0,1.1E1,4E0,2.8E1,3.6E1,1E0,2E0],"tree_param":{"num_deleted":"0","num_feature":"117","num_nodes":"15","size_leaf_vector":"1"}},{"base_weights":[2.5532556E-1,8.362853E-1,-3.8710793E1,2.8990322E-1,1.0994825E2,-1.0487727E2,-9.663481E0,2.6259264E-1,-1.9370378E1,-3.4303307E1,-8.631286E0,2.3827846E0,-6.685017E0],"categories":[],"categories_nodes":[],"categories_segments":[],"categories_sizes":[],"default_left":[0,0,0,0,0,0,0,0,0,0,0,0,0],"id":51,"left_children":[1,3,5,7,-1,9,11,-1,-1,-1,-1,-1,-1],"loss_changes":[3.0819709E4,2.678107E5,3.7425688E4,5.093382E4,0E0,1.0332266E3,3.5097983E3,0E0,0E0,0E0,0E0,0E0,0E0],"parents":[2147483647,0,0,1,1,2,2,3,3,5,5,6,6],"right_children":[2,4,6,8,-1,10,12,-1,-1,-1,-1,-1,-1],"split_conditions":[1.17E2,1.03E2,2.55E2,3E2,1.0994825E2,8.9E1,1.153E3,2.6259264E-1,-1.9370378E1,-3.4303307E1,-8.631286E0,2.3827846E0,-6.685017E0],"split_indices":[114,114,1,85,0,12,1,0,0,0,0,0,0],"split_type":[0,0,0,0,0,0,0,0,0,0,0,0,0],"sum_hessian":[1.359E3,1.34E3,1.9E1,1.339E3,1E0,5E0,1.4E1,1.328E3,1.1E1,4E0,1E0,6E0,8E0],"tree_param":{"num_deleted":"0","num_feature":"117","num_nodes":"13","size_leaf_vector":"1"}},{"base_weights":[2.1078962E-1,-2.926807E-1,4.8636772E1,3.309566E-2,-3.2904114E1,4.451905E0,9.345601E1,2.931886E-1,-8.567148E0,-1.4043525E1,9.294236E1],"categories":[],"categories_nodes":[],"categories_segments":[],"categories_sizes":[],"default_left":[0,0,0,0,0,0,0,0,0,0,0],"id":52,"left_children":[1,3,5,7,-1,9,-1,-1,-1,-1,-1],"loss_changes":[3.3172453E4,4.800522E4,1.612296E5,3.6309062E4,0E0,2.1800025E5,0E0,0E0,0E0,0E0,0E0],"parents":[2147483647,0,0,1,1,2,2,3,3,5,5],"right_children":[2,4,6,8,-1,10,-1,-1,-1,-1,-1],"split_conditions":[2.88E2,2.16E2,2.4E1,2.9E1,-3.2904114E1,3.2E1,9.345601E1,2.931886E-1,-8.567148E0,-1.4043525E1,9.294236E1],"split_indices":[85,85,114,114,0,10,0,0,0,0,0],"split_type":[0,0,0,0,0,0,0,0,0,0,0],"sum_hessian":[1.359E3,1.346E3,1.3E1,1.343E3,3E0,1.2E1,1E0,1.301E3,4.2E1,1.1E1,1E0],"tree_param":{"num_deleted":"0","num_feature":"117","num_nodes":"11","size_leaf_vector":"1"}},{"base_weights":[2.4400617E-1,1.0832428E0,-2.6117828E1,7.256518E-1,7.085822E1,-3.7965843E1,9.5929756E1,-2.9994356E-2,1.017267E1,-1.5109882E1,1.6929104E1,4.4335773E1,8.814722E0],"categories":[],"categories_nodes":[],"categories_segments":[],"categories_sizes":[],"default_left":[0,0,0,0,0,0,0,0,0,0,0,0,0],"id":53,"left_children":[1,3,5,7,-1,9,11,-1,-1,-1,-1,-1,-1],"loss_changes":[3.0116682E4,1.10721555E5,6.4374953E4,3.611288E4,0E0,4.849376E4,9.46125E3,0E0,0E0,0E0,0E0,0E0,0E0],"parents":[2147483647,0,0,1,1,2,2,3,3,5,5,6,6],"right_children":[2,4,6,8,-1,10,12,-1,-1,-1,-1,-1,-1],"split_conditions":[1.11E2,1.02E2,6.25E2,1.878E3,7.085822E1,3.7E1,1.3E1,-2.9994356E-2,1.017267E1,-1.5109882E1,1.6929104E1,4.4335773E1,8.814722E0],"split_indices":[75,75,14,22,0,36,0,0,0,0,0,0,0],"split_type":[0,0,0,0,0,0,0,0,0,0,0,0,0],"sum_hessian":[1.359E3,1.318E3,4.1E1,1.317E3,1E0,3.8E1,3E0,1.286E3,3.1E1,3.4E1,4E0,1E0,2E0],"tree_param":{"num_deleted":"0","num_feature":"117","num_nodes":"13","size_leaf_vector":"1"}},{"base_weights":[2.707832E-1,5.0074555E-2,1.0008797E2,1.0722033E0,-2.2472256E1,5.0931007E1,-5.8914223E0,1.1575255E-1,6.7007065E1,-1.3295485E1,9.8916274E-1],"categories":[],"categories_nodes":[],"categories_segments":[],"categories_sizes":[],"default_left":[0,0,0,0,0,0,0,0,0,0,0],"id":54,"left_children":[1,3,5,7,9,-1,-1,-1,-1,-1,-1],"loss_changes":[2.9956486E4,3.1286234E4,2.8362225E4,1.9825175E5,3.3360785E4,0E0,0E0,0E0,0E0,0E0,0E0],"parents":[2147483647,0,0,1,1,2,2,3,3,4,4],"right_children":[2,4,6,8,10,-1,-1,-1,-1,-1,-1],"split_conditions":[2.255E3,3.62E2,1.125E3,3.42E2,8.04E2,5.0931007E1,-5.8914223E0,1.1575255E-1,6.7007065E1,-1.3295485E1,9.8916274E-1],"split_indices":[25,25,0,25,0,0,0,0,0,0,0],"split_type":[0,0,0,0,0,0,0,0,0,0,0],"sum_hessian":[1.359E3,1.357E3,2E0,1.299E3,5.8E1,1E0,1E0,1.296E3,3E0,3.1E1,2.7E1],"tree_param":{"num_deleted":"0","num_feature":"117","num_nodes":"11","size_leaf_vector":"1"}},{"base_weights":[2.6297137E-1,-2.2716087E-1,4.740191E1,7.763697E-1,-2.2952263E1,1.0317574E1,7.942474E1,9.697748E-2,1.7636286E1,-1.1595186E1,3.5077667E1,-9.81148E0,7.8988144E1],"categories":[],"categories_nodes":[],"categories_segments":[],"categories_sizes":[],"default_left":[0,0,0,0,0,0,0,0,0,0,0,0,0],"id":55,"left_children":[1,3,5,7,9,11,-1,-1,-1,-1,-1,-1,-1],"loss_changes":[3.1432635E4,3.0736604E4,1.1011092E5,3.3915652E4,1.2968282E5,1.5009872E5,0E0,0E0,0E0,0E0,0E0,0E0,0E0],"parents":[2147483647,0,0,1,1,2,2,3,3,4,4,5,5],"right_children":[2,4,6,8,10,12,-1,-1,-1,-1,-1,-1,-1],"split_conditions":[2.88E2,2.8E1,2.4E1,2.06E2,1.25E2,3.2E1,7.942474E1,9.697748E-2,1.7636286E1,-1.1595186E1,3.5077667E1,-9.81148E0,7.8988144E1],"split_indices":[85,85,114,110,19,10,0,0,0,0,0,0,0],"split_type":[0,0,0,0,0,0,0,0,0,0,0,0,0],"sum_hessian":[1.359E3,1.346E3,1.3E1,1.29E3,5.6E1,1.2E1,1E0,1.281E3,9E0,5.1E1,5E0,1.1E1,1E0],"tree_param":{"num_deleted":"0","num_feature":"117","num_nodes":"13","size_leaf_vector":"1"}},{"base_weights":[3.2365027E-1,1.2224975E0,-2.4270308E1,6.166735E-1,1.3308836E2,-3.5307697E1,1.0596792E2,3.8055712E-1,-1.1263377E1,7.609977E1,2.8149388E0,-1.3953734E1,9.648816E0,4.448666E1,-3.1492362E0],"categories":[],"categories_nodes":[],"categories_segments":[],"categories_sizes":[],"default_left":[0,0,0,0,0,0,0,0,0,0,0,0,0,0,0],"id":56,"left_children":[1,3,5,7,9,11,13,-1,-1,-1,-1,-1,-1,-1,-1],"loss_changes":[3.0094117E4,1.048102E5,7.2741016E4,3.2584684E4,8.711624E4,3.551548E4,2.1272352E4,0E0,0E0,0E0,0E0,0E0,0E0,0E0,0E0],"parents":[2147483647,0,0,1,1,2,2,3,3,4,4,5,5,6,6],"right_children":[2,4,6,8,10,12,14,-1,-1,-1,-1,-1,-1,-1,-1],"split_conditions":[4.8E1,4.1E1,5.1E1,1.35E2,1.17E2,4.6E1,2.24E2,3.8055712E-1,-1.1263377E1,7.609977E1,2.8149388E0,-1.3953734E1,9.648816E0,4.448666E1,-3.1492362E0],"split_indices":[66,66,30,98,0,11,0,0,0,0,0,0,0,0,0],"split_type":[0,0,0,0,0,0,0,0,0,0,0,0,0,0,0],"sum_hessian":[1.359E3,1.312E3,4.7E1,1.307E3,5E0,4.4E1,3E0,1.286E3,2.1E1,2E0,3E0,3.8E1,6E0,2E0,1E0],"tree_param":{"num_deleted":"0","num_feature":"117","num_nodes":"15","size_leaf_vector":"1"}},{"base_weights":[3.0380905E-1,1.30793E0,-2.0739044E1,8.4496045E-1,5.0890995E1,-6.583223E1,-4.946915E0,-3.2372909E0,1.015413E0,6.774474E1,4.338009E0,-2.1865068E1,-3.2945874E0,-3.1509638E0,3.7596413E1],"categories":[],"categories_nodes":[],"categories_segments":[],"categories_sizes":[],"default_left":[0,0,0,0,0,0,0,0,0,0,0,0,0,0,0],"id":57,"left_children":[1,3,5,7,9,11,13,-1,-1,-1,-1,-1,-1,-1,-1],"loss_changes":[2.876334E4,2.9776125E4,4.382561E4,3.8099945E4,7.320686E4,5.387875E3,3.533531E4,0E0,0E0,0E0,0E0,0E0,0E0,0E0,0E0],"parents":[2147483647,0,0,1,1,2,2,3,3,4,4,5,5,6,6],"right_children":[2,4,6,8,10,12,14,-1,-1,-1,-1,-1,-1,-1,-1],"split_conditions":[4.9E1,2.801E3,9.7E1,3.4E1,1.3E1,2.31E2,3.01E2,-3.2372909E0,1.015413E0,6.774474E1,4.338009E0,-2.1865068E1,-3.2945874E0,-3.1509638E0,3.7596413E1],"split_indices":[62,11,1,0,0,18,54,0,0,0,0,0,0,0,0],"split_type":[0,0,0,0,0,0,0,0,0,0,0,0,0,0,0],"sum_hessian":[1.359E3,1.298E3,6.1E1,1.287E3,1.1E1,1.5E1,4.6E1,2.3E2,1.057E3,1E0,1E1,1.3E1,2E0,4.5E1,1E0],"tree_param":{"num_deleted":"0","num_feature":"117","num_nodes":"15","size_leaf_vector":"1"}},{"base_weights":[2.7086335E-1,9.5282644E-2,3.5832756E1,-3.6713082E-1,4.4546227E1,-4.7893595E-2,-2.7959478E1,3.9967155E0,6.756843E1],"categories":[],"categories_nodes":[],"categories_segments":[],"categories_sizes":[],"default_left":[0,0,0,0,0,0,0,0,0],"id":58,"left_children":[1,3,-1,5,7,-1,-1,-1,-1],"loss_changes":[2.844559E4,2.795021E4,0E0,2.5910578E4,7.598158E4,0E0,0E0,0E0,0E0],"parents":[2147483647,0,0,1,1,3,3,4,4],"right_children":[2,4,-1,6,8,-1,-1,-1,-1],"split_conditions":[9.954E3,2.88E2,3.5832756E1,2.57E2,3.2E1,-4.7893595E-2,-2.7959478E1,3.9967155E0,6.756843E1],"split_indices":[99,85,0,85,10,0,0,0,0],"split_type":[0,0,0,0,0,0,0,0,0],"sum_hessian":[1.359E3,1.358E3,1E0,1.345E3,1.3E1,1.343E3,2E0,1.2E1,1E0],"tree_param":{"num_deleted":"0","num_feature":"117","num_nodes":"9","size_leaf_vector":"1"}},{"base_weights":[2.4798068E-1,1.0663648E0,-2.3690718E1,5.5386496E-1,9.682469E1,-3.469678E1,-1.6723593E1,-2.0942584E-2,1.2880356E1,1.0487326E2,-1.0691086E0,-6.2754803E0,2.3917912E1],"categories":[],"categories_nodes":[],"categories_segments":[],"categories_sizes":[],"default_left":[0,0,0,0,0,0,0,0,0,0,0,0,0],"id":59,"left_children":[1,3,5,7,9,-1,11,-1,-1,-1,-1,-1,-1],"loss_changes":[2.6669088E4,6.4530547E4,2.689881E4,3.462852E4,1.7885994E5,0E0,1.9064516E4,0E0,0E0,0E0,0E0,0E0,0E0],"parents":[2147483647,0,0,1,1,2,2,3,3,4,4,6,6],"right_children":[2,4,6,8,10,-1,12,-1,-1,-1,-1,-1,-1],"split_conditions":[8.2E1,6E1,2.9E1,2.428E3,1.3E1,-3.469678E1,1.376E3,-2.0942584E-2,1.2880356E1,1.0487326E2,-1.0691086E0,-6.2754803E0,2.3917912E1],"split_indices":[97,97,1,22,0,0,16,0,0,0,0,0,0],"split_type":[0,0,0,0,0,0,0,0,0,0,0,0,0],"sum_hessian":[1.359E3,1.315E3,4.4E1,1.309E3,6E0,2E0,4.2E1,1.291E3,1.8E1,1E0,5E0,4.1E1,1E0],"tree_param":{"num_deleted":"0","num_feature":"117","num_nodes":"13","size_leaf_vector":"1"}},{"base_weights":[2.4682754E-1,8.138521E-1,-3.594649E1,1.8050078E-2,1.5995891E2,-7.568093E1,1.06339905E2,3.4078163E-1,-9.87278E0,-3.52364E1,2.6834208E1,5.276225E1,4.0770265E-1],"categories":[],"categories_nodes":[],"categories_segments":[],"categories_sizes":[],"default_left":[0,0,0,0,0,0,0,0,0,0,0,0,0],"id":60,"left_children":[1,3,5,7,-1,9,11,-1,-1,-1,-1,-1,-1],"loss_changes":[2.7939854E4,5.6770956E5,1.2677497E5,4.932473E4,0E0,1.2777243E5,3.625983E4,0E0,0E0,0E0,0E0,0E0,0E0],"parents":[2147483647,0,0,1,1,2,2,3,3,5,5,6,6],"right_children":[2,4,6,8,-1,10,12,-1,-1,-1,-1,-1,-1],"split_conditions":[2.432E3,2.428E3,3.65E2,9.36E2,1.5995891E2,7.8E1,3.96E2,3.4078163E-1,-9.87278E0,-3.52364E1,2.6834208E1,5.276225E1,4.0770265E-1],"split_indices":[22,22,29,22,0,55,1,0,0,0,0,0,0],"split_type":[0,0,0,0,0,0,0,0,0,0,0,0,0],"sum_hessian":[1.359E3,1.339E3,2E1,1.338E3,1E0,1.6E1,4E0,1.295E3,4.3E1,1.3E1,3E0,2E0,2E0],"tree_param":{"num_deleted":"0","num_feature":"117","num_nodes":"13","size_leaf_vector":"1"}},{"base_weights":[3.163054E-1,1.4503347E0,-1.7148825E1,1.012785E-1,1.8441626E1,-2.5535292E1,-2.9849124E0,9.677269E-1,-4.2272243E0,2.1459875E2,9.769497E-1,-1.5921533E1,-4.1980944E0,1.0261139E1,-2.4034386E0],"categories":[],"categories_nodes":[],"categories_segments":[],"categories_sizes":[],"default_left":[0,0,0,0,0,0,0,0,0,0,0,0,0,0,0],"id":61,"left_children":[1,3,5,7,9,11,13,-1,-1,-1,-1,-1,-1,-1,-1],"loss_changes":[2.6960988E4,2.9292707E4,9.782951E3,5.2591516E4,9.9240906E5,1.5783777E4,6.2558105E3,0E0,0E0,0E0,0E0,0E0,0E0,0E0,0E0],"parents":[2147483647,0,0,1,1,2,2,3,3,4,4,5,5,6,6],"right_children":[2,4,6,8,10,12,14,-1,-1,-1,-1,-1,-1,-1,-1],"split_conditions":[1.368E3,8.7E1,1.55E2,8E0,8.8E1,3.4E1,2.52E2,9.677269E-1,-4.2272243E0,2.1459875E2,9.769497E-1,-1.5921533E1,-4.1980944E0,1.0261139E1,-2.4034386E0],"split_indices":[13,45,10,19,45,2,10,0,0,0,0,0,0,0,0],"split_type":[0,0,0,0,0,0,0,0,0,0,0,0,0,0,0],"sum_hessian":[1.359E3,1.277E3,8.2E1,1.184E3,9.3E1,5.1E1,3.1E1,9.71E2,2.13E2,1E0,9.2E1,1.4E1,3.7E1,3E0,2.8E1],"tree_param":{"num_deleted":"0","num_feature":"117","num_nodes":"15","size_leaf_vector":"1"}},{"base_weights":[3.6851242E-1,-3.404985E-1,2.5729647E1,1.9537768E-1,-4.7117653E1,-1.6922144E0,1.519375E2,-8.79687E-2,9.5967224E1,-2.5283236E1,7.0967926E1,-6.4914813E0,1.0446297E2],"categories":[],"categories_nodes":[],"categories_segments":[],"categories_sizes":[],"default_left":[0,0,0,0,0,0,0,0,0,0,0,0,0],"id":62,"left_children":[1,3,5,7,9,11,-1,-1,-1,-1,-1,-1,-1],"loss_changes":[2.4463357E4,3.31976E4,4.886086E5,2.0472273E5,1.7805758E5,2.5878464E5,0E0,0E0,0E0,0E0,0E0,0E0,0E0],"parents":[2147483647,0,0,1,1,2,2,3,3,4,4,5,5],"right_children":[2,4,6,8,10,12,-1,-1,-1,-1,-1,-1,-1],"split_conditions":[3.85E2,2.83E2,8.6E1,2.81E2,2.6E1,3.6E1,1.519375E2,-8.79687E-2,9.5967224E1,-2.5283236E1,7.0967926E1,-6.4914813E0,1.0446297E2],"split_indices":[64,64,107,64,16,98,0,0,0,0,0,0,0],"split_type":[0,0,0,0,0,0,0,0,0,0,0,0,0],"sum_hessian":[1.359E3,1.323E3,3.6E1,1.309E3,1.4E1,3.5E1,1E0,1.308E3,1E0,1.3E1,1E0,3.4E1,1E0],"tree_param":{"num_deleted":"0","num_feature":"117","num_nodes":"13","size_leaf_vector":"1"}},{"base_weights":[5.4580545E-1,-2.3480728E-1,2.3362263E1,2.0995364E-1,-8.34351E1,4.3255157E0,1.2914688E2,-6.1598536E-2,8.1572136E1,-4.0259888E1,-3.5435402E0,-2.545748E0,5.4672745E1],"categories":[],"categories_nodes":[],"categories_segments":[],"categories_sizes":[],"default_left":[0,0,0,0,0,0,0,0,0,0,0,0,0],"id":63,"left_children":[1,3,5,7,9,11,-1,-1,-1,-1,-1,-1,-1],"loss_changes":[2.4228197E4,4.8715094E4,3.46905E5,1.4786439E5,2.386632E4,1.0183811E5,0E0,0E0,0E0,0E0,0E0,0E0,0E0],"parents":[2147483647,0,0,1,1,2,2,3,3,4,4,5,5],"right_children":[2,4,6,8,10,12,-1,-1,-1,-1,-1,-1,-1],"split_conditions":[3.31E2,2.83E2,8.6E1,2.81E2,5.51E2,3.6E1,1.2914688E2,-6.1598536E-2,8.1572136E1,-4.0259888E1,-3.5435402E0,-2.545748E0,5.4672745E1],"split_indices":[64,64,107,64,0,98,0,0,0,0,0,0,0],"split_type":[0,0,0,0,0,0,0,0,0,0,0,0,0],"sum_hessian":[1.359E3,1.315E3,4.4E1,1.309E3,6E0,4.3E1,1E0,1.308E3,1E0,3E0,3E0,4.1E1,2E0],"tree_param":{"num_deleted":"0","num_feature":"117","num_nodes":"13","size_leaf_vector":"1"}},{"base_weights":[5.4308003E-1,-4.3437868E-1,1.883777E1,5.8515165E-2,-6.362922E1,3.4392252E2,-6.458562E0,3.469228E-1,-8.111606E0,-2.6056406E1,-2.1232085E0,1.3672095E2,-1.5499993E1,-3.6530232E0,5.3925762E1],"categories":[],"categories_nodes":[],"categories_segments":[],"categories_sizes":[],"default_left":[0,0,0,0,0,0,0,0,0,0,0,0,0,0,0],"id":64,"left_children":[1,3,5,7,9,11,13,-1,-1,-1,-1,-1,-1,-1,-1],"loss_changes":[2.4328115E4,4.024739E4,5.6963944E5,3.8200336E4,1.2519727E4,2.4470831E5,7.140008E4,0E0,0E0,0E0,0E0,0E0,0E0,0E0,0E0],"parents":[2147483647,0,0,1,1,2,2,3,3,4,4,5,5,6,6],"right_children":[2,4,6,8,10,12,14,-1,-1,-1,-1,-1,-1,-1,-1],"split_conditions":[6.9E1,4.1E1,7.9E1,2.7E1,3.6E1,9.7E1,1.82E2,3.469228E-1,-8.111606E0,-2.6056406E1,-2.1232085E0,1.3672095E2,-1.5499993E1,-3.6530232E0,5.3925762E1],"split_indices":[74,74,74,94,1,0,92,0,0,0,0,0,0,0,0],"split_type":[0,0,0,0,0,0,0,0,0,0,0,0,0,0,0],"sum_hessian":[1.359E3,1.291E3,6.8E1,1.282E3,9E0,4E0,6.4E1,1.233E3,4.9E1,6E0,3E0,3E0,1E0,6.3E1,1E0],"tree_param":{"num_deleted":"0","num_feature":"117","num_nodes":"15","size_leaf_vector":"1"}},{"base_weights":[4.798243E-1,3.1606504E-1,3.34543E1,-2.2316494E0,7.667138E0,-9.233971E-1,3.1247185E1,1.0110301E0,2.9147156E1],"categories":[],"categories_nodes":[],"categories_segments":[],"categories_sizes":[],"default_left":[0,0,0,0,0,0,0,0,0],"id":65,"left_children":[1,3,-1,5,7,-1,-1,-1,-1],"loss_changes":[2.4693535E4,2.5469055E4,0E0,9.12623E4,1.3426231E5,0E0,0E0,0E0,0E0],"parents":[2147483647,0,0,1,1,3,3,4,4],"right_children":[2,4,-1,6,8,-1,-1,-1,-1],"split_conditions":[1.3957E4,2.51E2,3.34543E1,6.32E2,7.1E1,-9.233971E-1,3.1247185E1,1.0110301E0,2.9147156E1],"split_indices":[27,3,0,94,77,0,0,0,0],"split_type":[0,0,0,0,0,0,0,0,0],"sum_hessian":[1.359E3,1.358E3,1E0,1.009E3,3.49E2,1.002E3,7E0,3.34E2,1.5E1],"tree_param":{"num_deleted":"0","num_feature":"117","num_nodes":"9","size_leaf_vector":"1"}},{"base_weights":[4.0494883E-1,1.3766465E0,-2.4063457E1,4.454693E-1,2.4413857E2,-3.0023643E1,4.1985897E1,7.4046993E-1,-3.453459E0,-7.7421618E0,1.9858826E2,-1.0561912E1,3.4366913E1],"categories":[],"categories_nodes":[],"categories_segments":[],"categories_sizes":[],"default_left":[0,0,0,0,0,0,0,0,0,0,0,0,0],"id":66,"left_children":[1,3,5,7,9,11,-1,-1,-1,-1,-1,-1,-1],"loss_changes":[3.2368342E4,2.957964E5,5.5035453E4,3.1591385E4,5.810301E5,4.224837E4,0E0,0E0,0E0,0E0,0E0,0E0,0E0],"parents":[2147483647,0,0,1,1,2,2,3,3,4,4,5,5],"right_children":[2,4,6,8,10,12,-1,-1,-1,-1,-1,-1,-1],"split_conditions":[8.4E1,7.2E1,9.8E2,8.68E2,3E0,1.873E3,4.1985897E1,7.4046993E-1,-3.453459E0,-7.7421618E0,1.9858826E2,-1.0561912E1,3.4366913E1],"split_indices":[77,77,54,3,3,21,0,0,0,0,0,0,0],"split_type":[0,0,0,0,0,0,0,0,0,0,0,0,0],"sum_hessian":[1.359E3,1.308E3,5.1E1,1.304E3,4E0,5E1,1E0,1.116E3,1.88E2,3E0,1E0,4.9E1,1E0],"tree_param":{"num_deleted":"0","num_feature":"117","num_nodes":"13","size_leaf_vector":"1"}},{"base_weights":[4.7017387E-1,1.7534535E-1,5.7431263E1,-1.8704966E-2,8.756891E1,3.4389214E1,1.1625343E1,-2.5063112E-1,6.2497053E0,3.2255847E0,3.6180424E1,-4.350875E0,6.5349417E0],"categories":[],"categories_nodes":[],"categories_segments":[],"categories_sizes":[],"default_left":[0,0,0,0,0,0,0,0,0,0,0,0,0],"id":67,"left_children":[1,3,5,7,9,-1,11,-1,-1,-1,-1,-1,-1],"loss_changes":[2.2829434E4,2.2963781E4,1.700789E4,2.3041594E4,6.31567E3,0E0,1.6429464E3,0E0,0E0,0E0,0E0,0E0,0E0],"parents":[2147483647,0,0,1,1,2,2,3,3,4,4,6,6],"right_children":[2,4,6,8,10,-1,12,-1,-1,-1,-1,-1,-1],"split_conditions":[2.02E2,1.79E3,1.6E1,3.3E1,1.3E1,3.4389214E1,2.9E1,-2.5063112E-1,6.2497053E0,3.2255847E0,3.6180424E1,-4.350875E0,6.5349417E0],"split_indices":[101,19,2,99,0,0,1,0,0,0,0,0,0],"split_type":[0,0,0,0,0,0,0,0,0,0,0,0,0],"sum_hessian":[1.359E3,1.353E3,6E0,1.351E3,2E0,2E0,4E0,1.301E3,5E1,1E0,1E0,1E0,3E0],"tree_param":{"num_deleted":"0","num_feature":"117","num_nodes":"13","size_leaf_vector":"1"}},{"base_weights":[3.8939932E-1,1.0228138E0,-2.434385E1,2.101513E0,-1.5169994E1,-3.1070898E1,2.9647318E1,4.462934E-1,1.679154E1,-1.6319918E1,-2.5263038E0,-1.2897183E1,1.9304928E-1],"categories":[],"categories_nodes":[],"categories_segments":[],"categories_sizes":[],"default_left":[0,0,0,0,0,0,0,0,0,0,0,0,0],"id":68,"left_children":[1,3,5,7,9,11,-1,-1,-1,-1,-1,-1,-1],"loss_changes":[2.13312E4,2.3210809E4,3.1241562E4,4.108795E4,2.1517043E4,1.2502539E4,0E0,0E0,0E0,0E0,0E0,0E0,0E0],"parents":[2147483647,0,0,1,1,2,2,3,3,4,4,5,5],"right_children":[2,4,6,8,10,12,-1,-1,-1,-1,-1,-1,-1],"split_conditions":[1.18E2,5.2E1,2.254E3,4.3E1,9.4E1,1.84E2,2.9647318E1,4.462934E-1,1.679154E1,-1.6319918E1,-2.5263038E0,-1.2897183E1,1.9304928E-1],"split_indices":[76,56,22,56,1,5,0,0,0,0,0,0,0],"split_type":[0,0,0,0,0,0,0,0,0,0,0,0,0],"sum_hessian":[1.359E3,1.326E3,3.3E1,1.244E3,8.2E1,3.2E1,1E0,1.231E3,1.3E1,1.1E1,7.1E1,2.3E1,9E0],"tree_param":{"num_deleted":"0","num_feature":"117","num_nodes":"13","size_leaf_vector":"1"}},{"base_weights":[2.8385532E-1,6.838795E-2,7.3310196E1,1.3290875E0,-1.3822226E1,4.6187134E1,-1.4673434E0,2.1127065E-1,4.6845467E1,-4.9648156E0,2.7507029E1],"categories":[],"categories_nodes":[],"categories_segments":[],"categories_sizes":[],"default_left":[0,0,0,0,0,0,0,0,0,0,0],"id":69,"left_children":[1,3,5,7,9,-1,-1,-1,-1,-1,-1],"loss_changes":[2.1394305E4,2.3782008E4,2.5979812E4,1.20332734E5,3.4033047E4,0E0,0E0,0E0,0E0,0E0,0E0],"parents":[2147483647,0,0,1,1,2,2,3,3,4,4],"right_children":[2,4,6,8,10,-1,-1,-1,-1,-1,-1],"split_conditions":[7.036E3,1.1E2,8.1E1,9E1,3.14E2,4.6187134E1,-1.4673434E0,2.1127065E-1,4.6845467E1,-4.9648156E0,2.7507029E1],"split_indices":[78,50,2,50,40,0,0,0,0,0,0],"split_type":[0,0,0,0,0,0,0,0,0,0,0],"sum_hessian":[1.359E3,1.356E3,3E0,1.244E3,1.12E2,1E0,2E0,1.24E3,4E0,1.1E2,2E0],"tree_param":{"num_deleted":"0","num_feature":"117","num_nodes":"11","size_leaf_vector":"1"}},{"base_weights":[2.82756E-1,-1.116045E-1,4.1153156E1,-1.2055337E0,1.5376738E1,5.860267E1,1.2025548E1,1.0734143E-2,-1.5630183E1,2.3255963E2,-6.200038E-1,-3.2446687E0,5.302598E0],"categories":[],"categories_nodes":[],"categories_segments":[],"categories_sizes":[],"default_left":[0,0,0,0,0,0,0,0,0,0,0,0,0],"id":70,"left_children":[1,3,5,7,9,-1,11,-1,-1,-1,-1,-1,-1],"loss_changes":[2.1924629E4,2.2857904E4,5.603597E4,7.960462E4,1.1811985E6,0E0,1.739735E3,0E0,0E0,0E0,0E0,0E0,0E0],"parents":[2147483647,0,0,1,1,2,2,3,3,4,4,6,6],"right_children":[2,4,6,8,10,-1,12,-1,-1,-1,-1,-1,-1],"split_conditions":[2.801E3,9.4E1,1.3E1,5.3E1,9.8E1,5.860267E1,6.7E1,1.0734143E-2,-1.5630183E1,2.3255963E2,-6.200038E-1,-3.2446687E0,5.302598E0],"split_indices":[11,42,0,42,42,0,1,0,0,0,0,0,0],"split_type":[0,0,0,0,0,0,0,0,0,0,0,0,0],"sum_hessian":[1.359E3,1.347E3,1.2E1,1.259E3,8.8E1,1E0,1.1E1,1.23E3,2.9E1,1E0,8.7E1,2E0,9E0],"tree_param":{"num_deleted":"0","num_feature":"117","num_nodes":"13","size_leaf_vector":"1"}},{"base_weights":[4.0159234E-1,-2.7897757E-1,2.4085604E1,-1.459042E0,1.41678E1,4.9730353E0,1.096876E2,-5.934147E-1,2.3303192E1,3.6110558E1,-2.7103138E0,-2.9230468E0,8.0215195E1],"categories":[],"categories_nodes":[],"categories_segments":[],"categories_sizes":[],"default_left":[0,0,0,0,0,0,0,0,0,0,0,0,0],"id":71,"left_children":[1,3,5,7,9,11,-1,-1,-1,-1,-1,-1,-1],"loss_changes":[2.192805E4,2.2575342E4,2.4623436E5,5.0426188E4,2.4749628E5,1.4549102E5,0E0,0E0,0E0,0E0,0E0,0E0,0E0],"parents":[2147483647,0,0,1,1,2,2,3,3,4,4,5,5],"right_children":[2,4,6,8,10,12,-1,-1,-1,-1,-1,-1,-1],"split_conditions":[3.68E2,6.65E2,8.6E1,4.25E3,2.9E1,3.6E1,1.096876E2,-5.934147E-1,2.3303192E1,3.6110558E1,-2.7103138E0,-2.9230468E0,8.0215195E1],"split_indices":[64,24,107,22,1,98,0,0,0,0,0,0,0],"split_type":[0,0,0,0,0,0,0,0,0,0,0,0,0],"sum_hessian":[1.359E3,1.322E3,3.7E1,1.223E3,9.9E1,3.6E1,1E0,1.216E3,7E0,1.7E1,8.2E1,3.5E1,1E0],"tree_param":{"num_deleted":"0","num_feature":"117","num_nodes":"13","size_leaf_vector":"1"}},{"base_weights":[4.5985642E-1,6.991754E-1,-8.084407E1,3.969714E-1,6.157317E1,-3.594906E1,-8.3715925E0,2.811012E-1,-1.2658095E1],"categories":[],"categories_nodes":[],"categories_segments":[],"categories_sizes":[],"default_left":[0,0,0,0,0,0,0,0,0],"id":72,"left_children":[1,3,5,7,-1,-1,-1,-1,-1],"loss_changes":[2.6518824E4,8.380044E4,4.9116094E3,3.122797E4,0E0,0E0,0E0,0E0,0E0],"parents":[2147483647,0,0,1,1,2,2,3,3],"right_children":[2,4,6,8,-1,-1,-1,-1,-1],"split_conditions":[5.937E3,5.441E3,1.03E2,2.432E3,6.157317E1,-3.594906E1,-8.3715925E0,2.811012E-1,-1.2658095E1],"split_indices":[22,22,0,22,0,0,0,0,0],"split_type":[0,0,0,0,0,0,0,0,0],"sum_hessian":[1.359E3,1.356E3,3E0,1.355E3,1E0,1E0,2E0,1.339E3,1.6E1],"tree_param":{"num_deleted":"0","num_feature":"117","num_nodes":"9","size_leaf_vector":"1"}},{"base_weights":[3.2548603E-1,1.3900231E-1,8.4631966E1,-2.6677516E-1,3.9112694E1,4.2863495E1,-4.7791085E0,-9.8487777E-1,1.8280591E0,2.407025E0,6.6491E1],"categories":[],"categories_nodes":[],"categories_segments":[],"categories_sizes":[],"default_left":[0,0,0,0,0,0,0,0,0,0,0],"id":73,"left_children":[1,3,5,7,9,-1,-1,-1,-1,-1,-1],"loss_changes":[2.1369867E4,2.1486725E4,1.9848268E4,2.5822E4,7.766525E4,0E0,0E0,0E0,0E0,0E0,0E0],"parents":[2147483647,0,0,1,1,2,2,3,3,4,4],"right_children":[2,4,6,8,10,-1,-1,-1,-1,-1,-1],"split_conditions":[2.255E3,2.88E2,1.125E3,7.8E1,2.4E1,4.2863495E1,-4.7791085E0,-9.8487777E-1,1.8280591E0,2.407025E0,6.6491E1],"split_indices":[25,85,0,3,114,0,0,0,0,0,0],"split_type":[0,0,0,0,0,0,0,0,0,0,0],"sum_hessian":[1.359E3,1.357E3,2E0,1.344E3,1.3E1,1E0,1E0,9.12E2,4.32E2,1.2E1,1E0],"tree_param":{"num_deleted":"0","num_feature":"117","num_nodes":"11","size_leaf_vector":"1"}},{"base_weights":[3.07124E-1,1.2035755E-1,8.4747696E1,-2.9984694E-2,3.0620218E1,3.333512E1,4.8013425E0,2.8361493E-1,-5.92507E0],"categories":[],"categories_nodes":[],"categories_segments":[],"categories_sizes":[],"default_left":[0,0,0,0,0,0,0,0,0],"id":74,"left_children":[1,3,5,7,-1,-1,-1,-1,-1],"loss_changes":[2.1437904E4,2.0817053E4,3.6597773E3,2.6119879E4,0E0,0E0,0E0,0E0,0E0],"parents":[2147483647,0,0,1,1,2,2,3,3],"right_children":[2,4,6,8,-1,-1,-1,-1,-1],"split_conditions":[2.033E3,1.3308E4,1.345E3,1.11E3,3.0620218E1,3.333512E1,4.8013425E0,2.8361493E-1,-5.92507E0],"split_indices":[84,24,0,24,0,0,0,0,0],"split_type":[0,0,0,0,0,0,0,0,0],"sum_hessian":[1.359E3,1.357E3,2E0,1.356E3,1E0,1E0,1E0,1.293E3,6.3E1],"tree_param":{"num_deleted":"0","num_feature":"117","num_nodes":"9","size_leaf_vector":"1"}},{"base_weights":[2.6139486E-1,-8.1681836E-1,1.8745672E1,-2.9088957E0,1.1971327E1,1.930133E2,-1.1034168E1,-4.0402403E-1,-1.166309E1,4.320675E1,1.02204E0,1.1064238E1,2.631508E2,-2.4757675E1,-2.9491192E-1],"categories":[],"categories_nodes":[],"categories_segments":[],"categories_sizes":[],"default_left":[0,0,0,0,0,0,0,0,0,0,0,0,0,0,0],"id":75,"left_children":[1,3,5,7,9,11,13,-1,-1,-1,-1,-1,-1,-1,-1],"loss_changes":[2.7120102E4,3.4440195E4,3.913544E5,6.2091E4,2.0421233E5,1.1426581E6,4.6625887E4,0E0,0E0,0E0,0E0,0E0,0E0,0E0,0E0],"parents":[2147483647,0,0,1,1,2,2,3,3,4,4,5,5,6,6],"right_children":[2,4,6,8,10,12,14,-1,-1,-1,-1,-1,-1,-1,-1],"split_conditions":[9.77E2,1.62E2,1.11E3,6.4E1,1.78E2,1.109E3,2.9E1,-4.0402403E-1,-1.166309E1,4.320675E1,1.02204E0,1.1064238E1,2.631508E2,-2.4757675E1,-2.9491192E-1],"split_indices":[24,12,24,12,12,24,1,0,0,0,0,0,0,0,0],"split_type":[0,0,0,0,0,0,0,0,0,0,0,0,0,0,0],"sum_hessian":[1.359E3,1.285E3,7.4E1,1.105E3,1.8E2,1E1,6.4E1,1.06E3,4.5E1,1E1,1.7E2,9E0,1E0,7E0,5.7E1],"tree_param":{"num_deleted":"0","num_feature":"117","num_nodes":"15","size_leaf_vector":"1"}},{"base_weights":[3.8983214E-1,-1.5720956E-1,2.9608147E1,3.167908E-1,-3.9282036E1,1.5182228E2,-1.1331034E1,-8.893677E-2,1.2147037E2,-1.602638E1,2.5920963E1,-1.4001276E1,-5.788536E-1],"categories":[],"categories_nodes":[],"categories_segments":[],"categories_sizes":[],"default_left":[0,0,0,0,0,0,0,0,0,0,0,0,0],"id":76,"left_children":[1,3,5,7,9,-1,11,-1,-1,-1,-1,-1,-1],"loss_changes":[2.1742402E4,2.4788807E4,4.9338762E5,3.2787344E5,3.304925E4,0E0,7.883916E3,0E0,0E0,0E0,0E0,0E0,0E0],"parents":[2147483647,0,0,1,1,2,2,3,3,4,4,6,6],"right_children":[2,4,6,8,10,-1,12,-1,-1,-1,-1,-1,-1],"split_conditions":[1.263E3,7.95E2,1.27E3,7.67E2,2.9E1,1.5182228E2,2.9E1,-8.893677E-2,1.2147037E2,-1.602638E1,2.5920963E1,-1.4001276E1,-5.788536E-1],"split_indices":[18,94,18,94,107,0,1,0,0,0,0,0,0],"split_type":[0,0,0,0,0,0,0,0,0,0,0,0,0],"sum_hessian":[1.359E3,1.335E3,2.4E1,1.32E3,1.5E1,1E0,2.3E1,1.319E3,1E0,1.4E1,1E0,4E0,1.9E1],"tree_param":{"num_deleted":"0","num_feature":"117","num_nodes":"13","size_leaf_vector":"1"}},{"base_weights":[4.7032282E-1,-4.6904525E-1,1.6571083E1,-1.4974895E0,2.6087444E1,1.2875525E2,5.1954446E0,-7.168313E-2,-9.066486E0,3.154148E0,7.685613E1,2.7088161E1,-2.3929653E0],"categories":[],"categories_nodes":[],"categories_segments":[],"categories_sizes":[],"default_left":[0,0,0,0,0,0,0,0,0,0,0,0,0],"id":77,"left_children":[1,3,5,7,9,-1,11,-1,-1,-1,-1,-1,-1],"loss_changes":[2.0577146E4,3.516213E4,3.4980047E5,4.478341E4,1.6931373E5,0E0,8.366802E4,0E0,0E0,0E0,0E0,0E0,0E0],"parents":[2147483647,0,0,1,1,2,2,3,3,4,4,6,6],"right_children":[2,4,6,8,10,-1,12,-1,-1,-1,-1,-1,-1],"split_conditions":[9.77E2,2.35E2,9.78E2,9.36E2,1.06E2,1.2875525E2,1.11E3,-7.168313E-2,-9.066486E0,3.154148E0,7.685613E1,2.7088161E1,-2.3929653E0],"split_indices":[24,36,24,22,25,0,24,0,0,0,0,0,0],"split_type":[0,0,0,0,0,0,0,0,0,0,0,0,0],"sum_hessian":[1.359E3,1.285E3,7.4E1,1.238E3,4.7E1,1E0,7.3E1,1.187E3,5.1E1,4.5E1,2E0,9E0,6.4E1],"tree_param":{"num_deleted":"0","num_feature":"117","num_nodes":"13","size_leaf_vector":"1"}},{"base_weights":[4.9416965E-1,-1.6222505E-1,2.3334064E1,-1.9270977E0,9.641484E0,7.1390977E0,9.338218E1,-1.3795165E0,5.0991592E0,3.2449234E1,1.0203308E0,-1.2080597E0,6.136707E1],"categories":[],"categories_nodes":[],"categories_segments":[],"categories_sizes":[],"default_left":[0,0,0,0,0,0,0,0,0,0,0,0,0],"id":78,"left_children":[1,3,5,7,9,11,-1,-1,-1,-1,-1,-1,-1],"loss_changes":[2.0392885E4,2.2909521E4,1.7497848E5,5.6797824E4,1.23825516E5,8.238504E4,0E0,0E0,0E0,0E0,0E0,0E0,0E0],"parents":[2147483647,0,0,1,1,2,2,3,3,4,4,5,5],"right_children":[2,4,6,8,10,12,-1,-1,-1,-1,-1,-1,-1],"split_conditions":[3.68E2,1.2E1,8.6E1,1.05E2,2.3E1,3.6E1,9.338218E1,-1.3795165E0,5.0991592E0,3.2449234E1,1.0203308E0,-1.2080597E0,6.136707E1],"split_indices":[64,28,107,25,28,98,0,0,0,0,0,0,0],"split_type":[0,0,0,0,0,0,0,0,0,0,0,0,0],"sum_hessian":[1.359E3,1.322E3,3.7E1,1.121E3,2.01E2,3.6E1,1E0,9.83E2,1.38E2,1.1E1,1.9E2,3.5E1,1E0],"tree_param":{"num_deleted":"0","num_feature":"117","num_nodes":"13","size_leaf_vector":"1"}},{"base_weights":[4.8616138E-1,3.366915E-1,3.054236E1,6.419324E-1,-4.5520775E1,6.8186E-2,1.4067165E1,-2.580325E1,-6.499479E0],"categories":[],"categories_nodes":[],"categories_segments":[],"categories_sizes":[],"default_left":[0,0,0,0,0,0,0,0,0],"id":79,"left_children":[1,3,-1,5,7,-1,-1,-1,-1],"loss_changes":[2.05623E4,1.9051926E4,0E0,2.5897191E4,6.8299023E3,0E0,0E0,0E0,0E0],"parents":[2147483647,0,0,1,1,3,3,4,4],"right_children":[2,4,-1,6,8,-1,-1,-1,-1],"split_conditions":[9.954E3,1.197E3,3.054236E1,6.57E2,1.29E2,6.8186E-2,1.4067165E1,-2.580325E1,-6.499479E0],"split_indices":[99,45,0,45,1,0,0,0,0],"split_type":[0,0,0,0,0,0,0,0,0],"sum_hessian":[1.359E3,1.358E3,1E0,1.35E3,8E0,1.339E3,1.1E1,2E0,6E0],"tree_param":{"num_deleted":"0","num_feature":"117","num_nodes":"9","size_leaf_vector":"1"}},{"base_weights":[3.494119E-1,-3.301203E-1,2.0681105E1,5.4340214E-1,-4.2085205E1,1.0048623E2,-2.7112482E0,-3.3233088E-1,3.522074E0,-1.5048249E1,2.5182148E1,1.1573124E1,9.865029E1,-4.196113E0,5.709987E1],"categories":[],"categories_nodes":[],"categories_segments":[],"categories_sizes":[],"default_left":[0,0,0,0,0,0,0,0,0,0,0,0,0,0,0],"id":80,"left_children":[1,3,5,7,9,11,13,-1,-1,-1,-1,-1,-1,-1,-1],"loss_changes":[1.879664E4,4.8059133E4,8.241295E4,2.3880898E4,3.1689398E4,1.28682875E5,7.88476E4,0E0,0E0,0E0,0E0,0E0,0E0,0E0,0E0],"parents":[2147483647,0,0,1,1,2,2,3,3,4,4,5,5,6,6],"right_children":[2,4,6,8,10,12,14,-1,-1,-1,-1,-1,-1,-1,-1],"split_conditions":[7.7E1,2.8E1,1.16E2,1.99E2,3.28E2,1.01E2,8E0,-3.3233088E-1,3.522074E0,-1.5048249E1,2.5182148E1,1.1573124E1,9.865029E1,-4.196113E0,5.709987E1],"split_indices":[85,85,85,22,26,11,61,0,0,0,0,0,0,0,0],"split_type":[0,0,0,0,0,0,0,0,0,0,0,0,0,0,0],"sum_hessian":[1.359E3,1.316E3,4.3E1,1.29E3,2.6E1,9E0,3.4E1,1.125E3,1.65E2,2.5E1,1E0,8E0,1E0,3.3E1,1E0],"tree_param":{"num_deleted":"0","num_feature":"117","num_nodes":"15","size_leaf_vector":"1"}},{"base_weights":[3.74332E-1,5.1695126E-1,-2.9016788E1,3.7903136E-1,2.8171831E1,4.1457614E-1,-3.9363983E0],"categories":[],"categories_nodes":[],"categories_segments":[],"categories_sizes":[],"default_left":[0,0,0,0,0,0,0],"id":81,"left_children":[1,3,-1,5,-1,-1,-1],"loss_changes":[1.8883143E4,1.746863E4,0E0,1.8404586E4,0E0,0E0,0E0],"parents":[2147483647,0,0,1,1,3,3],"right_children":[2,4,-1,6,-1,-1,-1],"split_conditions":[8.22E2,1.3957E4,-2.9016788E1,5.4E1,2.8171831E1,4.1457614E-1,-3.9363983E0],"split_indices":[111,27,0,54,0,0,0],"split_type":[0,0,0,0,0,0,0],"sum_hessian":[1.359E3,1.358E3,1E0,1.357E3,1E0,1.264E3,9.3E1],"tree_param":{"num_deleted":"0","num_feature":"117","num_nodes":"7","size_leaf_vector":"1"}},{"base_weights":[2.5882182E-1,-2.5266442E-1,2.4599976E1,6.37212E-1,-4.5010574E1,6.649505E0,7.6389404E1,5.7792556E-1,-3.9440622E0,-1.7089407E1,1.9687761E1,-1.2872417E-1,2.860391E1],"categories":[],"categories_nodes":[],"categories_segments":[],"categories_sizes":[],"default_left":[0,0,0,0,0,0,0,0,0,0,0,0,0],"id":82,"left_children":[1,3,5,7,9,11,-1,-1,-1,-1,-1,-1,-1],"loss_changes":[1.6938438E4,5.3120746E4,1.1392362E5,2.3269182E4,3.8124934E4,1.6992816E4,0E0,0E0,0E0,0E0,0E0,0E0,0E0],"parents":[2147483647,0,0,1,1,2,2,3,3,4,4,5,5],"right_children":[2,4,6,8,10,12,-1,-1,-1,-1,-1,-1,-1],"split_conditions":[2.78E2,1.2E1,2.1E1,4.81E2,6.4E1,1.263E3,7.6389404E1,5.7792556E-1,-3.9440622E0,-1.7089407E1,1.9687761E1,-1.2872417E-1,2.860391E1],"split_indices":[84,84,40,12,56,15,0,0,0,0,0,0,0],"split_type":[0,0,0,0,0,0,0,0,0,0,0,0,0],"sum_hessian":[1.359E3,1.332E3,2.7E1,1.307E3,2.5E1,2.6E1,1E0,1.196E3,1.11E2,2.3E1,2E0,2.5E1,1E0],"tree_param":{"num_deleted":"0","num_feature":"117","num_nodes":"13","size_leaf_vector":"1"}},{"base_weights":[2.577168E-1,-5.6291795E-1,1.6355661E1,3.3528205E-2,-8.5792175E1,2.1972597E2,-5.928709E0,-1.5939169E-1,1.0896147E2,-6.6756864E0,-3.415602E1,-2.786519E-1,-3.268492E1],"categories":[],"categories_nodes":[],"categories_segments":[],"categories_sizes":[],"default_left":[0,0,0,0,0,0,0,0,0,0,0,0,0],"id":83,"left_children":[1,3,5,7,9,-1,11,-1,-1,-1,-1,-1,-1],"loss_changes":[1.7975533E4,6.5833766E4,1.057507E6,2.641972E5,1.351357E4,0E0,3.337976E4,0E0,0E0,0E0,0E0,0E0,0E0],"parents":[2147483647,0,0,1,1,2,2,3,3,4,4,6,6],"right_children":[2,4,6,8,10,-1,12,-1,-1,-1,-1,-1,-1],"split_conditions":[1.109E3,9.78E2,1.11E3,9.77E2,8.4E1,2.1972597E2,2.254E3,-1.5939169E-1,1.0896147E2,-6.6756864E0,-3.415602E1,-2.786519E-1,-3.268492E1],"split_indices":[24,24,24,24,0,0,22,0,0,0,0,0,0],"split_type":[0,0,0,0,0,0,0,0,0,0,0,0,0],"sum_hessian":[1.359E3,1.294E3,6.5E1,1.286E3,8E0,1E0,6.4E1,1.285E3,1E0,3E0,5E0,6.2E1,2E0],"tree_param":{"num_deleted":"0","num_feature":"117","num_nodes":"13","size_leaf_vector":"1"}},{"base_weights":[3.6770597E-1,-1.260051E-1,2.6736917E1,-1.2636689E0,1.563836E1,1.2882129E2,-7.9327364E0,-1.7891404E-1,-1.2651607E1,1.98034E2,2.9401958E-1,6.533798E-1,-1.158832E1],"categories":[],"categories_nodes":[],"categories_segments":[],"categories_sizes":[],"default_left":[0,0,0,0,0,0,0,0,0,0,0,0,0],"id":84,"left_children":[1,3,5,7,9,-1,11,-1,-1,-1,-1,-1,-1],"loss_changes":[1.7708898E4,2.3980316E4,3.524148E5,3.4015062E4,8.495743E5,0E0,7.532455E3,0E0,0E0,0E0,0E0,0E0,0E0],"parents":[2147483647,0,0,1,1,2,2,3,3,4,4,6,6],"right_children":[2,4,6,8,10,-1,12,-1,-1,-1,-1,-1,-1],"split_conditions":[1.263E3,9.4E1,1.27E3,6.4E1,9.8E1,1.2882129E2,2E0,-1.7891404E-1,-1.2651607E1,1.98034E2,2.9401958E-1,6.533798E-1,-1.158832E1],"split_indices":[18,42,18,42,42,0,42,0,0,0,0,0,0],"split_type":[0,0,0,0,0,0,0,0,0,0,0,0,0],"sum_hessian":[1.359E3,1.335E3,2.4E1,1.246E3,8.9E1,1E0,2.3E1,1.227E3,1.9E1,1E0,8.8E1,1.8E1,5E0],"tree_param":{"num_deleted":"0","num_feature":"117","num_nodes":"13","size_leaf_vector":"1"}},{"base_weights":[4.8047075E-1,-7.034551E-1,1.1593054E1,1.8248522E-1,-3.009221E1,6.561691E0,9.985054E1,-8.1526436E-2,5.4227333E1,-1.0638879E1,2.3682438E1,-3.3749933E0,1.4075759E1],"categories":[],"categories_nodes":[],"categories_segments":[],"categories_sizes":[],"default_left":[0,0,0,0,0,0,0,0,0,0,0,0,0],"id":85,"left_children":[1,3,5,7,9,11,-1,-1,-1,-1,-1,-1,-1],"loss_changes":[1.7900959E4,3.2030613E4,2.0954942E5,9.806842E4,2.3880705E4,9.397631E4,0E0,0E0,0E0,0E0,0E0,0E0,0E0],"parents":[2147483647,0,0,1,1,2,2,3,3,4,4,5,5],"right_children":[2,4,6,8,10,12,-1,-1,-1,-1,-1,-1,-1],"split_conditions":[4.3E1,3.2E2,1.079E3,3E2,1.61E2,1.25E2,9.985054E1,-8.1526436E-2,5.4227333E1,-1.0638879E1,2.3682438E1,-3.3749933E0,1.4075759E1],"split_indices":[40,36,36,36,64,8,0,0,0,0,0,0,0],"split_type":[0,0,0,0,0,0,0,0,0,0,0,0,0],"sum_hessian":[1.359E3,1.229E3,1.3E2,1.194E3,3.5E1,1.29E2,1E0,1.192E3,2E0,3.4E1,1E0,9E1,3.9E1],"tree_param":{"num_deleted":"0","num_feature":"117","num_nodes":"13","size_leaf_vector":"1"}},{"base_weights":[4.6702164E-1,2.939776E-1,7.8642624E1,-8.300362E-1,1.2223305E1,4.1810603E0,3.1208122E1,-8.5589266E-1,2.807229E0,1.7883347E2,6.152679E-1],"categories":[],"categories_nodes":[],"categories_segments":[],"categories_sizes":[],"default_left":[0,0,0,0,0,0,0,0,0,0,0],"id":86,"left_children":[1,3,5,7,9,-1,-1,-1,-1,-1,-1],"loss_changes":[1.8374719E4,1.8219201E4,3.477748E3,2.562261E4,6.9370494E5,0E0,0E0,0E0,0E0,0E0,0E0],"parents":[2147483647,0,0,1,1,2,2,3,3,4,4],"right_children":[2,4,6,8,10,-1,-1,-1,-1,-1,-1],"split_conditions":[1.79E3,6.3E1,1.3E1,3.8E1,9.2E1,4.1810603E0,3.1208122E1,-8.5589266E-1,2.807229E0,1.7883347E2,6.152679E-1],"split_indices":[19,46,0,26,46,0,0,0,0,0,0],"split_type":[0,0,0,0,0,0,0,0,0,0,0],"sum_hessian":[1.359E3,1.357E3,2E0,1.241E3,1.16E2,1E0,1E0,1.036E3,2.05E2,1E0,1.15E2],"tree_param":{"num_deleted":"0","num_feature":"117","num_nodes":"11","size_leaf_vector":"1"}},{"base_weights":[4.8632E-1,9.739481E-1,-2.559198E1,1.2457734E-1,1.7853245E1,-1.0905845E1,-2.999032E1,-1.7171618E-1,1.3846312E1,1.8693452E2,-4.9343994E-1,-1.046477E0,-1.3023879E1],"categories":[],"categories_nodes":[],"categories_segments":[],"categories_sizes":[],"default_left":[0,0,0,0,0,0,0,0,0,0,0,0,0],"id":87,"left_children":[1,3,5,7,9,11,-1,-1,-1,-1,-1,-1,-1],"loss_changes":[1.7319383E4,1.9151715E4,2.6217076E4,4.0865703E4,7.5631594E5,5.1532964E3,0E0,0E0,0E0,0E0,0E0,0E0,0E0],"parents":[2147483647,0,0,1,1,2,2,3,3,4,4,5,5],"right_children":[2,4,6,8,10,12,-1,-1,-1,-1,-1,-1,-1],"split_conditions":[3.35E3,1.109E3,3.82E2,2.428E3,1.11E3,6.02E2,-2.999032E1,-1.7171618E-1,1.3846312E1,1.8693452E2,-4.9343994E-1,-1.046477E0,-1.3023879E1],"split_indices":[8,24,16,22,24,24,0,0,0,0,0,0,0],"split_type":[0,0,0,0,0,0,0,0,0,0,0,0,0],"sum_hessian":[1.359E3,1.335E3,2.4E1,1.272E3,6.3E1,2.1E1,3E0,1.254E3,1.8E1,1E0,6.2E1,1.8E1,3E0],"tree_param":{"num_deleted":"0","num_feature":"117","num_nodes":"13","size_leaf_vector":"1"}},{"base_weights":[4.551708E-1,3.2391563E-1,2.6824646E1,-1.2733415E-2,3.518102E1,-7.4183035E-1,1.5557257E0,4.939198E1,3.201835E0],"categories":[],"categories_nodes":[],"categories_segments":[],"categories_sizes":[],"default_left":[0,0,0,0,0,0,0,0,0],"id":88,"left_children":[1,3,-1,5,7,-1,-1,-1,-1],"loss_changes":[1.5851079E4,1.5947783E4,0E0,1.7238867E4,3.9489355E4,0E0,0E0,0E0,0E0],"parents":[2147483647,0,0,1,1,3,3,4,4],"right_children":[2,4,-1,6,8,-1,-1,-1,-1],"split_conditions":[1.3308E4,2.801E3,2.6824646E1,7.8E1,1.3E1,-7.4183035E-1,1.5557257E0,4.939198E1,3.201835E0],"split_indices":[24,11,0,3,0,0,0,0,0],"split_type":[0,0,0,0,0,0,0,0,0],"sum_hessian":[1.359E3,1.358E3,1E0,1.346E3,1.2E1,9.14E2,4.32E2,1E0,1.1E1],"tree_param":{"num_deleted":"0","num_feature":"117","num_nodes":"9","size_leaf_vector":"1"}},{"base_weights":[3.7761414E-1,1.9203235E-1,6.3241833E1,-3.8387087E-1,2.0192038E1,3.9370785E1,-3.1681893E0,-4.3338094E-2,-1.5837213E1,1.9486537E0,7.9044525E1,-1.3784835E0,-4.7201697E-2],"categories":[],"categories_nodes":[],"categories_segments":[],"categories_sizes":[],"default_left":[0,0,0,0,0,0,0,0,0,0,0,0,0],"id":89,"left_children":[1,3,5,7,9,-1,11,-1,-1,-1,-1,-1,-1],"loss_changes":[1.5854232E4,1.563777E4,1.8477742E4,1.6554084E4,1.2491306E5,0E0,1.2164282E1,0E0,0E0,0E0,0E0,0E0,0E0],"parents":[2147483647,0,0,1,1,2,2,3,3,4,4,6,6],"right_children":[2,4,6,8,10,-1,12,-1,-1,-1,-1,-1,-1],"split_conditions":[7.036E3,3.68E2,8.1E1,3.38E2,8.6E1,3.9370785E1,4.22E2,-4.3338094E-2,-1.5837213E1,1.9486537E0,7.9044525E1,-1.3784835E0,-4.7201697E-2],"split_indices":[78,64,2,64,107,0,0,0,0,0,0,0,0],"split_type":[0,0,0,0,0,0,0,0,0,0,0,0,0],"sum_hessian":[1.359E3,1.356E3,3E0,1.319E3,3.7E1,1E0,2E0,1.314E3,5E0,3.6E1,1E0,1E0,1E0],"tree_param":{"num_deleted":"0","num_feature":"117","num_nodes":"13","size_leaf_vector":"1"}},{"base_weights":[3.4010664E-1,-2.3624499E-1,1.9868229E1,8.9122236E-2,-4.771361E1,2.0024772E0,1.04815025E2,-1.2346905E-1,8.853521E0,-2.075026E1,-1.0812985E0,-4.989622E0,3.8495075E1],"categories":[],"categories_nodes":[],"categories_segments":[],"categories_sizes":[],"default_left":[0,0,0,0,0,0,0,0,0,0,0,0,0],"id":90,"left_children":[1,3,5,7,9,11,-1,-1,-1,-1,-1,-1,-1],"loss_changes":[1.5311583E4,2.0425951E4,2.2889478E5,1.9369312E4,8.267551E3,9.157905E4,0E0,0E0,0E0,0E0,0E0,0E0,0E0],"parents":[2147483647,0,0,1,1,2,2,3,3,4,4,5,5],"right_children":[2,4,6,8,10,12,-1,-1,-1,-1,-1,-1,-1],"split_conditions":[4.13E2,3.3E2,5.1E1,1.64E2,1.5E1,3.9E1,1.04815025E2,-1.2346905E-1,8.853521E0,-2.075026E1,-1.0812985E0,-4.989622E0,3.8495075E1],"split_indices":[42,42,83,42,27,28,0,0,0,0,0,0,0],"split_type":[0,0,0,0,0,0,0,0,0,0,0,0,0],"sum_hessian":[1.359E3,1.321E3,3.8E1,1.313E3,8E0,3.7E1,1E0,1.292E3,2.1E1,5E0,3E0,3.3E1,4E0],"tree_param":{"num_deleted":"0","num_feature":"117","num_nodes":"13","size_leaf_vector":"1"}},{"base_weights":[3.3014768E-1,-1.4942761E-2,3.3509197E1,-7.824105E-1,1.4211234E1,6.553399E0,5.7590187E1,-6.287162E-1,3.9167414E0,6.9813965E1,-8.445737E-1,-5.9933815E0,4.8739418E1],"categories":[],"categories_nodes":[],"categories_segments":[],"categories_sizes":[],"default_left":[0,0,0,0,0,0,0,0,0,0,0,0,0],"id":91,"left_children":[1,3,5,7,9,11,-1,-1,-1,-1,-1,-1,-1],"loss_changes":[1.5572192E4,1.4717843E4,5.854106E4,2.3271736E4,2.5735716E5,5.702067E4,0E0,0E0,0E0,0E0,0E0,0E0,0E0],"parents":[2147483647,0,0,1,1,2,2,3,3,4,4,5,5],"right_children":[2,4,6,8,10,12,-1,-1,-1,-1,-1,-1,-1],"split_conditions":[2.88E2,6.9E1,2.4E1,6.3E1,7.9E1,3.2E1,5.7590187E1,-6.287162E-1,3.9167414E0,6.9813965E1,-8.445737E-1,-5.9933815E0,4.8739418E1],"split_indices":[85,74,114,46,74,10,0,0,0,0,0,0,0],"split_type":[0,0,0,0,0,0,0,0,0,0,0,0,0],"sum_hessian":[1.359E3,1.346E3,1.3E1,1.278E3,6.8E1,1.2E1,1E0,1.168E3,1.1E2,4E0,6.4E1,1.1E1,1E0],"tree_param":{"num_deleted":"0","num_feature":"117","num_nodes":"13","size_leaf_vector":"1"}},{"base_weights":[3.580107E-1,5.5775456E-2,3.7417973E1,2.4804027E-1,-2.5906143E1,8.525335E0,4.8951656E1,1.2955073E-2,4.14285E1,-3.7369711E0,7.376811E0],"categories":[],"categories_nodes":[],"categories_segments":[],"categories_sizes":[],"default_left":[0,0,0,0,0,0,0,0,0,0,0],"id":92,"left_children":[1,3,5,7,-1,9,-1,-1,-1,-1,-1],"loss_changes":[1.523104E4,2.2449674E4,3.857598E4,3.8060035E4,0E0,3.6768394E3,0E0,0E0,0E0,0E0,0E0],"parents":[2147483647,0,0,1,1,2,2,3,3,5,5],"right_children":[2,4,6,8,-1,10,-1,-1,-1,-1,-1],"split_conditions":[3.39E2,3E2,2.2E1,2.88E2,-2.5906143E1,2.1E1,4.8951656E1,1.2955073E-2,4.14285E1,-3.7369711E0,7.376811E0],"split_indices":[85,85,11,85,0,4,0,0,0,0,0],"split_type":[0,0,0,0,0,0,0,0,0,0,0],"sum_hessian":[1.359E3,1.349E3,1E1,1.347E3,2E0,9E0,1E0,1.346E3,1E0,4E0,5E0],"tree_param":{"num_deleted":"0","num_feature":"117","num_nodes":"11","size_leaf_vector":"1"}},{"base_weights":[3.00701E-1,-2.961314E-1,1.774805E1,5.789223E-1,-2.3934898E1,7.9546413E0,6.729871E1,2.7808383E-1,-1.8704079E1,-8.768094E0,3.2925114E1,-1.043832E0,4.961407E1],"categories":[],"categories_nodes":[],"categories_segments":[],"categories_sizes":[],"default_left":[0,0,0,0,0,0,0,0,0,0,0,0,0],"id":93,"left_children":[1,3,5,7,9,11,-1,-1,-1,-1,-1,-1,-1],"loss_changes":[1.4167133E4,2.723557E4,8.925649E4,2.7870396E4,3.6458906E4,7.977619E4,0E0,0E0,0E0,0E0,0E0,0E0,0E0],"parents":[2147483647,0,0,1,1,2,2,3,3,4,4,5,5],"right_children":[2,4,6,8,10,12,-1,-1,-1,-1,-1,-1,-1],"split_conditions":[3.31E2,1.3E1,8.6E1,2.83E2,6.01E2,5.83E2,6.729871E1,2.7808383E-1,-1.8704079E1,-8.768094E0,3.2925114E1,-1.043832E0,4.961407E1],"split_indices":[64,111,107,64,14,27,0,0,0,0,0,0,0],"split_type":[0,0,0,0,0,0,0,0,0,0,0,0,0],"sum_hessian":[1.359E3,1.315E3,4.4E1,1.269E3,4.6E1,4.3E1,1E0,1.263E3,6E0,4.5E1,1E0,4.1E1,2E0],"tree_param":{"num_deleted":"0","num_feature":"117","num_nodes":"13","size_leaf_vector":"1"}},{"base_weights":[2.9990175E-1,6.5044117E-1,-2.9186064E1,2.2755004E-1,1.1393976E2,-1.9731384E1,-1.9261656E1,-1.20494604E-1,6.914149E0,-4.949428E0,6.1919308E1,-7.597205E-1,-1.2343578E1],"categories":[],"categories_nodes":[],"categories_segments":[],"categories_sizes":[],"default_left":[0,0,0,0,0,0,0,0,0,0,0,0,0],"id":94,"left_children":[1,3,5,7,9,-1,11,-1,-1,-1,-1,-1,-1],"loss_changes":[1.4075935E4,6.441174E4,4.5425215E3,1.926343E4,6.3705234E4,0E0,5.0211533E3,0E0,0E0,0E0,0E0,0E0,0E0],"parents":[2147483647,0,0,1,1,2,2,3,3,4,4,6,6],"right_children":[2,4,6,8,10,-1,12,-1,-1,-1,-1,-1,-1],"split_conditions":[8.11E2,6.57E2,1.29E2,4.13E2,1.3E1,-1.9731384E1,9.96E2,-1.20494604E-1,6.914149E0,-4.949428E0,6.1919308E1,-7.597205E-1,-1.2343578E1],"split_indices":[45,45,1,42,0,0,1,0,0,0,0,0,0],"split_type":[0,0,0,0,0,0,0,0,0,0,0,0,0],"sum_hessian":[1.359E3,1.344E3,1.5E1,1.34E3,4E0,2E0,1.3E1,1.305E3,3.5E1,2E0,2E0,8E0,5E0],"tree_param":{"num_deleted":"0","num_feature":"117","num_nodes":"13","size_leaf_vector":"1"}},{"base_weights":[2.3267256E-1,1.1024293E-1,2.4992182E1,-3.5011178E-1,2.2006037E1,5.824905E-2,-8.309084E0,2.1626534E0,6.3229538E1],"categories":[],"categories_nodes":[],"categories_segments":[],"categories_sizes":[],"default_left":[0,0,0,0,0,0,0,0,0],"id":95,"left_children":[1,3,-1,5,7,-1,-1,-1,-1],"loss_changes":[1.3823092E4,1.3706196E4,0E0,1.9831139E4,7.6687555E4,0E0,0E0,0E0,0E0],"parents":[2147483647,0,0,1,1,3,3,4,4],"right_children":[2,4,-1,6,8,-1,-1,-1,-1],"split_conditions":[1.3957E4,2.78E2,2.4992182E1,1.2E1,2.1E1,5.824905E-2,-8.309084E0,2.1626534E0,6.3229538E1],"split_indices":[27,84,0,84,40,0,0,0,0],"split_type":[0,0,0,0,0,0,0,0,0],"sum_hessian":[1.359E3,1.358E3,1E0,1.331E3,2.7E1,1.306E3,2.5E1,2.6E1,1E0],"tree_param":{"num_deleted":"0","num_feature":"117","num_nodes":"9","size_leaf_vector":"1"}},{"base_weights":[2.232635E-1,7.564888E-2,6.696906E1,7.841798E-1,-1.672435E1,3.5112907E1,-4.976826E0,3.261158E-2,2.6453917E1,-1.0107762E1,-1.3173714E0],"categories":[],"categories_nodes":[],"categories_segments":[],"categories_sizes":[],"default_left":[0,0,0,0,0,0,0,0,0,0,0],"id":96,"left_children":[1,3,5,7,9,-1,-1,-1,-1,-1,-1],"loss_changes":[1.3394547E4,1.6177822E4,1.4493986E4,7.697004E4,1.136193E4,0E0,0E0,0E0,0E0,0E0,0E0],"parents":[2147483647,0,0,1,1,2,2,3,3,4,4],"right_children":[2,4,6,8,10,-1,-1,-1,-1,-1,-1],"split_conditions":[2.255E3,3.82E2,1.125E3,3.38E2,6.85E2,3.5112907E1,-4.976826E0,3.261158E-2,2.6453917E1,-1.0107762E1,-1.3173714E0],"split_indices":[25,25,0,25,0,0,0,0,0,0,0],"split_type":[0,0,0,0,0,0,0,0,0,0,0],"sum_hessian":[1.359E3,1.357E3,2E0,1.303E3,5.4E1,1E0,1E0,1.294E3,9E0,2.2E1,3.2E1],"tree_param":{"num_deleted":"0","num_feature":"117","num_nodes":"11","size_leaf_vector":"1"}},{"base_weights":[1.895191E-1,-3.5043903E-2,4.3599346E1,-1.342399E0,7.515107E0,2.301269E1,1.5013706E1,-7.6761615E-1,6.3887053E0,3.0297459E1,6.191285E-1,-1.4500866E0,6.3551836E0],"categories":[],"categories_nodes":[],"categories_segments":[],"categories_sizes":[],"default_left":[0,0,0,0,0,0,0,0,0,0,0,0,0],"id":97,"left_children":[1,3,5,7,9,-1,11,-1,-1,-1,-1,-1,-1],"loss_changes":[1.3259137E4,1.3375055E4,5.4735303E3,3.1857625E4,1.0170602E5,0E0,7.1470874E2,0E0,0E0,0E0,0E0,0E0,0E0],"parents":[2147483647,0,0,1,1,2,2,3,3,4,4,6,6],"right_children":[2,4,6,8,10,-1,12,-1,-1,-1,-1,-1,-1],"split_conditions":[2.02E2,1.62E2,1.6E1,9.55E2,1.78E2,2.301269E1,2.9E1,-7.6761615E-1,6.3887053E0,3.0297459E1,6.191285E-1,-1.4500866E0,6.3551836E0],"split_indices":[101,12,2,24,12,0,1,0,0,0,0,0,0],"split_type":[0,0,0,0,0,0,0,0,0,0,0,0,0],"sum_hessian":[1.359E3,1.353E3,6E0,1.154E3,1.99E2,2E0,4E0,1.096E3,5.8E1,1E1,1.89E2,1E0,3E0],"tree_param":{"num_deleted":"0","num_feature":"117","num_nodes":"13","size_leaf_vector":"1"}},{"base_weights":[1.8005608E-1,1.0849009E0,-1.1356249E1,8.421519E-1,1.0267785E2,-8.212269E0,-5.1503952E1,-5.404715E-3,7.556195E0,4.9632717E1,-3.4276845E0,-3.9692206E0,2.887181E0,-1.8344856E1,9.554213E-1],"categories":[],"categories_nodes":[],"categories_segments":[],"categories_sizes":[],"default_left":[0,0,0,0,0,0,0,0,0,0,0,0,0,0,0],"id":98,"left_children":[1,3,5,7,9,11,13,-1,-1,-1,-1,-1,-1,-1,-1],"loss_changes":[1.420877E4,3.103645E4,1.207317E4,2.6386014E4,2.3375234E4,