{"learner":{"attributes":{"scikit_learn":"{\"_estimator_type\": \"regressor\"}"},"feature_names":["0","1","2","3","5","6","7","8","9","10","11","12","13","14","15","16","17","18","19","20","21","22","23","24","25","26","27","28","29","30","31","32","33","34","35","36","37","38","39","40","41","42","43","44","45","46","47","48","49","50","51","52","53","54","55","56","57","58","59","60","61","62","63","64","65","66","67","68","69","70","71","72","73","74","75","76","77","78","79","80","81","82","83","84","85","86","87","88","89","90","91","92","93","94","95","96","97","98","99","100","101","102","103","104","105","106","107","108","109","110","111","112","113","114","115","116","117"],"feature_types":["float","float","float","float","float","float","float","float","float","float","float","float","float","float","float","float","float","float","float","float","float","float","float","float","float","float","float","float","float","float","float","float","float","float","float","float","float","float","float","float","float","float","float","float","float","float","float","float","float","float","float","float","float","float","float","float","float","float","float","float","float","float","float","float","float","float","float","float","float","float","float","float","float","float","float","float","float","float","float","float","float","float","float","float","float","float","float","float","float","float","float","float","float","float","float","float","float","float","float","float","float","float","float","float","float","float","float","float","float","float","float","float","float","float","float","float","float"],"gradient_booster":{"model":{"gbtree_model_param":{"num_parallel_tree":"1","num_trees":"100"},"iteration_indptr":[0,1,2,3,4,5,6,7,8,9,10,11,12,13,14,15,16,17,18,19,20,21,22,23,24,25,26,27,28,29,30,31,32,33,34,35,36,37,38,39,40,41,42,43,44,45,46,47,48,49,50,51,52,53,54,55,56,57,58,59,60,61,62,63,64,65,66,67,68,69,70,71,72,73,74,75,76,77,78,79,80,81,82,83,84,85,86,87,88,89,90,91,92,93,94,95,96,97,98,99,100],"tree_info":[0,0,0,0,0,0,0,0,0,0,0,0,0,0,0,0,0,0,0,0,0,0,0,0,0,0,0,0,0,0,0,0,0,0,0,0,0,0,0,0,0,0,0,0,0,0,0,0,0,0,0,0,0,0,0,0,0,0,0,0,0,0,0,0,0,0,0,0,0,0,0,0,0,0,0,0,0,0,0,0,0,0,0,0,0,0,0,0,0,0,0,0,0,0,0,0,0,0,0,0],"trees":[{"base_weights":[-1.520795E-8,5.5329573E-1,-4.0720877E-1,6.431763E-1,-2.943998E-1,-2.0988452E-1,-4.9129128E-1,2.0723137E-1,-7.6494165E-2,-1.1300794E-1,3.8550404E-1,-3.1672325E-2,-1.3240498E-1,-1.5399705E-1,-9.753881E-2],"categories":[],"categories_nodes":[],"categories_segments":[],"categories_sizes":[],"default_left":[0,0,0,0,0,0,0,0,0,0,0,0,0,0,0],"id":0,"left_children":[1,3,5,7,9,11,13,-1,-1,-1,-1,-1,-1,-1,-1],"loss_changes":[3.0664264E2,4.4151764E1,1.2904648E1,2.2490417E1,7.7626657E0,5.651431E0,1.8429413E0,0E0,0E0,0E0,0E0,0E0,0E0,0E0,0E0],"parents":[2147483647,0,0,1,1,2,2,3,3,4,4,5,5,6,6],"right_children":[2,4,6,8,10,12,14,-1,-1,-1,-1,-1,-1,-1,-1],"split_conditions":[1E0,1E0,2E0,1E0,2E0,1E0,1E0,2.0723137E-1,-7.6494165E-2,-1.1300794E-1,3.8550404E-1,-3.1672325E-2,-1.3240498E-1,-1.5399705E-1,-9.753881E-2],"split_indices":[1,2,1,53,18,2,40,0,0,0,0,0,0,0,0],"split_type":[0,0,0,0,0,0,0,0,0,0,0,0,0,0,0],"sum_hessian":[1.359E3,5.76E2,7.83E2,5.21E2,5.5E1,2.35E2,5.48E2,4.95E2,2.6E1,5.3E1,2E0,1.63E2,7.2E1,4.82E2,6.6E1],"tree_param":{"num_deleted":"0","num_feature":"117","num_nodes":"15","size_leaf_vector":"1"}},{"base_weights":[-9.1171005E-6,3.8800585E-1,-2.8557625E-1,4.6175227E-1,-1.9999285E-1,-1.4761443E-1,-3.4436208E-1,1.5660681E-1,-6.796988E-2,-8.071793E-2,6.3304335E-1,-7.866196E-2,-6.8042176E-3,-1.0429325E-1,1.1065763E-1],"categories":[],"categories_nodes":[],"categories_segments":[],"categories_sizes":[],"default_left":[0,0,0,0,0,0,0,0,0,0,0,0,0,0,0],"id":1,"left_children":[1,3,5,7,9,11,13,-1,-1,-1,-1,-1,-1,-1,-1],"loss_changes":[1.5080469E2,2.5112679E1,6.307564E0,2.1400192E1,1.0938766E1,3.372727E0,1.4133606E0,0E0,0E0,0E0,0E0,0E0,0E0,0E0,0E0],"parents":[2147483647,0,0,1,1,2,2,3,3,4,4,5,5,6,6],"right_children":[2,4,6,8,10,12,14,-1,-1,-1,-1,-1,-1,-1,-1],"split_conditions":[1E0,1E0,2E0,1E0,1E0,2E0,2E0,1.5660681E-1,-6.796988E-2,-8.071793E-2,6.3304335E-1,-7.866196E-2,-6.8042176E-3,-1.0429325E-1,1.1065763E-1],"split_indices":[1,10,1,40,107,0,107,0,0,0,0,0,0,0,0],"split_type":[0,0,0,0,0,0,0,0,0,0,0,0,0,0,0],"sum_hessian":[1.359E3,5.76E2,7.83E2,5.12E2,6.4E1,2.35E2,5.48E2,4.71E2,4.1E1,6.3E1,1E0,1.22E2,1.13E2,5.46E2,2E0],"tree_param":{"num_deleted":"0","num_feature":"117","num_nodes":"15","size_leaf_vector":"1"}},{"base_weights":[4.0676704E-4,2.7271497E-1,-2.0000426E-1,3.2574505E-1,-3.46518E-1,-1.2611341E-1,-2.7026382E-1,-1.5737217E-2,1.21482894E-1,-1.3000359E-1,3.1273642E-1,-2.3684828E-2,-8.515765E-2,-8.215117E-2,8.852611E-2],"categories":[],"categories_nodes":[],"categories_segments":[],"categories_sizes":[],"default_left":[0,0,0,0,0,0,0,0,0,0,0,0,0,0,0],"id":2,"left_children":[1,3,5,7,9,11,13,-1,-1,-1,-1,-1,-1,-1,-1],"loss_changes":[7.4274605E1,1.906039E1,4.036083E0,1.5956146E1,5.999377E0,2.8345122E0,8.909149E-1,0E0,0E0,0E0,0E0,0E0,0E0,0E0,0E0],"parents":[2147483647,0,0,1,1,2,2,3,3,4,4,5,5,6,6],"right_children":[2,4,6,8,10,12,14,-1,-1,-1,-1,-1,-1,-1,-1],"split_conditions":[1E0,1E0,1E0,1E0,2E0,1E0,2E0,-1.5737217E-2,1.21482894E-1,-1.3000359E-1,3.1273642E-1,-2.3684828E-2,-8.515765E-2,-8.215117E-2,8.852611E-2],"split_indices":[1,27,2,0,3,27,107,0,0,0,0,0,0,0,0],"split_type":[0,0,0,0,0,0,0,0,0,0,0,0,0,0,0],"sum_hessian":[1.359E3,5.76E2,7.83E2,5.31E2,4.5E1,3.83E2,4E2,9.2E1,4.39E2,4.3E1,2E0,2.96E2,8.7E1,3.98E2,2E0],"tree_param":{"num_deleted":"0","num_feature":"117","num_nodes":"15","size_leaf_vector":"1"}},{"base_weights":[4.2152056E-4,1.9140047E-1,-1.4013368E-1,2.4631642E-1,-3.2391253E-1,-8.451724E-2,-1.9667901E-1,9.440977E-2,-3.574875E-2,-1.1481642E-1,2.5278533E-1,-1.2768178E-2,-6.579232E-2,-6.260274E-2,1.0348716E-2],"categories":[],"categories_nodes":[],"categories_segments":[],"categories_sizes":[],"default_left":[0,0,0,0,0,0,0,0,0,0,0,0,0,0,0],"id":3,"left_children":[1,3,5,7,9,11,13,-1,-1,-1,-1,-1,-1,-1,-1],"loss_changes":[3.6533417E1,1.6408253E1,2.4489403E0,1.3083569E1,4.1642175E0,2.2358427E0,1.0832605E0,0E0,0E0,0E0,0E0,0E0,0E0,0E0,0E0],"parents":[2147483647,0,0,1,1,2,2,3,3,4,4,5,5,6,6],"right_children":[2,4,6,8,10,12,14,-1,-1,-1,-1,-1,-1,-1,-1],"split_conditions":[1E0,1E0,3E0,1E0,2E0,1E0,1E0,9.440977E-2,-3.574875E-2,-1.1481642E-1,2.5278533E-1,-1.2768178E-2,-6.579232E-2,-6.260274E-2,1.0348716E-2],"split_indices":[1,2,1,5,18,11,92,0,0,0,0,0,0,0,0],"split_type":[0,0,0,0,0,0,0,0,0,0,0,0,0,0,0],"sum_hessian":[1.359E3,5.76E2,7.83E2,5.21E2,5.5E1,3.96E2,3.87E2,4.39E2,8.2E1,5.3E1,2E0,3.03E2,9.3E1,3.68E2,1.9E1],"tree_param":{"num_deleted":"0","num_feature":"117","num_nodes":"15","size_leaf_vector":"1"}},{"base_weights":[3.4344496E-4,1.3432108E-1,-9.8260425E-2,1.6311538E-1,-5.3594416E-1,-6.648407E-2,-1.870966E-1,5.6955386E-2,-1.6806772E-1,-2.0670874E-1,4.4775146E-1,-5.9451913E-3,-4.433416E-2,-5.754531E-2,1.17109485E-1],"categories":[],"categories_nodes":[],"categories_segments":[],"categories_sizes":[],"default_left":[0,0,0,0,0,0,0,0,0,0,0,0,0,0,0],"id":4,"left_children":[1,3,5,7,9,11,13,-1,-1,-1,-1,-1,-1,-1,-1],"loss_changes":[1.7979769E1,1.1223418E1,2.200708E0,1.0820262E1,8.48098E0,2.193706E0,6.364875E-1,0E0,0E0,0E0,0E0,0E0,0E0,0E0,0E0],"parents":[2147483647,0,0,1,1,2,2,3,3,4,4,5,5,6,6],"right_children":[2,4,6,8,10,12,14,-1,-1,-1,-1,-1,-1,-1,-1],"split_conditions":[1E0,1E0,1E0,1E0,1E0,1E0,4E0,5.6955386E-2,-1.6806772E-1,-2.0670874E-1,4.4775146E-1,-5.9451913E-3,-4.433416E-2,-5.754531E-2,1.17109485E-1],"split_indices":[1,69,15,98,61,4,41,0,0,0,0,0,0,0,0],"split_type":[0,0,0,0,0,0,0,0,0,0,0,0,0,0,0],"sum_hessian":[1.359E3,5.76E2,7.83E2,5.53E2,2.3E1,5.78E2,2.05E2,5.34E2,1.9E1,2.2E1,1E0,3.68E2,2.1E2,2.04E2,1E0],"tree_param":{"num_deleted":"0","num_feature":"117","num_nodes":"15","size_leaf_vector":"1"}},{"base_weights":[3.4278742E-4,6.324234E-2,-1.244915E-1,1.1041458E-1,-1.5217006E-1,-2.4794537E-1,-1.06940605E-1,-4.1696653E-2,4.9806178E-2,-5.6805596E-2,5.6819504E-1,-8.920543E-2,2.172036E-1,-3.4329683E-2,2.804219E-2],"categories":[],"categories_nodes":[],"categories_segments":[],"categories_sizes":[],"default_left":[0,0,0,0,0,0,0,0,0,0,0,0,0,0,0],"id":5,"left_children":[1,3,5,7,9,11,13,-1,-1,-1,-1,-1,-1,-1,-1],"loss_changes":[1.068662E1,9.212947E0,9.615116E-1,1.0327242E1,1.2759659E1,2.9044378E0,6.127739E-1,0E0,0E0,0E0,0E0,0E0,0E0,0E0,0E0],"parents":[2147483647,0,0,1,1,2,2,3,3,4,4,5,5,6,6],"right_children":[2,4,6,8,10,12,14,-1,-1,-1,-1,-1,-1,-1,-1],"split_conditions":[1E0,1E0,1E0,1E0,1E0,2E0,2E0,-4.1696653E-2,4.9806178E-2,-5.6805596E-2,5.6819504E-1,-8.920543E-2,2.172036E-1,-3.4329683E-2,2.804219E-2],"split_indices":[2,18,1,0,104,18,28,0,0,0,0,0,0,0,0],"split_type":[0,0,0,0,0,0,0,0,0,0,0,0,0,0,0],"sum_hessian":[1.359E3,9.04E2,4.55E2,7.42E2,1.62E2,5.5E1,4E2,1.35E2,6.07E2,1.6E2,2E0,5.3E1,2E0,3.86E2,1.4E1],"tree_param":{"num_deleted":"0","num_feature":"117","num_nodes":"15","size_leaf_vector":"1"}},{"base_weights":[7.1142416E-4,4.8919342E-2,-1.0729896E-1,9.175238E-2,-1.6887754E-1,-1.287267E-1,1.6969491E0,3.949691E-2,-7.180696E-2,-6.555406E-2,4.0917128E-1,-4.216151E-2,8.4193215E-2,7.7423733E-1,7.42373E-2],"categories":[],"categories_nodes":[],"categories_segments":[],"categories_sizes":[],"default_left":[0,0,0,0,0,0,0,0,0,0,0,0,0,0,0],"id":6,"left_children":[1,3,5,7,9,11,13,-1,-1,-1,-1,-1,-1,-1,-1],"loss_changes":[7.086709E0,8.793991E0,1.645605E1,1.0429802E1,1.2090605E1,2.0509462E0,5.7669687E0,0E0,0E0,0E0,0E0,0E0,0E0,0E0,0E0],"parents":[2147483647,0,0,1,1,2,2,3,3,4,4,5,5,6,6],"right_children":[2,4,6,8,10,12,14,-1,-1,-1,-1,-1,-1,-1,-1],"split_conditions":[1E0,1E0,2E0,1E0,2E0,3E0,2E0,3.949691E-2,-7.180696E-2,-6.555406E-2,4.0917128E-1,-4.216151E-2,8.4193215E-2,7.7423733E-1,7.42373E-2],"split_indices":[5,19,66,6,45,8,0,0,0,0,0,0,0,0,0],"split_type":[0,0,0,0,0,0,0,0,0,0,0,0,0,0,0],"sum_hessian":[1.359E3,9.4E2,4.19E2,7.86E2,1.54E2,4.15E2,4E0,7.02E2,8.4E1,1.5E2,4E0,4.04E2,1.1E1,2E0,2E0],"tree_param":{"num_deleted":"0","num_feature":"117","num_nodes":"15","size_leaf_vector":"1"}},{"base_weights":[1.3816857E-3,3.0481221E-2,-1.3734017E-1,4.715836E-2,-2.5139627E-1,-2.3302983E-1,-9.043115E-2,2.3544112E-2,-3.432949E-2,-9.1045745E-2,8.821061E-2,-1.4582768E-1,-3.883536E-2,-3.2854054E-2,4.621322E-2],"categories":[],"categories_nodes":[],"categories_segments":[],"categories_sizes":[],"default_left":[0,0,0,0,0,0,0,0,0,0,0,0,0,0,0],"id":7,"left_children":[1,3,5,7,9,11,13,-1,-1,-1,-1,-1,-1,-1,-1],"loss_changes":[5.4941545E0,5.30038E0,1.0382624E0,5.389167E0,1.8791463E0,1.9553876E0,7.63296E-1,0E0,0E0,0E0,0E0,0E0,0E0,0E0,0E0],"parents":[2147483647,0,0,1,1,2,2,3,3,4,4,5,5,6,6],"right_children":[2,4,6,8,10,12,14,-1,-1,-1,-1,-1,-1,-1,-1],"split_conditions":[1E0,1E0,2E0,1E0,1E0,1E0,1E0,2.3544112E-2,-3.432949E-2,-9.1045745E-2,8.821061E-2,-1.4582768E-1,-3.883536E-2,-3.2854054E-2,4.621322E-2],"split_indices":[27,69,0,15,61,1,74,0,0,0,0,0,0,0,0],"split_type":[0,0,0,0,0,0,0,0,0,0,0,0,0,0,0],"sum_hessian":[1.359E3,1.124E3,2.35E2,1.062E3,6.2E1,7.6E1,1.59E2,8.9E2,1.72E2,5.7E1,5E0,2.1E1,5.5E1,1.48E2,1.1E1],"tree_param":{"num_deleted":"0","num_feature":"117","num_nodes":"15","size_leaf_vector":"1"}},{"base_weights":[8.3122007E-4,1.0062899E-2,-3.489413E-1,3.851984E-2,-1.02422036E-1,-5.566121E-1,-2.4360849E-1,1.3636161E-3,6.1994627E-2,-4.4499442E-2,1.8897669E-1,-2.0237632E-1,-5.4452326E-2,-8.173481E-2,6.728578E-2],"categories":[],"categories_nodes":[],"categories_segments":[],"categories_sizes":[],"default_left":[0,0,0,0,0,0,0,0,0,0,0,0,0,0,0],"id":8,"left_children":[1,3,5,7,9,11,13,-1,-1,-1,-1,-1,-1,-1,-1],"loss_changes":[4.3949347E0,4.2484407E0,6.3001347E-1,6.048162E0,9.104004E0,3.6434197E-1,3.9846838E-1,0E0,0E0,0E0,0E0,0E0,0E0,0E0,0E0],"parents":[2147483647,0,0,1,1,2,2,3,3,4,4,5,5,6,6],"right_children":[2,4,6,8,10,12,14,-1,-1,-1,-1,-1,-1,-1,-1],"split_conditions":[2E0,1E0,1E0,1E0,1E0,2E0,1E0,1.3636161E-3,6.1994627E-2,-4.4499442E-2,1.8897669E-1,-2.0237632E-1,-5.4452326E-2,-8.173481E-2,6.728578E-2],"split_indices":[40,12,1,22,85,8,100,0,0,0,0,0,0,0,0],"split_type":[0,0,0,0,0,0,0,0,0,0,0,0,0,0,0],"sum_hessian":[1.359E3,1.325E3,3.4E1,1.058E3,2.67E2,1E1,2.4E1,8.81E2,1.77E2,2.52E2,1.5E1,7E0,3E0,2.3E1,1E0],"tree_param":{"num_deleted":"0","num_feature":"117","num_nodes":"15","size_leaf_vector":"1"}},{"base_weights":[5.351983E-4,3.147658E-2,-9.574927E-2,5.5222645E-2,-2.02816E-1,-1.1072547E-1,3.1159517E-1,2.1065526E-2,-1.0340143E-1,-1.813576E-1,-3.4141477E-2,-9.1661304E-2,-1.8534325E-2,4.8002803E-1,1.4698783E-2],"categories":[],"categories_nodes":[],"categories_segments":[],"categories_sizes":[],"default_left":[0,0,0,0,0,0,0,0,0,0,0,0,0,0,0],"id":9,"left_children":[1,3,5,7,9,11,13,-1,-1,-1,-1,-1,-1,-1,-1],"loss_changes":[4.054691E0,5.741633E0,2.0537574E0,5.63713E0,3.3280773E0,3.0323117E0,3.9819055E0,0E0,0E0,0E0,0E0,0E0,0E0,0E0,0E0],"parents":[2147483647,0,0,1,1,2,2,3,3,4,4,5,5,6,6],"right_children":[2,4,6,8,10,12,14,-1,-1,-1,-1,-1,-1,-1,-1],"split_conditions":[1E0,1E0,1E0,6E0,1E0,1E0,1E0,2.1065526E-2,-1.0340143E-1,-1.813576E-1,-3.4141477E-2,-9.1661304E-2,-1.8534325E-2,4.8002803E-1,1.4698783E-2],"split_indices":[10,13,107,0,1,1,1,0,0,0,0,0,0,0,0],"split_type":[0,0,0,0,0,0,0,0,0,0,0,0,0,0,0],"sum_hessian":[1.359E3,1.029E3,3.3E2,9.35E2,9.4E1,3.19E2,1.1E1,9.02E2,3.3E1,1.6E1,7.8E1,6.3E1,2.56E2,1E0,1E1],"tree_param":{"num_deleted":"0","num_feature":"117","num_nodes":"15","size_leaf_vector":"1"}},{"base_weights":[4.383931E-4,-6.739731E-2,4.3302875E-2,-9.8748714E-2,4.7438705E-1,9.401123E-2,-8.71203E-2,-3.45591E-2,8.433932E-2,5.0952774E-2,3.1081122E-1,2.0552007E-2,1.6361193E-1,-3.2868925E-2,6.765304E-2],"categories":[],"categories_nodes":[],"categories_segments":[],"categories_sizes":[],"default_left":[0,0,0,0,0,0,0,0,0,0,0,0,0,0,0],"id":10,"left_children":[1,3,5,7,9,11,13,-1,-1,-1,-1,-1,-1,-1,-1],"loss_changes":[3.9574485E0,8.998309E0,5.5238867E0,3.1503215E0,4.7844133E0,6.8812175E0,1.6665201E0,0E0,0E0,0E0,0E0,0E0,0E0,0E0,0E0],"parents":[2147483647,0,0,1,1,2,2,3,3,4,4,5,5,6,6],"right_children":[2,4,6,8,10,12,14,-1,-1,-1,-1,-1,-1,-1,-1],"split_conditions":[2E0,1E0,1E0,1E0,1E0,1E0,1E0,-3.45591E-2,8.433932E-2,5.0952774E-2,3.1081122E-1,2.0552007E-2,1.6361193E-1,-3.2868925E-2,6.765304E-2],"split_indices":[0,66,8,110,4,85,64,0,0,0,0,0,0,0,0],"split_type":[0,0,0,0,0,0,0,0,0,0,0,0,0,0,0],"sum_hessian":[1.359E3,5.26E2,8.33E2,4.98E2,2.8E1,6E2,2.33E2,4.78E2,2E1,1.9E1,9E0,5.69E2,3.1E1,2.18E2,1.5E1],"tree_param":{"num_deleted":"0","num_feature":"117","num_nodes":"15","size_leaf_vector":"1"}},{"base_weights":[7.704777E-4,1.8123629E-2,-1.3726063E-1,2.7016355E-2,-2.8093573E-1,-3.1779125E-1,-5.8366533E-2,1.853588E-2,-1.6635837E-2,-4.3398052E-2,-1.821476E-1,-1.0899866E-1,7.5355746E-2,-2.0149497E-2,1.3114041E-1],"categories":[],"categories_nodes":[],"categories_segments":[],"categories_sizes":[],"default_left":[0,0,0,0,0,0,0,0,0,0,0,0,0,0,0],"id":11,"left_children":[1,3,5,7,9,11,13,-1,-1,-1,-1,-1,-1,-1,-1],"loss_changes":[3.2600613E0,3.222869E0,2.1463575E0,3.3726735E0,1.4681358E0,1.2831163E0,4.95842E-1,0E0,0E0,0E0,0E0,0E0,0E0,0E0,0E0],"parents":[2147483647,0,0,1,1,2,2,3,3,4,4,5,5,6,6],"right_children":[2,4,6,8,10,12,14,-1,-1,-1,-1,-1,-1,-1,-1],"split_conditions":[1E0,2E0,2E0,1E0,4E0,1E0,2E0,1.853588E-2,-1.6635837E-2,-4.3398052E-2,-1.821476E-1,-1.0899866E-1,7.5355746E-2,-2.0149497E-2,1.3114041E-1],"split_indices":[44,25,1,5,0,75,63,0,0,0,0,0,0,0,0],"split_type":[0,0,0,0,0,0,0,0,0,0,0,0,0,0,0],"sum_hessian":[1.359E3,1.208E3,1.51E2,1.174E3,3.4E1,4.5E1,1.06E2,8.26E2,3.48E2,2.5E1,9E0,4.2E1,3E0,1.05E2,1E0],"tree_param":{"num_deleted":"0","num_feature":"117","num_nodes":"15","size_leaf_vector":"1"}},{"base_weights":[4.3177165E-4,1.442351E-2,-1.4560327E-1,-4.626277E-2,5.442965E-2,-4.1611025E-1,-4.558252E-2,-1.8091593E-2,2.8179353E-1,4.080849E-2,-1.2301412E-2,-1.4685157E-1,1.3696294E-1,-2.3662563E-2,8.916112E-2],"categories":[],"categories_nodes":[],"categories_segments":[],"categories_sizes":[],"default_left":[0,0,0,0,0,0,0,0,0,0,0,0,0,0,0],"id":12,"left_children":[1,3,5,7,9,11,13,-1,-1,-1,-1,-1,-1,-1,-1],"loss_changes":[2.7809665E0,3.0178752E0,3.2007337E0,6.89359E0,5.8382773E0,2.2730284E0,1.0277222E0,0E0,0E0,0E0,0E0,0E0,0E0,0E0,0E0],"parents":[2147483647,0,0,1,1,2,2,3,3,4,4,5,5,6,6],"right_children":[2,4,6,8,10,12,14,-1,-1,-1,-1,-1,-1,-1,-1],"split_conditions":[1E0,2E0,1E0,2E0,2E0,5E0,1E0,-1.8091593E-2,2.8179353E-1,4.080849E-2,-1.2301412E-2,-1.4685157E-1,1.3696294E-1,-2.3662563E-2,8.916112E-2],"split_indices":[53,0,1,66,1,0,42,0,0,0,0,0,0,0,0],"split_type":[0,0,0,0,0,0,0,0,0,0,0,0,0,0,0],"sum_hessian":[1.359E3,1.241E3,1.18E2,4.93E2,7.48E2,3.1E1,8.7E1,4.87E2,6E0,4.03E2,3.45E2,2.9E1,2E0,8E1,7E0],"tree_param":{"num_deleted":"0","num_feature":"117","num_nodes":"15","size_leaf_vector":"1"}},{"base_weights":[5.579958E-4,6.83946E-3,-2.3743571E-1,2.3955265E-2,-6.9927014E-2,-3.8856044E-1,-1.6144341E-1,1.1390546E-2,-3.777821E-2,-9.1795534E-2,-1.5558308E-2,-1.4767718E-1,-2.5207995E-2,-5.3955123E-2,4.2048633E-2],"categories":[],"categories_nodes":[],"categories_segments":[],"categories_sizes":[],"default_left":[0,0,0,0,0,0,0,0,0,0,0,0,0,0,0],"id":13,"left_children":[1,3,5,7,9,11,13,-1,-1,-1,-1,-1,-1,-1,-1],"loss_changes":[2.0347548E0,1.743933E0,3.392203E-1,2.2836485E0,1.0161704E0,3.0600846E-1,1.639995E-1,0E0,0E0,0E0,0E0,0E0,0E0,0E0,0E0],"parents":[2147483647,0,0,1,1,2,2,3,3,4,4,5,5,6,6],"right_children":[2,4,6,8,10,12,14,-1,-1,-1,-1,-1,-1,-1,-1],"split_conditions":[2E0,1E0,1E0,1E0,1E0,1E0,1E0,1.1390546E-2,-3.777821E-2,-9.1795534E-2,-1.5558308E-2,-1.4767718E-1,-2.5207995E-2,-5.3955123E-2,4.2048633E-2],"split_indices":[40,20,1,50,1,26,100,0,0,0,0,0,0,0,0],"split_type":[0,0,0,0,0,0,0,0,0,0,0,0,0,0,0],"sum_hessian":[1.359E3,1.325E3,3.4E1,1.084E3,2.41E2,1E1,2.4E1,9.92E2,9.2E1,1.6E1,2.25E2,7E0,3E0,2.3E1,1E0],"tree_param":{"num_deleted":"0","num_feature":"117","num_nodes":"15","size_leaf_vector":"1"}},{"base_weights":[1.5637484E-4,3.130601E-3,-4.0167722E-1,-1.421391E-2,7.919903E-2,-5.133854E-1,3.0103743E-2,2.631002E-3,-3.2045797E-2,-2.766526E-3,1.931409E-1,-1.6494034E-1,-3.877137E-2,1.2256467E-4,1.342412E-2],"categories":[],"categories_nodes":[],"categories_segments":[],"categories_sizes":[],"default_left":[0,0,0,0,0,0,0,0,0,0,0,0,0,0,0],"id":14,"left_children":[1,3,5,7,9,11,13,-1,-1,-1,-1,-1,-1,-1,-1],"loss_changes":[1.6266533E0,1.7835944E0,4.9778974E-1,2.344344E0,1.2536539E1,4.08566E-2,1.286228E-3,0E0,0E0,0E0,0E0,0E0,0E0,0E0,0E0],"parents":[2147483647,0,0,1,1,2,2,3,3,4,4,5,5,6,6],"right_children":[2,4,6,8,10,12,14,-1,-1,-1,-1,-1,-1,-1,-1],"split_conditions":[3E0,1E0,2E0,1E0,1E0,1E0,1E0,2.631002E-3,-3.2045797E-2,-2.766526E-3,1.931409E-1,-1.6494034E-1,-3.877137E-2,1.2256467E-4,1.342412E-2],"split_indices":[12,22,10,25,45,4,0,0,0,0,0,0,0,0,0],"split_type":[0,0,0,0,0,0,0,0,0,0,0,0,0,0,0],"sum_hessian":[1.359E3,1.35E3,9E0,1.1E3,2.5E2,7E0,2E0,8.82E2,2.18E2,2.17E2,3.3E1,6E0,1E0,1E0,1E0],"tree_param":{"num_deleted":"0","num_feature":"117","num_nodes":"15","size_leaf_vector":"1"}},{"base_weights":[8.799591E-5,7.877616E-3,-1.8143955E-1,1.6857112E-2,-1.7552155E-1,-4.3327713E-1,2.0978564E-2,2.3563933E-3,6.0288556E-2,-6.502333E-2,3.260178E-3,-1.6267487E-1,3.273092E-1,-1.3423748E-2,1.4767073E-1],"categories":[],"categories_nodes":[],"categories_segments":[],"categories_sizes":[],"default_left":[0,0,0,0,0,0,0,0,0,0,0,0,0,0,0],"id":15,"left_children":[1,3,5,7,9,11,13,-1,-1,-1,-1,-1,-1,-1,-1],"loss_changes":[1.9245108E0,2.1520748E0,2.8637729E0,2.0618806E0,4.71048E-1,4.744299E0,1.0131645E0,0E0,0E0,0E0,0E0,0E0,0E0,0E0,0E0],"parents":[2147483647,0,0,1,1,2,2,3,3,4,4,5,5,6,6],"right_children":[2,4,6,8,10,12,14,-1,-1,-1,-1,-1,-1,-1,-1],"split_conditions":[6E0,1E0,2E0,1E0,1E0,2E0,1E0,2.3563933E-3,6.0288556E-2,-6.502333E-2,3.260178E-3,-1.6267487E-1,3.273092E-1,-1.3423748E-2,1.4767073E-1],"split_indices":[0,97,1,77,15,18,34,0,0,0,0,0,0,0,0],"split_type":[0,0,0,0,0,0,0,0,0,0,0,0,0,0,0],"sum_hessian":[1.359E3,1.304E3,5.5E1,1.244E3,6E1,2.4E1,3.1E1,1.187E3,5.7E1,4.9E1,1.1E1,2.3E1,1E0,2.8E1,3E0],"tree_param":{"num_deleted":"0","num_feature":"117","num_nodes":"15","size_leaf_vector":"1"}},{"base_weights":[2.8200613E-4,1.5382714E-2,-7.170349E-2,2.5883362E-2,-1.508198E-1,-1.2066193E-1,-2.001665E-2,-2.7938902E-2,1.415051E-2,-7.000898E-2,5.3500492E-2,-3.8707916E-2,1.3246098E-1,-8.449466E-3,1.3755462E-1],"categories":[],"categories_nodes":[],"categories_segments":[],"categories_sizes":[],"default_left":[0,0,0,0,0,0,0,0,0,0,0,0,0,0,0],"id":16,"left_children":[1,3,5,7,9,11,13,-1,-1,-1,-1,-1,-1,-1,-1],"loss_changes":[1.4794666E0,1.967292E0,5.947845E-1,2.6870437E0,1.8619784E0,6.259707E-1,4.6522036E-1,0E0,0E0,0E0,0E0,0E0,0E0,0E0,0E0],"parents":[2147483647,0,0,1,1,2,2,3,3,4,4,5,5,6,6],"right_children":[2,4,6,8,10,12,14,-1,-1,-1,-1,-1,-1,-1,-1],"split_conditions":[1E0,1E0,3E0,1E0,1E0,2E0,4E0,-2.7938902E-2,1.415051E-2,-7.000898E-2,5.3500492E-2,-3.8707916E-2,1.3246098E-1,-8.449466E-3,1.3755462E-1],"split_indices":[27,74,1,0,16,99,26,0,0,0,0,0,0,0,0],"split_type":[0,0,0,0,0,0,0,0,0,0,0,0,0,0,0],"sum_hessian":[1.359E3,1.124E3,2.35E2,1.058E3,6.6E1,1.2E2,1.15E2,1.6E2,8.98E2,5.3E1,1.3E1,1.19E2,1E0,1.14E2,1E0],"tree_param":{"num_deleted":"0","num_feature":"117","num_nodes":"15","size_leaf_vector":"1"}},{"base_weights":[3.3900025E-4,6.1320276E-3,-1.7306454E-1,1.8726405E-2,-9.124394E-2,-2.0989373E-1,2.115886E-1,9.76286E-3,-4.7938403E-2,-5.0259184E-2,1.5597877E-1,-1.07912704E-1,1.9620398E-2],"categories":[],"categories_nodes":[],"categories_segments":[],"categories_sizes":[],"default_left":[0,0,0,0,0,0,0,0,0,0,0,0,0],"id":17,"left_children":[1,3,5,7,9,11,-1,-1,-1,-1,-1,-1,-1],"loss_changes":[1.3672241E0,1.6168638E0,1.5714055E0,2.8836403E0,7.127383E0,1.7969918E0,0E0,0E0,0E0,0E0,0E0,0E0,0E0],"parents":[2147483647,0,0,1,1,2,2,3,3,4,4,5,5],"right_children":[2,4,6,8,10,12,-1,-1,-1,-1,-1,-1,-1],"split_conditions":[1E0,1E0,2E0,1E0,1E0,1E0,2.115886E-1,9.76286E-3,-4.7938403E-2,-5.0259184E-2,1.5597877E-1,-1.07912704E-1,1.9620398E-2],"split_indices":[106,42,107,55,55,3,0,0,0,0,0,0,0],"split_type":[0,0,0,0,0,0,0,0,0,0,0,0,0],"sum_hessian":[1.359E3,1.316E3,4.3E1,1.166E3,1.5E2,4.2E1,1E0,1.083E3,8.3E1,1.34E2,1.6E1,2.7E1,1.5E1],"tree_param":{"num_deleted":"0","num_feature":"117","num_nodes":"13","size_leaf_vector":"1"}},{"base_weights":[3.7761562E-4,9.729119E-3,-9.722697E-2,1.6806617E-2,-1.5255989E-1,-2.9039347E-1,-2.5879754E-2,7.2759846E-3,-4.9489316E-2,-1.548568E-1,-1.6107367E-2,-1.3150427E-1,2.368208E-2,-1.5506864E-2,7.16038E-2],"categories":[],"categories_nodes":[],"categories_segments":[],"categories_sizes":[],"default_left":[0,0,0,0,0,0,0,0,0,0,0,0,0,0,0],"id":18,"left_children":[1,3,5,7,9,11,13,-1,-1,-1,-1,-1,-1,-1,-1],"loss_changes":[1.2422854E0,1.4291253E0,1.6325296E0,1.6161237E0,1.8417665E0,1.7832248E0,6.1322004E-1,0E0,0E0,0E0,0E0,0E0,0E0,0E0,0E0],"parents":[2147483647,0,0,1,1,2,2,3,3,4,4,5,5,6,6],"right_children":[2,4,6,8,10,12,14,-1,-1,-1,-1,-1,-1,-1,-1],"split_conditions":[1E0,1E0,1E0,1E0,1E0,1E0,1E0,7.2759846E-3,-4.9489316E-2,-1.548568E-1,-1.6107367E-2,-1.3150427E-1,2.368208E-2,-1.5506864E-2,7.16038E-2],"split_indices":[53,91,1,94,1,5,42,0,0,0,0,0,0,0,0],"split_type":[0,0,0,0,0,0,0,0,0,0,0,0,0,0,0],"sum_hessian":[1.359E3,1.241E3,1.18E2,1.19E3,5.1E1,3.1E1,8.7E1,1.144E3,4.6E1,1E1,4.1E1,2.2E1,9E0,8E1,7E0],"tree_param":{"num_deleted":"0","num_feature":"117","num_nodes":"15","size_leaf_vector":"1"}},{"base_weights":[6.955963E-5,-2.0540324E-3,4.10823E-1,6.130501E-3,-1.1571553E-1,6.330851E-1,-2.8966462E-2,-1.0489917E-2,9.528609E-3,-5.4320022E-2,2.520813E-1,2.3295811E-1,8.897628E-3],"categories":[],"categories_nodes":[],"categories_segments":[],"categories_sizes":[],"default_left":[0,0,0,0,0,0,0,0,0,0,0,0,0],"id":19,"left_children":[1,3,5,7,9,11,-1,-1,-1,-1,-1,-1,-1],"loss_changes":[1.1871347E0,1.26029E0,8.505237E-1,1.3325781E0,5.837358E0,4.0975213E-1,0E0,0E0,0E0,0E0,0E0,0E0,0E0],"parents":[2147483647,0,0,1,1,2,2,3,3,4,4,5,5],"right_children":[2,4,6,8,10,12,-1,-1,-1,-1,-1,-1,-1],"split_conditions":[2E0,1E0,2E0,2E0,1E0,1E0,-2.8966462E-2,-1.0489917E-2,9.528609E-3,-5.4320022E-2,2.520813E-1,2.3295811E-1,8.897628E-3],"split_indices":[54,54,1,0,77,4,0,0,0,0,0,0,0],"split_type":[0,0,0,0,0,0,0,0,0,0,0,0,0],"sum_hessian":[1.359E3,1.353E3,6E0,1.263E3,9E1,4E0,2E0,4.85E2,7.78E2,8.5E1,5E0,3E0,1E0],"tree_param":{"num_deleted":"0","num_feature":"117","num_nodes":"13","size_leaf_vector":"1"}},{"base_weights":[3.4993E-4,1.3058158E-2,-6.347391E-2,2.1566981E-2,-1.6105722E-1,-1.9533645E-1,-2.0939533E-2,8.970127E-4,3.282691E-2,-6.623627E-2,-2.7394742E-3,-6.932583E-2,6.251317E-2,-7.7226954E-3,1.2005044E-1],"categories":[],"categories_nodes":[],"categories_segments":[],"categories_sizes":[],"default_left":[0,0,0,0,0,0,0,0,0,0,0,0,0,0,0],"id":20,"left_children":[1,3,5,7,9,11,13,-1,-1,-1,-1,-1,-1,-1,-1],"loss_changes":[1.1039084E0,1.6849955E0,1.2634737E0,1.7672335E0,4.7893596E-1,8.4194756E-1,3.5816926E-1,0E0,0E0,0E0,0E0,0E0,0E0,0E0,0E0],"parents":[2147483647,0,0,1,1,2,2,3,3,4,4,5,5,6,6],"right_children":[2,4,6,8,10,12,14,-1,-1,-1,-1,-1,-1,-1,-1],"split_conditions":[1E0,1E0,2E0,1E0,1E0,3E0,4E0,8.970127E-4,3.282691E-2,-6.623627E-2,-2.7394742E-3,-6.932583E-2,6.251317E-2,-7.7226954E-3,1.2005044E-1],"split_indices":[15,97,1,22,27,15,9,0,0,0,0,0,0,0,0],"split_type":[0,0,0,0,0,0,0,0,0,0,0,0,0,0,0],"sum_hessian":[1.359E3,1.134E3,2.25E2,1.082E3,5.2E1,5.4E1,1.71E2,8.94E2,1.88E2,3.7E1,1.5E1,5E1,4E0,1.7E2,1E0],"tree_param":{"num_deleted":"0","num_feature":"117","num_nodes":"15","size_leaf_vector":"1"}},{"base_weights":[2.9660694E-4,1.0870531E-2,-8.3190955E-2,2.8115977E-2,-9.5319614E-2,-1.523767E-1,1.6344084E-1,6.820172E-3,1.4618568E-1,-7.561363E-2,-9.319313E-3,-5.561882E-2,1.5176713E-1,9.972631E-2,-5.2217394E-2],"categories":[],"categories_nodes":[],"categories_segments":[],"categories_sizes":[],"default_left":[0,0,0,0,0,0,0,0,0,0,0,0,0,0,0],"id":21,"left_children":[1,3,5,7,9,11,13,-1,-1,-1,-1,-1,-1,-1,-1],"loss_changes":[1.2015002E0,2.2148862E0,2.6356058E0,2.559057E0,1.6940771E0,2.702057E0,1.9969015E0,0E0,0E0,0E0,0E0,0E0,0E0,0E0,0E0],"parents":[2147483647,0,0,1,1,2,2,3,3,4,4,5,5,6,6],"right_children":[2,4,6,8,10,12,14,-1,-1,-1,-1,-1,-1,-1,-1],"split_conditions":[1E0,1E0,1E0,2E0,2E0,3E0,1E0,6.820172E-3,1.4618568E-1,-7.561363E-2,-9.319313E-3,-5.561882E-2,1.5176713E-1,9.972631E-2,-5.2217394E-2],"split_indices":[40,31,36,45,1,8,4,0,0,0,0,0,0,0,0],"split_type":[0,0,0,0,0,0,0,0,0,0,0,0,0,0,0],"sum_hessian":[1.359E3,1.207E3,1.52E2,1.039E3,1.68E2,1.19E2,3.3E1,1.028E3,1.1E1,4.8E1,1.2E2,1.14E2,5E0,2.2E1,1.1E1],"tree_param":{"num_deleted":"0","num_feature":"117","num_nodes":"15","size_leaf_vector":"1"}},{"base_weights":[3.633011E-4,2.7626299E-3,-3.2382235E-1,-1.0091601E-2,6.512986E-2,-4.244001E-1,1.5697712E-2,2.5529333E-3,-2.6154391E-2,1.446813E-1,-1.321306E-2,-1.4661786E-1,-4.628435E-2],"categories":[],"categories_nodes":[],"categories_segments":[],"categories_sizes":[],"default_left":[0,0,0,0,0,0,0,0,0,0,0,0,0],"id":22,"left_children":[1,3,5,7,9,11,-1,-1,-1,-1,-1,-1,-1],"loss_changes":[1.0587407E0,1.0837306E0,4.005282E-1,1.6082275E0,1.0541144E1,6.3604355E-2,0E0,0E0,0E0,0E0,0E0,0E0,0E0],"parents":[2147483647,0,0,1,1,2,2,3,3,4,4,5,5],"right_children":[2,4,6,8,10,12,-1,-1,-1,-1,-1,-1,-1],"split_conditions":[3E0,1E0,2E0,1E0,1E0,2E0,1.5697712E-2,2.5529333E-3,-2.6154391E-2,1.446813E-1,-1.321306E-2,-1.4661786E-1,-4.628435E-2],"split_indices":[12,24,10,11,1,8,0,0,0,0,0,0,0],"split_type":[0,0,0,0,0,0,0,0,0,0,0,0,0],"sum_hessian":[1.359E3,1.35E3,9E0,1.12E3,2.3E2,7E0,2E0,9.03E2,2.17E2,4.7E1,1.83E2,5E0,2E0],"tree_param":{"num_deleted":"0","num_feature":"117","num_nodes":"13","size_leaf_vector":"1"}},{"base_weights":[2.0331405E-4,1.4750281E-3,-5.75527E-1,-3.3819817E-3,1.4326695E-1,-2.4001317E-1,-1.897399E-2,4.0120548E-3,-2.1309897E-2,-2.4466923E-2,1.5053241E0],"categories":[],"categories_nodes":[],"categories_segments":[],"categories_sizes":[],"default_left":[0,0,0,0,0,0,0,0,0,0,0],"id":23,"left_children":[1,3,5,7,9,-1,-1,-1,-1,-1,-1],"loss_changes":[9.965924E-1,9.357184E-1,2.9444665E-1,1.4904033E0,4.9724586E1,0E0,0E0,0E0,0E0,0E0,0E0],"parents":[2147483647,0,0,1,1,2,2,3,3,4,4],"right_children":[2,4,6,8,10,-1,-1,-1,-1,-1,-1],"split_conditions":[5E0,1E0,3E0,1E0,1E0,-2.4001317E-1,-1.897399E-2,4.0120548E-3,-2.1309897E-2,-2.4466923E-2,1.5053241E0],"split_indices":[4,114,0,12,85,0,0,0,0,0,0],"split_type":[0,0,0,0,0,0,0,0,0,0,0],"sum_hessian":[1.359E3,1.357E3,2E0,1.313E3,4.4E1,1E0,1E0,1.053E3,2.6E2,4.3E1,1E0],"tree_param":{"num_deleted":"0","num_feature":"117","num_nodes":"11","size_leaf_vector":"1"}},{"base_weights":[1.0280218E-3,6.111942E-3,-1.17463835E-1,1.6482204E-2,-7.266039E-2,-2.5627986E-1,1.4521903E-1,-4.351312E-4,2.8308922E-2,-4.3958217E-2,9.3588615E-3,-1.8153742E-1,-1.2632617E-2,1.7441507E-2,2.699628E-1],"categories":[],"categories_nodes":[],"categories_segments":[],"categories_sizes":[],"default_left":[0,0,0,0,0,0,0,0,0,0,0,0,0,0,0],"id":24,"left_children":[1,3,5,7,9,11,13,-1,-1,-1,-1,-1,-1,-1,-1],"loss_changes":[8.199862E-1,1.0672387E0,2.0792341E0,1.6118244E0,1.17065E0,2.7388809E0,1.2620032E0,0E0,0E0,0E0,0E0,0E0,0E0,0E0,0E0],"parents":[2147483647,0,0,1,1,2,2,3,3,4,4,5,5,6,6],"right_children":[2,4,6,8,10,12,14,-1,-1,-1,-1,-1,-1,-1,-1],"split_conditions":[6E0,1E0,1E0,1E0,1E0,1E0,2E0,-4.351312E-4,2.8308922E-2,-4.3958217E-2,9.3588615E-3,-1.8153742E-1,-1.2632617E-2,1.7441507E-2,2.699628E-1],"split_indices":[0,13,2,22,10,1,18,0,0,0,0,0,0,0,0],"split_type":[0,0,0,0,0,0,0,0,0,0,0,0,0,0,0],"sum_hessian":[1.359E3,1.304E3,5.5E1,1.153E3,1.51E2,3.6E1,1.9E1,9.38E2,2.15E2,8.8E1,6.3E1,1.3E1,2.3E1,1.8E1,1E0],"tree_param":{"num_deleted":"0","num_feature":"117","num_nodes":"15","size_leaf_vector":"1"}},{"base_weights":[7.832233E-4,-3.7691654E-3,1.338979E-1,1.1496808E-2,-6.733268E-2,-5.693636E-2,1.2795908E0,5.8802147E-3,-6.22194E-2,-2.570382E-2,2.6014182E-1,-2.8947873E-2,1.5475023E-1],"categories":[],"categories_nodes":[],"categories_segments":[],"categories_sizes":[],"default_left":[0,0,0,0,0,0,0,0,0,0,0,0,0],"id":25,"left_children":[1,3,5,7,9,11,-1,-1,-1,-1,-1,-1,-1],"loss_changes":[8.2465076E-1,1.2777663E0,3.572146E1,1.8879504E0,4.446144E0,1.0466745E0,0E0,0E0,0E0,0E0,0E0,0E0,0E0],"parents":[2147483647,0,0,1,1,2,2,3,3,4,4,5,5],"right_children":[2,4,6,8,10,12,-1,-1,-1,-1,-1,-1,-1],"split_conditions":[1E0,1E0,1E0,1E0,2E0,3E0,1.2795908E0,5.8802147E-3,-6.22194E-2,-2.570382E-2,2.6014182E-1,-2.8947873E-2,1.5475023E-1],"split_indices":[114,11,85,84,66,3,0,0,0,0,0,0,0],"split_type":[0,0,0,0,0,0,0,0,0,0,0,0,0],"sum_hessian":[1.359E3,1.315E3,4.4E1,1.061E3,2.54E2,4.3E1,1E0,1.024E3,3.7E1,2.5E2,4E0,4.1E1,2E0],"tree_param":{"num_deleted":"0","num_feature":"117","num_nodes":"13","size_leaf_vector":"1"}},{"base_weights":[1.7125788E-3,-5.2551117E-5,3.428945E-1,-2.9813482E-3,2.0589088E-1,5.174176E-1,-1.868267E-2,1.6252548E-3,-2.3889063E-2,-1.2444761E-3,3.982447E-1,1.872078E-1,1.3647597E-2],"categories":[],"categories_nodes":[],"categories_segments":[],"categories_sizes":[],"default_left":[0,0,0,0,0,0,0,0,0,0,0,0,0],"id":26,"left_children":[1,3,5,7,9,11,-1,-1,-1,-1,-1,-1,-1],"loss_changes":[8.190513E-1,8.173013E-1,5.2720326E-1,8.6049914E-1,4.4814906E0,2.2316802E-1,0E0,0E0,0E0,0E0,0E0,0E0,0E0],"parents":[2147483647,0,0,1,1,2,2,3,3,4,4,5,5],"right_children":[2,4,6,8,10,12,-1,-1,-1,-1,-1,-1,-1],"split_conditions":[2E0,1E0,2E0,5E0,5E0,1E0,-1.868267E-2,1.6252548E-3,-2.3889063E-2,-1.2444761E-3,3.982447E-1,1.872078E-1,1.3647597E-2],"split_indices":[54,104,1,0,0,4,0,0,0,0,0,0,0],"split_type":[0,0,0,0,0,0,0,0,0,0,0,0,0],"sum_hessian":[1.359E3,1.353E3,6E0,1.335E3,1.8E1,4E0,2E0,1.204E3,1.31E2,1.6E1,2E0,3E0,1E0],"tree_param":{"num_deleted":"0","num_feature":"117","num_nodes":"13","size_leaf_vector":"1"}},{"base_weights":[1.6082898E-3,-2.6750355E-3,1.2683602E-1,-8.446442E-3,1.122459E-1,-3.504019E-2,1.0874084E0,-5.300684E-3,3.1665344E-2,-4.204899E-3,4.7390732E-1,4.222241E-2,-4.5279033E-2],"categories":[],"categories_nodes":[],"categories_segments":[],"categories_sizes":[],"default_left":[0,0,0,0,0,0,0,0,0,0,0,0,0],"id":27,"left_children":[1,3,5,7,9,11,-1,-1,-1,-1,-1,-1,-1],"loss_changes":[7.298312E-1,8.737923E-1,2.5606913E1,1.3202492E0,1.1694964E1,9.1757977E-1,0E0,0E0,0E0,0E0,0E0,0E0,0E0],"parents":[2147483647,0,0,1,1,2,2,3,3,4,4,5,5],"right_children":[2,4,6,8,10,12,-1,-1,-1,-1,-1,-1,-1],"split_conditions":[1E0,1E0,1E0,1E0,1E0,2E0,1.0874084E0,-5.300684E-3,3.1665344E-2,-4.204899E-3,4.7390732E-1,4.222241E-2,-4.5279033E-2],"split_indices":[114,77,85,64,61,0,0,0,0,0,0,0,0],"split_type":[0,0,0,0,0,0,0,0,0,0,0,0,0],"sum_hessian":[1.359E3,1.315E3,4.4E1,1.253E3,6.2E1,4.3E1,1E0,1.16E3,9.3E1,5.8E1,4E0,1.7E1,2.6E1],"tree_param":{"num_deleted":"0","num_feature":"117","num_nodes":"13","size_leaf_vector":"1"}},{"base_weights":[2.287866E-3,6.025854E-3,-1.3939385E-1,8.255302E-3,-2.3878665E-1,-1.03884876E-1,-4.83528E-1,4.9693105E-3,-1.7363312E-2,-1.2211581E-1,-8.0354884E-4,-4.2040102E-2,2.5046926E-3,-1.8910835E-2,-1.9867678E-1],"categories":[],"categories_nodes":[],"categories_segments":[],"categories_sizes":[],"default_left":[0,0,0,0,0,0,0,0,0,0,0,0,0,0,0],"id":28,"left_children":[1,3,5,7,9,11,13,-1,-1,-1,-1,-1,-1,-1,-1],"loss_changes":[7.211022E-1,7.256977E-1,3.7746352E-1,7.235557E-1,4.7565752E-1,1.3542524E-1,1.8371487E-1,0E0,0E0,0E0,0E0,0E0,0E0,0E0,0E0],"parents":[2147483647,0,0,1,1,2,2,3,3,4,4,5,5,6,6],"right_children":[2,4,6,8,10,12,14,-1,-1,-1,-1,-1,-1,-1,-1],"split_conditions":[2E0,2E0,1E0,1E0,2E0,1E0,3E0,4.9693105E-3,-1.7363312E-2,-1.2211581E-1,-8.0354884E-4,-4.2040102E-2,2.5046926E-3,-1.8910835E-2,-1.9867678E-1],"split_indices":[40,50,77,44,1,2,0,0,0,0,0,0,0,0,0],"split_type":[0,0,0,0,0,0,0,0,0,0,0,0,0,0,0],"sum_hessian":[1.359E3,1.325E3,3.4E1,1.314E3,1.1E1,3.2E1,2E0,1.168E3,1.46E2,6E0,5E0,2.4E1,8E0,1E0,1E0],"tree_param":{"num_deleted":"0","num_feature":"117","num_nodes":"15","size_leaf_vector":"1"}},{"base_weights":[1.3129398E-3,-3.1822394E-3,1.16751604E-1,2.0296976E-4,-2.0138007E-1,3.0033883E-1,-1.0229814E-1,1.4021469E-3,-3.9795026E-2,6.6443205E-2,-1.1213819E-1,1.5064904E-1,-5.4459427E-2,-1.02852225E-1,-1.5482752E-2],"categories":[],"categories_nodes":[],"categories_segments":[],"categories_sizes":[],"default_left":[0,0,0,0,0,0,0,0,0,0,0,0,0,0,0],"id":29,"left_children":[1,3,5,7,9,11,13,-1,-1,-1,-1,-1,-1,-1,-1],"loss_changes":[7.0609933E-1,8.789738E-1,2.0816755E0,7.6624274E-1,1.6867294E0,2.8142507E0,2.7493486E-1,0E0,0E0,0E0,0E0,0E0,0E0,0E0,0E0],"parents":[2147483647,0,0,1,1,2,2,3,3,4,4,5,5,6,6],"right_children":[2,4,6,8,10,12,14,-1,-1,-1,-1,-1,-1,-1,-1],"split_conditions":[1E0,2E0,1E0,1E0,2E0,1E0,1E0,1.4021469E-3,-3.9795026E-2,6.6443205E-2,-1.1213819E-1,1.5064904E-1,-5.4459427E-2,-1.02852225E-1,-1.5482752E-2],"split_indices":[99,42,9,103,0,36,1,0,0,0,0,0,0,0,0],"split_type":[0,0,0,0,0,0,0,0,0,0,0,0,0,0,0],"sum_hessian":[1.359E3,1.309E3,5E1,1.288E3,2.1E1,2.7E1,2.3E1,1.247E3,4.1E1,6E0,1.5E1,1.9E1,8E0,3E0,2E1],"tree_param":{"num_deleted":"0","num_feature":"117","num_nodes":"15","size_leaf_vector":"1"}},{"base_weights":[8.409484E-4,1.9059974E-3,-4.8155153E-1,8.79853E-3,-6.111832E-2,-2.052324E-1,-1.1465801E-2,3.365001E-3,-8.583811E-2,-1.1237251E-1,-6.428075E-3],"categories":[],"categories_nodes":[],"categories_segments":[],"categories_sizes":[],"default_left":[0,0,0,0,0,0,0,0,0,0,0],"id":30,"left_children":[1,3,5,7,9,-1,-1,-1,-1,-1,-1],"loss_changes":[6.996472E-1,5.904491E-1,2.4325323E-1,8.768439E-1,1.65914E0,0E0,0E0,0E0,0E0,0E0,0E0],"parents":[2147483647,0,0,1,1,2,2,3,3,4,4],"right_children":[2,4,6,8,10,-1,-1,-1,-1,-1,-1],"split_conditions":[5E0,1E0,3E0,2E0,1E0,-2.052324E-1,-1.1465801E-2,3.365001E-3,-8.583811E-2,-1.1237251E-1,-6.428075E-3],"split_indices":[4,48,0,60,1,0,0,0,0,0,0],"split_type":[0,0,0,0,0,0,0,0,0,0,0],"sum_hessian":[1.359E3,1.357E3,2E0,1.224E3,1.33E2,1E0,1E0,1.215E3,9E0,1.4E1,1.19E2],"tree_param":{"num_deleted":"0","num_feature":"117","num_nodes":"11","size_leaf_vector":"1"}},{"base_weights":[2.8132254E-4,5.514368E-3,-8.029836E-2,2.1171628E-2,-3.0722542E-2,-1.7383167E-1,5.2942522E-2,8.561463E-3,-1.23576485E-1,-1.2761532E-2,3.324991E-1,-7.775397E-2,1.12585016E-1,1.0597841E-1,-2.4394639E-2],"categories":[],"categories_nodes":[],"categories_segments":[],"categories_sizes":[],"default_left":[0,0,0,0,0,0,0,0,0,0,0,0,0,0,0],"id":31,"left_children":[1,3,5,7,9,11,13,-1,-1,-1,-1,-1,-1,-1,-1],"loss_changes":[5.739237E-1,7.257502E-1,1.0435873E0,2.8607981E0,5.242294E0,2.3936996E0,1.4399326E0,0E0,0E0,0E0,0E0,0E0,0E0,0E0,0E0],"parents":[2147483647,0,0,1,1,2,2,3,3,4,4,5,5,6,6],"right_children":[2,4,6,8,10,12,14,-1,-1,-1,-1,-1,-1,-1,-1],"split_conditions":[1E0,1E0,1E0,2E0,2E0,1E0,1E0,8.561463E-3,-1.23576485E-1,-1.2761532E-2,3.324991E-1,-7.775397E-2,1.12585016E-1,1.0597841E-1,-2.4394639E-2],"split_indices":[74,5,5,66,66,16,1,0,0,0,0,0,0,0,0],"split_type":[0,0,0,0,0,0,0,0,0,0,0,0,0,0,0],"sum_hessian":[1.359E3,1.277E3,8.2E1,8.92E2,3.85E2,4.8E1,3.4E1,8.78E2,1.4E1,3.82E2,3E0,4.2E1,6E0,1E1,2.4E1],"tree_param":{"num_deleted":"0","num_feature":"117","num_nodes":"15","size_leaf_vector":"1"}},{"base_weights":[4.330465E-4,-3.527505E-3,1.1624755E-1,-6.100406E-3,1.8234614E-1,-2.0739606E-2,9.215524E-1,6.893737E-4,-2.056721E-2,5.353812E-1,-5.064303E-3,-1.5515895E-2,1.2596825E-1],"categories":[],"categories_nodes":[],"categories_segments":[],"categories_sizes":[],"default_left":[0,0,0,0,0,0,0,0,0,0,0,0,0],"id":32,"left_children":[1,3,5,7,9,11,-1,-1,-1,-1,-1,-1,-1],"loss_changes":[6.242275E-1,6.304689E-1,1.8283237E1,6.815265E-1,5.7759643E0,6.2235427E-1,0E0,0E0,0E0,0E0,0E0,0E0,0E0],"parents":[2147483647,0,0,1,1,2,2,3,3,4,4,5,5],"right_children":[2,4,6,8,10,12,-1,-1,-1,-1,-1,-1,-1],"split_conditions":[1E0,1E0,1E0,1E0,1E0,3E0,9.215524E-1,6.893737E-4,-2.056721E-2,5.353812E-1,-5.064303E-3,-1.5515895E-2,1.2596825E-1],"split_indices":[114,104,85,30,1,3,0,0,0,0,0,0,0],"split_type":[0,0,0,0,0,0,0,0,0,0,0,0,0],"sum_hessian":[1.359E3,1.315E3,4.4E1,1.298E3,1.7E1,4.3E1,1E0,1.145E3,1.53E2,1E0,1.6E1,4.1E1,2E0],"tree_param":{"num_deleted":"0","num_feature":"117","num_nodes":"13","size_leaf_vector":"1"}},{"base_weights":[1.4372776E-3,5.954765E-3,-8.8656574E-2,6.8645636E-3,-1.7583516E-1,-4.1812605E-1,-2.8239587E-2,1.7837809E-3,1.7933525E-1,-1.6512817E-1,-2.4620278E-2,-1.833701E-2,6.320363E-2],"categories":[],"categories_nodes":[],"categories_segments":[],"categories_sizes":[],"default_left":[0,0,0,0,0,0,0,0,0,0,0,0,0],"id":33,"left_children":[1,3,5,7,-1,9,11,-1,-1,-1,-1,-1,-1],"loss_changes":[5.5404496E-1,7.0213485E-1,1.2820535E0,6.994168E-1,0E0,3.9943695E-1,4.5284352E-1,0E0,0E0,0E0,0E0,0E0,0E0],"parents":[2147483647,0,0,1,1,2,2,3,3,5,5,6,6],"right_children":[2,4,6,8,-1,10,12,-1,-1,-1,-1,-1,-1],"split_conditions":[1E0,5E0,1E0,2E0,-1.7583516E-1,1E0,1E0,1.7837809E-3,1.7933525E-1,-1.6512817E-1,-2.4620278E-2,-1.833701E-2,6.320363E-2],"split_indices":[62,4,1,107,0,2,63,0,0,0,0,0,0],"split_type":[0,0,0,0,0,0,0,0,0,0,0,0,0],"sum_hessian":[1.359E3,1.295E3,6.4E1,1.294E3,1E0,9E0,5.5E1,1.293E3,1E0,6E0,3E0,4.9E1,6E0],"tree_param":{"num_deleted":"0","num_feature":"117","num_nodes":"13","size_leaf_vector":"1"}},{"base_weights":[9.034588E-4,2.9064694E-3,-1.9187932E-1,-4.499599E-2,1.1249314E-2,-3.108999E-1,-2.8444428E-2,-2.9935868E-2,5.0975107E-2,8.427357E-3,-1.6396444E-2,-1.4431372E-1,-5.220311E-2,-2.04691E-2,5.535776E-3],"categories":[],"categories_nodes":[],"categories_segments":[],"categories_sizes":[],"default_left":[0,0,0,0,0,0,0,0,0,0,0,0,0,0,0],"id":34,"left_children":[1,3,5,7,9,11,13,-1,-1,-1,-1,-1,-1,-1,-1],"loss_changes":[5.2571625E-1,5.38825E-1,2.6348627E-1,2.371982E0,1.2757568E0,1.0262251E-1,1.4319907E-2,0E0,0E0,0E0,0E0,0E0,0E0,0E0,0E0],"parents":[2147483647,0,0,1,1,2,2,3,3,4,4,5,5,6,6],"right_children":[2,4,6,8,10,12,14,-1,-1,-1,-1,-1,-1,-1,-1],"split_conditions":[3E0,1E0,1E0,1E0,1E0,2E0,1E0,-2.9935868E-2,5.0975107E-2,8.427357E-3,-1.6396444E-2,-1.4431372E-1,-5.220311E-2,-2.04691E-2,5.535776E-3],"split_indices":[28,0,27,12,12,1,8,0,0,0,0,0,0,0,0],"split_type":[0,0,0,0,0,0,0,0,0,0,0,0,0,0,0],"sum_hessian":[1.359E3,1.346E3,1.3E1,1.99E2,1.147E3,7E0,6E0,1.59E2,4E1,9.14E2,2.33E2,2E0,5E0,3E0,3E0],"tree_param":{"num_deleted":"0","num_feature":"117","num_nodes":"15","size_leaf_vector":"1"}},{"base_weights":[4.8654494E-4,-3.0604126E-3,1.04204535E-1,-7.70155E-3,8.936891E-2,-1.2444054E-2,7.8551143E-1,-3.7591176E-3,3.9583E-2,-2.570768E-3,3.6814955E-1,3.667061E-3,-1.6097257E-1],"categories":[],"categories_nodes":[],"categories_segments":[],"categories_sizes":[],"default_left":[0,0,0,0,0,0,0,0,0,0,0,0,0],"id":35,"left_children":[1,3,5,7,9,11,-1,-1,-1,-1,-1,-1,-1],"loss_changes":[5.006402E-1,5.652223E-1,1.3229914E1,8.472541E-1,7.0308347E0,5.754371E-1,0E0,0E0,0E0,0E0,0E0,0E0,0E0],"parents":[2147483647,0,0,1,1,2,2,3,3,4,4,5,5],"right_children":[2,4,6,8,10,12,-1,-1,-1,-1,-1,-1,-1],"split_conditions":[1E0,1E0,1E0,1E0,1E0,2E0,7.8551143E-1,-3.7591176E-3,3.9583E-2,-2.570768E-3,3.6814955E-1,3.667061E-3,-1.6097257E-1],"split_indices":[114,77,85,99,61,108,0,0,0,0,0,0,0],"split_type":[0,0,0,0,0,0,0,0,0,0,0,0,0],"sum_hessian":[1.359E3,1.315E3,4.4E1,1.253E3,6.2E1,4.3E1,1E0,1.212E3,4.1E1,5.8E1,4E0,4.2E1,1E0],"tree_param":{"num_deleted":"0","num_feature":"117","num_nodes":"13","size_leaf_vector":"1"}},{"base_weights":[1.0976575E-3,7.5309714E-3,-6.60559E-2,4.9300245E-3,2.1995975E-1,-2.1249072E-1,-1.2056244E-2,4.36759E-3,-2.5730262E-2,5.829042E-3,4.5410615E-1,-9.45572E-2,5.9796624E-2,5.4497467E-3,-5.6343507E-2],"categories":[],"categories_nodes":[],"categories_segments":[],"categories_sizes":[],"default_left":[0,0,0,0,0,0,0,0,0,0,0,0,0,0,0],"id":36,"left_children":[1,3,5,7,9,11,13,-1,-1,-1,-1,-1,-1,-1,-1],"loss_changes":[5.880446E-1,6.851404E-1,9.3842226E-1,1.0736504E0,3.8620486E0,1.4162053E0,4.7084066E-1,0E0,0E0,0E0,0E0,0E0,0E0,0E0,0E0],"parents":[2147483647,0,0,1,1,2,2,3,3,4,4,5,5,6,6],"right_children":[2,4,6,8,10,12,14,-1,-1,-1,-1,-1,-1,-1,-1],"split_conditions":[1E0,1E0,1E0,5E0,5E0,1E0,1E0,4.36759E-3,-2.5730262E-2,5.829042E-3,4.5410615E-1,-9.45572E-2,5.9796624E-2,5.4497467E-3,-5.6343507E-2],"split_indices":[53,104,1,0,0,10,61,0,0,0,0,0,0,0,0],"split_type":[0,0,0,0,0,0,0,0,0,0,0,0,0,0,0],"sum_hessian":[1.359E3,1.241E3,1.18E2,1.227E3,1.4E1,3.1E1,8.7E1,1.11E3,1.17E2,1.3E1,1E0,2.5E1,6E0,7.5E1,1.2E1],"tree_param":{"num_deleted":"0","num_feature":"117","num_nodes":"15","size_leaf_vector":"1"}},{"base_weights":[1.0278574E-3,5.0745048E-3,-9.6935034E-2,-2.3962624E-2,2.3506738E-2,-1.278541E-1,2.3126629E-1,-1.003409E-2,1.97887E-1,1.1546739E-2,-7.234443E-2,2.1212114E-2,-7.226831E-2],"categories":[],"categories_nodes":[],"categories_segments":[],"categories_sizes":[],"default_left":[0,0,0,0,0,0,0,0,0,0,0,0,0],"id":37,"left_children":[1,3,5,7,9,11,-1,-1,-1,-1,-1,-1,-1],"loss_changes":[5.3962487E-1,7.000947E-1,1.5475034E0,3.3156102E0,3.1814108E0,1.206639E0,0E0,0E0,0E0,0E0,0E0,0E0,0E0],"parents":[2147483647,0,0,1,1,2,2,3,3,4,4,5,5],"right_children":[2,4,6,8,10,12,-1,-1,-1,-1,-1,-1,-1],"split_conditions":[1E0,2E0,1E0,2E0,1E0,2E0,2.3126629E-1,-1.003409E-2,1.97887E-1,1.1546739E-2,-7.234443E-2,2.1212114E-2,-7.226831E-2],"split_indices":[94,0,108,66,66,0,0,0,0,0,0,0,0],"split_type":[0,0,0,0,0,0,0,0,0,0,0,0,0],"sum_hessian":[1.359E3,1.306E3,5.3E1,5.07E2,7.99E2,5.2E1,1E0,5.01E2,6E0,7.57E2,4.2E1,1.9E1,3.3E1],"tree_param":{"num_deleted":"0","num_feature":"117","num_nodes":"13","size_leaf_vector":"1"}},{"base_weights":[9.454307E-4,-4.393362E-4,2.6866385E-1,-1.1748917E-3,1.492151E-1,1.8720467E-1,1.05435975E-1,1.6227198E-3,-2.0295732E-2,5.606569E-2,-1.1492661E-2],"categories":[],"categories_nodes":[],"categories_segments":[],"categories_sizes":[],"default_left":[0,0,0,0,0,0,0,0,0,0,0],"id":38,"left_children":[1,3,5,7,-1,-1,9,-1,-1,-1,-1],"loss_changes":[5.0430757E-1,4.963873E-1,3.402295E-1,5.9255415E-1,0E0,0E0,7.740718E-2,0E0,0E0,0E0,0E0],"parents":[2147483647,0,0,1,1,2,2,3,3,6,6],"right_children":[2,4,6,8,-1,-1,10,-1,-1,-1,-1],"split_conditions":[2E0,3E0,1E0,1E0,1.492151E-1,1.8720467E-1,2E0,1.6227198E-3,-2.0295732E-2,5.606569E-2,-1.1492661E-2],"split_indices":[54,84,1,50,0,0,1,0,0,0,0],"split_type":[0,0,0,0,0,0,0,0,0,0,0],"sum_hessian":[1.359E3,1.353E3,6E0,1.352E3,1E0,1E0,5E0,1.231E3,1.21E2,3E0,2E0],"tree_param":{"num_deleted":"0","num_feature":"117","num_nodes":"11","size_leaf_vector":"1"}},{"base_weights":[9.2822453E-4,2.0355824E-4,1.4786246E-1,-8.8990005E-3,3.945755E-2,-1.076064E-2,1.0532592E-2,-7.2388137E-3,1.324959E-1],"categories":[],"categories_nodes":[],"categories_segments":[],"categories_sizes":[],"default_left":[0,0,0,0,0,0,0,0,0],"id":39,"left_children":[1,3,-1,5,7,-1,-1,-1,-1],"loss_changes":[4.847358E-1,4.859378E-1,0E0,1.3115717E0,6.557696E0,0E0,0E0,0E0,0E0],"parents":[2147483647,0,0,1,1,3,3,4,4],"right_children":[2,4,-1,6,8,-1,-1,-1,-1],"split_conditions":[1E1,1E0,1.4786246E-1,1E0,1E0,-1.076064E-2,1.0532592E-2,-7.2388137E-3,1.324959E-1],"split_indices":[0,22,0,3,45,0,0,0,0],"split_type":[0,0,0,0,0,0,0,0,0],"sum_hessian":[1.359E3,1.358E3,1E0,1.103E3,2.55E2,6.84E2,4.19E2,2.21E2,3.4E1],"tree_param":{"num_deleted":"0","num_feature":"117","num_nodes":"9","size_leaf_vector":"1"}},{"base_weights":[8.504179E-4,4.1890778E-3,-9.6805744E-2,6.5243714E-3,-1.6457401E-1,-4.0717682E-1,3.5053303E-3,2.2868102E-3,-1.0528959E-1,-2.1885023E-2,-1.795131E-1,-1.41075E-1,-2.46695E-2,-2.6085226E-2,4.362007E-2],"categories":[],"categories_nodes":[],"categories_segments":[],"categories_sizes":[],"default_left":[0,0,0,0,0,0,0,0,0,0,0,0,0,0,0],"id":40,"left_children":[1,3,5,7,9,11,13,-1,-1,-1,-1,-1,-1,-1,-1],"loss_changes":[4.438209E-1,5.197243E-1,1.4024417E0,5.127163E-1,6.717895E-1,1.8677914E-1,4.6187663E-1,0E0,0E0,0E0,0E0,0E0,0E0,0E0,0E0],"parents":[2147483647,0,0,1,1,2,2,3,3,4,4,5,5,6,6],"right_children":[2,4,6,8,10,12,14,-1,-1,-1,-1,-1,-1,-1,-1],"split_conditions":[2E0,2E0,2E0,2E0,1E0,1E0,1E0,2.2868102E-3,-1.0528959E-1,-2.1885023E-2,-1.795131E-1,-1.41075E-1,-2.46695E-2,-2.6085226E-2,4.362007E-2],"split_indices":[28,36,1,77,110,20,2,0,0,0,0,0,0,0,0],"split_type":[0,0,0,0,0,0,0,0,0,0,0,0,0,0,0],"sum_hessian":[1.359E3,1.315E3,4.4E1,1.298E3,1.7E1,1E1,3.4E1,1.295E3,3E0,1.5E1,2E0,8E0,2E0,2.1E1,1.3E1],"tree_param":{"num_deleted":"0","num_feature":"117","num_nodes":"15","size_leaf_vector":"1"}},{"base_weights":[2.6249618E-4,-3.1431739E-3,9.98536E-2,7.5110854E-3,-4.7502704E-2,1.164637E-3,6.663252E-1,-2.5950067E-4,5.7759658E-2,-1.865811E-2,2.0984577E-1,6.7847795E-3,-1.3818616E-1],"categories":[],"categories_nodes":[],"categories_segments":[],"categories_sizes":[],"default_left":[0,0,0,0,0,0,0,0,0,0,0,0,0],"id":41,"left_children":[1,3,5,7,9,11,-1,-1,-1,-1,-1,-1,-1],"loss_changes":[4.615911E-1,6.22322E-1,9.417804E0,1.6460041E0,2.841875E0,4.4627646E-1,0E0,0E0,0E0,0E0,0E0,0E0,0E0],"parents":[2147483647,0,0,1,1,2,2,3,3,4,4,5,5],"right_children":[2,4,6,8,10,12,-1,-1,-1,-1,-1,-1,-1],"split_conditions":[1E0,1E0,1E0,1E0,2E0,2E0,6.663252E-1,-2.5950067E-4,5.7759658E-2,-1.865811E-2,2.0984577E-1,6.7847795E-3,-1.3818616E-1],"split_indices":[114,11,85,77,66,108,0,0,0,0,0,0,0],"split_type":[0,0,0,0,0,0,0,0,0,0,0,0,0],"sum_hessian":[1.359E3,1.315E3,4.4E1,1.061E3,2.54E2,4.3E1,1E0,1.016E3,4.5E1,2.5E2,4E0,4.2E1,1E0],"tree_param":{"num_deleted":"0","num_feature":"117","num_nodes":"13","size_leaf_vector":"1"}},{"base_weights":[7.599382E-4,4.358408E-3,-9.3607135E-2,6.016278E-3,-2.3614861E-1,-2.879265E-1,-1.7550962E-2,9.693661E-4,5.821725E-2,-9.570318E-2,1.0773666E-2,-1.15964614E-1,-2.7601648E-2,-1.2531747E-2,8.126515E-2],"categories":[],"categories_nodes":[],"categories_segments":[],"categories_sizes":[],"default_left":[0,0,0,0,0,0,0,0,0,0,0,0,0,0,0],"id":42,"left_children":[1,3,5,7,9,11,13,-1,-1,-1,-1,-1,-1,-1,-1],"loss_changes":[4.6223274E-1,5.2415496E-1,7.3390603E-1,6.8176144E-1,2.143479E-1,2.3494565E-1,2.6980972E-1,0E0,0E0,0E0,0E0,0E0,0E0,0E0,0E0],"parents":[2147483647,0,0,1,1,2,2,3,3,4,4,5,5,6,6],"right_children":[2,4,6,8,10,12,14,-1,-1,-1,-1,-1,-1,-1,-1],"split_conditions":[1E0,3E0,1E0,2E0,1E0,1E0,6E0,9.693661E-4,5.821725E-2,-9.570318E-2,1.0773666E-2,-1.15964614E-1,-2.7601648E-2,-1.2531747E-2,8.126515E-2],"split_indices":[79,12,2,45,31,53,0,0,0,0,0,0,0,0,0],"split_type":[0,0,0,0,0,0,0,0,0,0,0,0,0,0,0],"sum_hessian":[1.359E3,1.31E3,4.9E1,1.302E3,8E0,1.3E1,3.6E1,1.284E3,1.8E1,6E0,2E0,8E0,5E0,3.4E1,2E0],"tree_param":{"num_deleted":"0","num_feature":"117","num_nodes":"15","size_leaf_vector":"1"}},{"base_weights":[4.5799225E-4,4.2291926E-3,-8.427187E-2,1.704706E-3,1.7474163E-1,-5.5142675E-2,-5.999263E-1,3.7901679E-3,-1.5642975E-2,8.1134635E-1,-3.481475E-2,-3.3118844E-2,3.5550952E-2,-2.511227E-1,-1.8844116E-2],"categories":[],"categories_nodes":[],"categories_segments":[],"categories_sizes":[],"default_left":[0,0,0,0,0,0,0,0,0,0,0,0,0,0,0],"id":43,"left_children":[1,3,5,7,9,11,13,-1,-1,-1,-1,-1,-1,-1,-1],"loss_changes":[4.3492168E-1,5.6058675E-1,8.3811325E-1,7.568997E-1,1.4290764E1,5.503763E-1,3.29548E-1,0E0,0E0,0E0,0E0,0E0,0E0,0E0,0E0],"parents":[2147483647,0,0,1,1,2,2,3,3,4,4,5,5,6,6],"right_children":[2,4,6,8,10,12,14,-1,-1,-1,-1,-1,-1,-1,-1],"split_conditions":[1E0,2E0,2E0,1E0,1E0,1E0,3E0,3.7901679E-3,-1.5642975E-2,8.1134635E-1,-3.481475E-2,-3.3118844E-2,3.5550952E-2,-2.511227E-1,-1.8844116E-2],"split_indices":[76,45,45,19,1,40,0,0,0,0,0,0,0,0,0],"split_type":[0,0,0,0,0,0,0,0,0,0,0,0,0,0,0],"sum_hessian":[1.359E3,1.302E3,5.7E1,1.284E3,1.8E1,5.5E1,2E0,1.068E3,2.16E2,1E0,1.7E1,4.2E1,1.3E1,1E0,1E0],"tree_param":{"num_deleted":"0","num_feature":"117","num_nodes":"15","size_leaf_vector":"1"}},{"base_weights":[6.8615365E-4,-5.173832E-4,2.3338655E-1,-8.356997E-3,3.3139855E-2,1.6247985E-1,9.175115E-2,-1.3543838E-2,6.3625877E-3,6.781659E-2,-1.9734722E-2,4.718241E-2,-7.85919E-3],"categories":[],"categories_nodes":[],"categories_segments":[],"categories_sizes":[],"default_left":[0,0,0,0,0,0,0,0,0,0,0,0,0],"id":44,"left_children":[1,3,5,7,9,-1,11,-1,-1,-1,-1,-1,-1],"loss_changes":[3.810071E-1,3.57543E-1,2.558846E-1,1.1963326E0,4.9002805E0,0E0,5.049057E-2,0E0,0E0,0E0,0E0,0E0,0E0],"parents":[2147483647,0,0,1,1,2,2,3,3,4,4,6,6],"right_children":[2,4,6,8,10,-1,12,-1,-1,-1,-1,-1,-1],"split_conditions":[2E0,1E0,1E0,1E0,1E0,1.6247985E-1,2E0,-1.3543838E-2,6.3625877E-3,6.781659E-2,-1.9734722E-2,4.718241E-2,-7.85919E-3],"split_indices":[54,22,1,1,1,0,1,0,0,0,0,0,0],"split_type":[0,0,0,0,0,0,0,0,0,0,0,0,0],"sum_hessian":[1.359E3,1.353E3,6E0,1.098E3,2.55E2,1E0,5E0,4.89E2,6.09E2,8.6E1,1.69E2,3E0,2E0],"tree_param":{"num_deleted":"0","num_feature":"117","num_nodes":"13","size_leaf_vector":"1"}},{"base_weights":[6.5876497E-4,6.9353394E-3,-4.5476172E-2,1.1792108E-2,-1.3770023E-1,-6.802708E-2,2.4395834E-1,6.0591092E-3,-2.0586092E-2,-1.2143051E-1,-1.6716711E-2,-2.5051773E-2,9.6762575E-2,1.9609008E-2,1.442756E-1],"categories":[],"categories_nodes":[],"categories_segments":[],"categories_sizes":[],"default_left":[0,0,0,0,0,0,0,0,0,0,0,0,0,0,0],"id":45,"left_children":[1,3,5,7,9,11,13,-1,-1,-1,-1,-1,-1,-1,-1],"loss_changes":[3.9412975E-1,8.4317255E-1,1.0804987E0,7.8538346E-1,8.3129853E-1,9.4585735E-1,4.7640467E-1,0E0,0E0,0E0,0E0,0E0,0E0,0E0,0E0],"parents":[2147483647,0,0,1,1,2,2,3,3,4,4,5,5,6,6],"right_children":[2,4,6,8,10,12,14,-1,-1,-1,-1,-1,-1,-1,-1],"split_conditions":[1E0,1E0,1E0,1E0,1E0,1E0,1E0,6.0591092E-3,-2.0586092E-2,-1.2143051E-1,-1.6716711E-2,-2.5051773E-2,9.6762575E-2,1.9609008E-2,1.442756E-1],"split_indices":[13,100,50,50,1,101,31,0,0,0,0,0,0,0,0],"split_type":[0,0,0,0,0,0,0,0,0,0,0,0,0,0,0],"sum_hessian":[1.359E3,1.197E3,1.62E2,1.159E3,3.8E1,1.51E2,1.1E1,1.05E3,1.09E2,8E0,3E1,1.46E2,5E0,7E0,4E0],"tree_param":{"num_deleted":"0","num_feature":"117","num_nodes":"15","size_leaf_vector":"1"}},{"base_weights":[5.2212464E-4,3.4493685E-3,-9.373359E-2,-4.917099E-3,4.312053E-2,-2.1916658E-1,1.15953386E-1,6.138012E-4,-4.7889125E-2,-9.111024E-3,1.1184049E-1,-1.0250123E-1,2.9752998E-2,4.916301E-2,-4.390195E-2],"categories":[],"categories_nodes":[],"categories_segments":[],"categories_sizes":[],"default_left":[0,0,0,0,0,0,0,0,0,0,0,0,0,0,0],"id":46,"left_children":[1,3,5,7,9,11,13,-1,-1,-1,-1,-1,-1,-1,-1],"loss_changes":[3.755602E-1,4.3832988E-1,1.1037815E0,1.1756442E0,5.583868E0,1.0478437E0,2.2510101E-1,0E0,0E0,0E0,0E0,0E0,0E0,0E0,0E0],"parents":[2147483647,0,0,1,1,2,2,3,3,4,4,5,5,6,6],"right_children":[2,4,6,8,10,12,14,-1,-1,-1,-1,-1,-1,-1,-1],"split_conditions":[2E0,1E0,2E0,1E0,1E0,1E0,1E0,6.138012E-4,-4.7889125E-2,-9.111024E-3,1.1184049E-1,-1.0250123E-1,2.9752998E-2,4.916301E-2,-4.390195E-2],"split_indices":[25,25,1,90,22,10,40,0,0,0,0,0,0,0,0],"split_type":[0,0,0,0,0,0,0,0,0,0,0,0,0,0,0],"sum_hessian":[1.359E3,1.319E3,4E1,1.09E3,2.29E2,2.5E1,1.5E1,1.044E3,4.6E1,1.88E2,4.1E1,1.8E1,7E0,1.3E1,2E0],"tree_param":{"num_deleted":"0","num_feature":"117","num_nodes":"15","size_leaf_vector":"1"}},{"base_weights":[3.5663586E-4,3.1213528E-3,-1.0439683E-1,6.7978767E-3,-7.45666E-2,-5.919001E-2,-5.6687284E-1,2.448454E-3,-7.19468E-2,-4.1191347E-2,9.698792E-3,-2.4212677E-2,3.5099797E-2,-2.5922725E-2,-2.2917007E-1],"categories":[],"categories_nodes":[],"categories_segments":[],"categories_sizes":[],"default_left":[0,0,0,0,0,0,0,0,0,0,0,0,0,0,0],"id":47,"left_children":[1,3,5,7,9,11,13,-1,-1,-1,-1,-1,-1,-1,-1],"loss_changes":[3.942004E-1,3.792412E-1,6.9819427E-1,4.2805043E-1,4.068243E-1,1.3455915E-1,2.1798563E-1,0E0,0E0,0E0,0E0,0E0,0E0,0E0,0E0],"parents":[2147483647,0,0,1,1,2,2,3,3,4,4,5,5,6,6],"right_children":[2,4,6,8,10,12,14,-1,-1,-1,-1,-1,-1,-1,-1],"split_conditions":[2E0,1E0,1E0,3E0,1E0,2E0,3E0,2.448454E-3,-7.19468E-2,-4.1191347E-2,9.698792E-3,-2.4212677E-2,3.5099797E-2,-2.5922725E-2,-2.2917007E-1],"split_indices":[40,97,77,18,12,12,0,0,0,0,0,0,0,0,0],"split_type":[0,0,0,0,0,0,0,0,0,0,0,0,0,0,0],"sum_hessian":[1.359E3,1.325E3,3.4E1,1.266E3,5.9E1,3.2E1,2E0,1.26E3,6E0,3.7E1,2.2E1,2.9E1,3E0,1E0,1E0],"tree_param":{"num_deleted":"0","num_feature":"117","num_nodes":"15","size_leaf_vector":"1"}},{"base_weights":[-4.1674953E-6,-6.1897776E-4,1.2532845E-1,3.1000716E-3,-8.8850625E-2,1.9762646E-3,-3.400593E-2,-1.01464145E-1,6.637312E-3],"categories":[],"categories_nodes":[],"categories_segments":[],"categories_sizes":[],"default_left":[0,0,0,0,0,0,0,0,0],"id":48,"left_children":[1,3,-1,5,7,-1,-1,-1,-1],"loss_changes":[3.4957E-1,4.462148E-1,0E0,5.307433E-1,1.529502E0,0E0,0E0,0E0,0E0],"parents":[2147483647,0,0,1,1,3,3,4,4],"right_children":[2,4,-1,6,8,-1,-1,-1,-1],"split_conditions":[1E1,6E0,1.2532845E-1,1E0,1E0,1.9762646E-3,-3.400593E-2,-1.01464145E-1,6.637312E-3],"split_indices":[0,0,0,106,1,0,0,0,0],"split_type":[0,0,0,0,0,0,0,0,0],"sum_hessian":[1.359E3,1.358E3,1E0,1.304E3,5.4E1,1.267E3,3.7E1,1.6E1,3.8E1],"tree_param":{"num_deleted":"0","num_feature":"117","num_nodes":"9","size_leaf_vector":"1"}},{"base_weights":[-4.0357113E-6,-2.0569503E-2,1.2991175E-2,-3.442037E-2,2.989354E-1,1.9451167E-2,-3.9647838E-1,-1.705929E-2,5.281924E-2,1.5341564E-2,8.254004E-1,9.9922335E-3,-2.7257226E-2,-1.3723567E-1,5.0281122E-2],"categories":[],"categories_nodes":[],"categories_segments":[],"categories_sizes":[],"default_left":[0,0,0,0,0,0,0,0,0,0,0,0,0,0,0],"id":49,"left_children":[1,3,5,7,9,11,13,-1,-1,-1,-1,-1,-1,-1,-1],"loss_changes":[3.6373076E-1,2.3424857E0,2.2137837E0,2.4004061E0,1.3228631E1,1.2594254E0,5.237956E-1,0E0,0E0,0E0,0E0,0E0,0E0,0E0,0E0],"parents":[2147483647,0,0,1,1,2,2,3,3,4,4,5,5,6,6],"right_children":[2,4,6,8,10,12,14,-1,-1,-1,-1,-1,-1,-1,-1],"split_conditions":[2E0,1E0,2E0,1E0,1E0,1E0,3E0,-1.705929E-2,5.281924E-2,1.5341564E-2,8.254004E-1,9.9922335E-3,-2.7257226E-2,-1.3723567E-1,5.0281122E-2],"split_indices":[0,110,66,45,35,42,3,0,0,0,0,0,0,0,0],"split_type":[0,0,0,0,0,0,0,0,0,0,0,0,0,0,0],"sum_hessian":[1.359E3,5.26E2,8.33E2,5.05E2,2.1E1,8.21E2,1.2E1,4.57E2,4.8E1,2E1,1E0,7.3E2,9.1E1,1.1E1,1E0],"tree_param":{"num_deleted":"0","num_feature":"117","num_nodes":"15","size_leaf_vector":"1"}},{"base_weights":[5.650309E-4,6.1404845E-3,-4.768049E-2,9.326789E-3,-1.3499238E-1,-2.142489E-2,-1.8872556E-1,5.1965606E-3,-1.7044013E-2,-2.0664763E-1,6.6567054E-3,-1.6510058E-2,3.9236356E-2,-2.4445433E-2,-1.0986341E-1],"categories":[],"categories_nodes":[],"categories_segments":[],"categories_sizes":[],"default_left":[0,0,0,0,0,0,0,0,0,0,0,0,0,0,0],"id":50,"left_children":[1,3,5,7,9,11,13,-1,-1,-1,-1,-1,-1,-1,-1],"loss_changes":[3.661201E-1,5.4988354E-1,5.18111E-1,6.323663E-1,2.3656952E0,6.210773E-1,3.889011E-1,0E0,0E0,0E0,0E0,0E0,0E0,0E0,0E0],"parents":[2147483647,0,0,1,1,2,2,3,3,4,4,5,5,6,6],"right_children":[2,4,6,8,10,12,14,-1,-1,-1,-1,-1,-1,-1,-1],"split_conditions":[1E0,3E0,1E0,1E0,1E0,1E0,1E0,5.1965606E-3,-1.7044013E-2,-2.0664763E-1,6.6567054E-3,-1.6510058E-2,3.9236356E-2,-2.4445433E-2,-1.0986341E-1],"split_indices":[39,4,45,6,1,11,28,0,0,0,0,0,0,0,0],"split_type":[0,0,0,0,0,0,0,0,0,0,0,0,0,0,0],"sum_hessian":[1.359E3,1.219E3,1.4E2,1.193E3,2.6E1,1.19E2,2.1E1,1.065E3,1.28E2,5E0,2.1E1,9.8E1,2.1E1,1.4E1,7E0],"tree_param":{"num_deleted":"0","num_feature":"117","num_nodes":"15","size_leaf_vector":"1"}},{"base_weights":[1.577066E-4,3.2270486E-3,-8.202871E-2,7.344367E-3,-9.4717264E-2,-1.1099654E-1,1.9626407E-1,4.134421E-3,-1.5209497E-2,-7.660172E-2,7.6558144E-4,-4.977544E-2,2.6646957E-2],"categories":[],"categories_nodes":[],"categories_segments":[],"categories_sizes":[],"default_left":[0,0,0,0,0,0,0,0,0,0,0,0,0],"id":51,"left_children":[1,3,5,7,9,11,-1,-1,-1,-1,-1,-1,-1],"loss_changes":[3.4333587E-1,5.297832E-1,1.117655E0,4.7146347E-1,8.286998E-1,5.4150933E-1,0E0,0E0,0E0,0E0,0E0,0E0,0E0],"parents":[2147483647,0,0,1,1,2,2,3,3,4,4,5,5],"right_children":[2,4,6,8,10,12,-1,-1,-1,-1,-1,-1,-1],"split_conditions":[1E0,1E0,1E0,1E0,1E0,1E0,1.9626407E-1,4.134421E-3,-1.5209497E-2,-7.660172E-2,7.6558144E-4,-4.977544E-2,2.6646957E-2],"split_indices":[108,94,94,48,1,34,0,0,0,0,0,0,0],"split_type":[0,0,0,0,0,0,0,0,0,0,0,0,0],"sum_hessian":[1.359E3,1.311E3,4.8E1,1.259E3,5.2E1,4.7E1,1E0,1.134E3,1.25E2,1.9E1,3.3E1,3.7E1,1E1],"tree_param":{"num_deleted":"0","num_feature":"117","num_nodes":"13","size_leaf_vector":"1"}},{"base_weights":[1.7379655E-4,-2.377446E-3,8.8992745E-2,3.811016E-3,-6.119808E-2,2.079276E-1,-7.01578E-2,8.7758503E-4,1.5960494E-1,-6.047781E-2,1.2163793E-3,1.6884708E-1,1.1899538E-2,-4.7847543E-2,2.0387796E-1],"categories":[],"categories_nodes":[],"categories_segments":[],"categories_sizes":[],"default_left":[0,0,0,0,0,0,0,0,0,0,0,0,0,0,0],"id":52,"left_children":[1,3,5,7,9,11,13,-1,-1,-1,-1,-1,-1,-1,-1],"loss_changes":[3.0838582E-1,4.8181742E-1,7.338724E-1,5.589265E-1,1.1551193E0,1.2914205E0,1.2470199E0,0E0,0E0,0E0,0E0,0E0,0E0,0E0,0E0],"parents":[2147483647,0,0,1,1,2,2,3,3,4,4,5,5,6,6],"right_children":[2,4,6,8,10,12,14,-1,-1,-1,-1,-1,-1,-1,-1],"split_conditions":[1E0,2E0,3E0,2E0,2E0,2E0,1E0,8.7758503E-4,1.5960494E-1,-6.047781E-2,1.2163793E-3,1.6884708E-1,1.1899538E-2,-4.7847543E-2,2.0387796E-1],"split_indices":[105,4,0,107,1,1,85,0,0,0,0,0,0,0,0],"split_type":[0,0,0,0,0,0,0,0,0,0,0,0,0,0,0],"sum_hessian":[1.359E3,1.322E3,3.7E1,1.197E3,1.25E2,2.1E1,1.6E1,1.196E3,1E0,3.9E1,8.6E1,6E0,1.5E1,1.5E1,1E0],"tree_param":{"num_deleted":"0","num_feature":"117","num_nodes":"15","size_leaf_vector":"1"}},{"base_weights":[4.4370943E-4,-2.3482468E-3,8.2083054E-2,2.3121245E-3,-8.290122E-2,-1.354381E-3,5.6299955E-1,-1.9926778E-3,1.3428774E-2,-4.401949E-2,3.1166965E-1,-7.599077E-3,1.00427814E-1],"categories":[],"categories_nodes":[],"categories_segments":[],"categories_sizes":[],"default_left":[0,0,0,0,0,0,0,0,0,0,0,0,0],"id":53,"left_children":[1,3,5,7,9,11,-1,-1,-1,-1,-1,-1,-1],"loss_changes":[3.101823E-1,4.942269E-1,6.7406316E0,4.7354376E-1,5.3079967E0,3.6305887E-1,0E0,0E0,0E0,0E0,0E0,0E0,0E0],"parents":[2147483647,0,0,1,1,2,2,3,3,4,4,5,5],"right_children":[2,4,6,8,10,12,-1,-1,-1,-1,-1,-1,-1],"split_conditions":[1E0,1E0,1E0,1E0,1E0,3E0,5.6299955E-1,-1.9926778E-3,1.3428774E-2,-4.401949E-2,3.1166965E-1,-7.599077E-3,1.00427814E-1],"split_indices":[114,85,85,26,75,3,0,0,0,0,0,0,0],"split_type":[0,0,0,0,0,0,0,0,0,0,0,0,0],"sum_hessian":[1.359E3,1.315E3,4.4E1,1.244E3,7.1E1,4.3E1,1E0,1.028E3,2.16E2,6.8E1,3E0,4.1E1,2E0],"tree_param":{"num_deleted":"0","num_feature":"117","num_nodes":"13","size_leaf_vector":"1"}},{"base_weights":[9.980404E-4,2.0734966E-3,-2.0716849E-1,5.1227272E-3,-6.8694785E-2,-8.294065E-2,-2.261174E-2,4.4957274E-3,-1.0835423E-2,-5.3470008E-2,4.1215893E-2,4.522137E-3,-1.46974195E-2],"categories":[],"categories_nodes":[],"categories_segments":[],"categories_sizes":[],"default_left":[0,0,0,0,0,0,0,0,0,0,0,0,0],"id":54,"left_children":[1,3,5,7,9,-1,11,-1,-1,-1,-1,-1,-1],"loss_changes":[3.048982E-1,2.9252994E-1,8.327749E-2,5.289216E-1,1.2886213E0,0E0,3.72088E-3,0E0,0E0,0E0,0E0,0E0,0E0],"parents":[2147483647,0,0,1,1,2,2,3,3,4,4,6,6],"right_children":[2,4,6,8,10,-1,12,-1,-1,-1,-1,-1,-1],"split_conditions":[3E0,6E0,2E0,1E0,1E0,-8.294065E-2,3E0,4.4957274E-3,-1.0835423E-2,-5.3470008E-2,4.1215893E-2,4.522137E-3,-1.46974195E-2],"split_indices":[33,0,38,18,2,0,0,0,0,0,0,0,0],"split_type":[0,0,0,0,0,0,0,0,0,0,0,0,0],"sum_hessian":[1.359E3,1.353E3,6E0,1.298E3,5.5E1,4E0,2E0,1.048E3,2.5E2,3.6E1,1.9E1,1E0,1E0],"tree_param":{"num_deleted":"0","num_feature":"117","num_nodes":"13","size_leaf_vector":"1"}},{"base_weights":[6.1648356E-4,3.1791504E-3,-8.190393E-2,-3.855464E-4,9.973755E-2,-2.7043444E-1,-1.2363945E-2,6.238761E-4,-3.080272E-2,1.4649723E-1,2.2519056E-3,-1.9087146E-1,-3.5535477E-2,3.4601332E-3,-7.177619E-2],"categories":[],"categories_nodes":[],"categories_segments":[],"categories_sizes":[],"default_left":[0,0,0,0,0,0,0,0,0,0,0,0,0,0,0],"id":55,"left_children":[1,3,5,7,9,11,13,-1,-1,-1,-1,-1,-1,-1,-1],"loss_changes":[2.8786278E-1,4.543843E-1,5.34183E-1,3.2146406E-1,1.6808052E0,5.361913E-1,1.7084628E-1,0E0,0E0,0E0,0E0,0E0,0E0,0E0,0E0],"parents":[2147483647,0,0,1,1,2,2,3,3,4,4,5,5,6,6],"right_children":[2,4,6,8,10,12,14,-1,-1,-1,-1,-1,-1,-1,-1],"split_conditions":[1E0,1E0,1E0,2E0,1E0,1E0,1E0,6.238761E-4,-3.080272E-2,1.4649723E-1,2.2519056E-3,-1.9087146E-1,-3.5535477E-2,3.4601332E-3,-7.177619E-2],"split_indices":[112,99,2,40,1,1,99,0,0,0,0,0,0,0,0],"split_type":[0,0,0,0,0,0,0,0,0,0,0,0,0,0,0],"sum_hessian":[1.359E3,1.319E3,4E1,1.273E3,4.6E1,1E1,3E1,1.244E3,2.9E1,8E0,3.8E1,2E0,8E0,2.8E1,2E0],"tree_param":{"num_deleted":"0","num_feature":"117","num_nodes":"15","size_leaf_vector":"1"}},{"base_weights":[3.0202654E-4,1.7878233E-3,-1.4267442E-1,2.660242E-3,-2.329014E-1,-2.6048055E-1,1.2343202E-2,2.088789E-3,-1.3406931E-2,-1.6469356E-1,-4.991247E-3,-9.4526626E-2,-1.9331193E-2,1.1941912E-2,-1.1262944E-2],"categories":[],"categories_nodes":[],"categories_segments":[],"categories_sizes":[],"default_left":[0,0,0,0,0,0,0,0,0,0,0,0,0,0,0],"id":56,"left_children":[1,3,5,7,9,11,13,-1,-1,-1,-1,-1,-1,-1,-1],"loss_changes":[2.8916523E-1,2.7641413E-1,2.5888354E-1,2.7390456E-1,3.3264676E-1,6.5340996E-2,1.1084716E-2,0E0,0E0,0E0,0E0,0E0,0E0,0E0,0E0],"parents":[2147483647,0,0,1,1,2,2,3,3,4,4,5,5,6,6],"right_children":[2,4,6,8,10,12,14,-1,-1,-1,-1,-1,-1,-1,-1],"split_conditions":[2E0,2E0,1E0,1E0,1E0,3E0,2E0,2.088789E-3,-1.3406931E-2,-1.6469356E-1,-4.991247E-3,-9.4526626E-2,-1.9331193E-2,1.1941912E-2,-1.1262944E-2],"split_indices":[50,100,2,51,1,0,5,0,0,0,0,0,0,0,0],"split_type":[0,0,0,0,0,0,0,0,0,0,0,0,0,0,0],"sum_hessian":[1.359E3,1.346E3,1.3E1,1.342E3,4E0,7E0,6E0,1.231E3,1.11E2,1E0,3E0,5E0,2E0,4E0,2E0],"tree_param":{"num_deleted":"0","num_feature":"117","num_nodes":"15","size_leaf_vector":"1"}},{"base_weights":[-4.88785E-6,-5.514285E-4,1.1141158E-1,-2.4700551E-3,1.06275104E-1,2.6019095E-4,-2.5468146E-2,1.8850416E-2,7.763448E-2],"categories":[],"categories_nodes":[],"categories_segments":[],"categories_sizes":[],"default_left":[0,0,0,0,0,0,0,0,0],"id":57,"left_children":[1,3,-1,5,7,-1,-1,-1,-1],"loss_changes":[2.762474E-1,2.7880347E-1,0E0,3.6757734E-1,1.4273813E-1,0E0,0E0,0E0,0E0],"parents":[2147483647,0,0,1,1,3,3,4,4],"right_children":[2,4,-1,6,8,-1,-1,-1,-1],"split_conditions":[1E1,4E0,1.1141158E-1,6E0,1E0,2.6019095E-4,-2.5468146E-2,1.8850416E-2,7.763448E-2],"split_indices":[0,5,0,0,42,0,0,0,0],"split_type":[0,0,0,0,0,0,0,0,0],"sum_hessian":[1.359E3,1.358E3,1E0,1.335E3,2.3E1,1.284E3,5.1E1,1.9E1,4E0],"tree_param":{"num_deleted":"0","num_feature":"117","num_nodes":"9","size_leaf_vector":"1"}},{"base_weights":[1.3089714E-4,-2.4579703E-3,7.583798E-2,-1.0250399E-2,3.0484071E-2,5.223791E-3,4.7742936E-1,-5.5443575E-3,4.9357366E-2,-8.304488E-3,7.808044E-2,1.0692764E-2,-5.8010627E-2],"categories":[],"categories_nodes":[],"categories_segments":[],"categories_sizes":[],"default_left":[0,0,0,0,0,0,0,0,0,0,0,0,0],"id":58,"left_children":[1,3,5,7,9,11,-1,-1,-1,-1,-1,-1,-1],"loss_changes":[2.6674044E-1,3.381277E-1,4.807694E0,1.5350816E0,3.375323E0,2.7269343E-1,0E0,0E0,0E0,0E0,0E0,0E0,0E0],"parents":[2147483647,0,0,1,1,2,2,3,3,4,4,5,5],"right_children":[2,4,6,8,10,12,-1,-1,-1,-1,-1,-1,-1],"split_conditions":[1E0,4E0,1E0,1E0,1E0,1E0,4.7742936E-1,-5.5443575E-3,4.9357366E-2,-8.304488E-3,7.808044E-2,1.0692764E-2,-5.8010627E-2],"split_indices":[114,0,85,77,24,98,0,0,0,0,0,0,0],"split_type":[0,0,0,0,0,0,0,0,0,0,0,0,0],"sum_hessian":[1.359E3,1.315E3,4.4E1,1.064E3,2.51E2,4.3E1,1E0,1.017E3,4.7E1,2.01E2,5E1,3.8E1,5E0],"tree_param":{"num_deleted":"0","num_feature":"117","num_nodes":"13","size_leaf_vector":"1"}},{"base_weights":[4.913977E-4,-1.2000748E-3,1.1993691E-1,4.1968767E-3,-3.9991572E-2,8.239098E-1,-1.1348721E-2,-1.5467719E-2,4.170434E-3,-5.1683046E-2,1.1395002E-2,-1.3912187E-2,3.8467163E-1,-3.23276E-2,7.247606E-2],"categories":[],"categories_nodes":[],"categories_segments":[],"categories_sizes":[],"default_left":[0,0,0,0,0,0,0,0,0,0,0,0,0,0,0],"id":59,"left_children":[1,3,5,7,9,11,13,-1,-1,-1,-1,-1,-1,-1,-1],"loss_changes":[2.749167E-1,2.8112337E-1,1.7653594E0,6.3865876E-1,1.6981921E0,1.2560911E0,4.405866E-1,0E0,0E0,0E0,0E0,0E0,0E0,0E0,0E0],"parents":[2147483647,0,0,1,1,2,2,3,3,4,4,5,5,6,6],"right_children":[2,4,6,8,10,12,14,-1,-1,-1,-1,-1,-1,-1,-1],"split_conditions":[1E0,1E0,1E0,1E0,2E0,3E0,1E0,-1.5467719E-2,4.170434E-3,-5.1683046E-2,1.1395002E-2,-1.3912187E-2,3.8467163E-1,-3.23276E-2,7.247606E-2],"split_indices":[104,30,1,0,1,0,11,0,0,0,0,0,0,0,0],"split_type":[0,0,0,0,0,0,0,0,0,0,0,0,0,0,0],"sum_hessian":[1.359E3,1.341E3,1.8E1,1.178E3,1.63E2,2E0,1.6E1,1.74E2,1.004E3,6E1,1.03E2,1E0,1E0,1.2E1,4E0],"tree_param":{"num_deleted":"0","num_feature":"117","num_nodes":"15","size_leaf_vector":"1"}},{"base_weights":[6.081923E-4,3.868169E-3,-6.440008E-2,3.1640846E-3,1.3734858E-1,-2.586933E-1,-2.8554859E-2,1.8840154E-3,-2.6983533E-2,-9.463532E-2,3.7818953E-2,-1.6837861E-2,5.173877E-2],"categories":[],"categories_nodes":[],"categories_segments":[],"categories_sizes":[],"default_left":[0,0,0,0,0,0,0,0,0,0,0,0,0],"id":60,"left_children":[1,3,5,7,-1,9,11,-1,-1,-1,-1,-1,-1],"loss_changes":[2.884677E-1,4.1278714E-1,4.4530448E-1,3.7627688E-1,0E0,2.5814587E-1,3.2004958E-1,0E0,0E0,0E0,0E0,0E0,0E0],"parents":[2147483647,0,0,1,1,2,2,3,3,5,5,6,6],"right_children":[2,4,6,8,-1,10,12,-1,-1,-1,-1,-1,-1],"split_conditions":[1E0,2E0,1E0,1E0,1.3734858E-1,1E0,1E0,1.8840154E-3,-2.6983533E-2,-9.463532E-2,3.7818953E-2,-1.6837861E-2,5.173877E-2],"split_indices":[62,107,1,106,0,74,63,0,0,0,0,0,0],"split_type":[0,0,0,0,0,0,0,0,0,0,0,0,0],"sum_hessian":[1.359E3,1.295E3,6.4E1,1.294E3,1E0,9E0,5.5E1,1.253E3,4.1E1,8E0,1E0,4.9E1,6E0],"tree_param":{"num_deleted":"0","num_feature":"117","num_nodes":"13","size_leaf_vector":"1"}},{"base_weights":[4.921616E-4,7.1835117E-3,-2.9246166E-2,-2.8995173E-3,5.229824E-2,-4.6182994E-2,2.3917632E-1,2.962204E-3,-3.8053136E-2,-5.589669E-3,2.106731E-1,-6.222474E-3,-4.1419137E-2,4.59996E-2,1.5943289E-1],"categories":[],"categories_nodes":[],"categories_segments":[],"categories_sizes":[],"default_left":[0,0,0,0,0,0,0,0,0,0,0,0,0,0,0],"id":61,"left_children":[1,3,5,7,9,11,13,-1,-1,-1,-1,-1,-1,-1,-1],"loss_changes":[2.7083588E-1,5.0553787E-1,1.1476022E0,1.4403864E0,9.371573E0,5.4880464E-1,2.9485416E-1,0E0,0E0,0E0,0E0,0E0,0E0,0E0,0E0],"parents":[2147483647,0,0,1,1,2,2,3,3,4,4,5,5,6,6],"right_children":[2,4,6,8,10,12,14,-1,-1,-1,-1,-1,-1,-1,-1],"split_conditions":[4E0,1E0,2E0,1E0,1E0,1E0,1E0,2.962204E-3,-3.8053136E-2,-5.589669E-3,2.106731E-1,-6.222474E-3,-4.1419137E-2,4.59996E-2,1.5943289E-1],"split_indices":[1,22,26,45,45,22,70,0,0,0,0,0,0,0,0],"split_type":[0,0,0,0,0,0,0,0,0,0,0,0,0,0,0],"sum_hessian":[1.359E3,1.11E3,2.49E2,9.08E2,2.02E2,2.35E2,1.4E1,8.24E2,8.4E1,1.83E2,1.9E1,1.85E2,5E1,1.2E1,2E0],"tree_param":{"num_deleted":"0","num_feature":"117","num_nodes":"15","size_leaf_vector":"1"}},{"base_weights":[5.855239E-4,3.582461E-3,-6.6752315E-2,1.4095841E-3,1.50349E-1,-3.669366E-2,-6.055965E-1,2.8358186E-3,-1.1465877E-2,6.3996524E-1,-2.3496725E-2,-2.029626E-2,6.977597E-2,-2.51093E-1,-2.1425445E-2],"categories":[],"categories_nodes":[],"categories_segments":[],"categories_sizes":[],"default_left":[0,0,0,0,0,0,0,0,0,0,0,0,0,0,0],"id":62,"left_children":[1,3,5,7,9,11,13,-1,-1,-1,-1,-1,-1,-1,-1],"loss_changes":[2.7469704E-1,4.1532215E-1,9.172005E-1,4.0994626E-1,8.78216E0,4.8261094E-1,3.1101942E-1,0E0,0E0,0E0,0E0,0E0,0E0,0E0,0E0],"parents":[2147483647,0,0,1,1,2,2,3,3,4,4,5,5,6,6],"right_children":[2,4,6,8,10,12,14,-1,-1,-1,-1,-1,-1,-1,-1],"split_conditions":[1E0,2E0,2E0,1E0,1E0,1E0,3E0,2.8358186E-3,-1.1465877E-2,6.3996524E-1,-2.3496725E-2,-2.029626E-2,6.977597E-2,-2.51093E-1,-2.1425445E-2],"split_indices":[76,45,45,19,1,96,0,0,0,0,0,0,0,0,0],"split_type":[0,0,0,0,0,0,0,0,0,0,0,0,0,0,0],"sum_hessian":[1.359E3,1.302E3,5.7E1,1.284E3,1.8E1,5.5E1,2E0,1.068E3,2.16E2,1E0,1.7E1,5E1,5E0,1E0,1E0],"tree_param":{"num_deleted":"0","num_feature":"117","num_nodes":"15","size_leaf_vector":"1"}},{"base_weights":[6.9279654E-4,6.7803846E-3,-2.9882891E-2,1.0884955E-2,-1.22531384E-1,-5.4707997E-2,6.8448134E-2,7.1496502E-3,-1.2681895E-2,-1.4476573E-1,1.8775383E-2,-2.2220515E-2,2.2508211E-2,2.4896363E-2,-8.787604E-2],"categories":[],"categories_nodes":[],"categories_segments":[],"categories_sizes":[],"default_left":[0,0,0,0,0,0,0,0,0,0,0,0,0,0,0],"id":63,"left_children":[1,3,5,7,9,11,13,-1,-1,-1,-1,-1,-1,-1,-1],"loss_changes":[2.533424E-1,6.037568E-1,5.554283E-1,7.587675E-1,2.362798E0,4.6017963E-1,2.6600206E-1,0E0,0E0,0E0,0E0,0E0,0E0,0E0,0E0],"parents":[2147483647,0,0,1,1,2,2,3,3,4,4,5,5,6,6],"right_children":[2,4,6,8,10,12,14,-1,-1,-1,-1,-1,-1,-1,-1],"split_conditions":[1E0,1E0,1E0,1E0,1E0,1E0,2E0,7.1496502E-3,-1.2681895E-2,-1.4476573E-1,1.8775383E-2,-2.2220515E-2,2.2508211E-2,2.4896363E-2,-8.787604E-2],"split_indices":[15,84,11,11,1,78,55,0,0,0,0,0,0,0,0],"split_type":[0,0,0,0,0,0,0,0,0,0,0,0,0,0,0],"sum_hessian":[1.359E3,1.134E3,2.25E2,1.1E3,3.4E1,1.8E2,4.5E1,8.85E2,2.15E2,1.1E1,2.3E1,1.57E2,2.3E1,4.4E1,1E0],"tree_param":{"num_deleted":"0","num_feature":"117","num_nodes":"15","size_leaf_vector":"1"}},{"base_weights":[3.421421E-4,-2.7003803E-4,1.24844246E-1,1.1180707E-3,-1.337075E-1,4.931018E-4,-1.0587248E-1,-1.4059679E-2,-7.250573E-2],"categories":[],"categories_nodes":[],"categories_segments":[],"categories_sizes":[],"default_left":[0,0,0,0,0,0,0,0,0],"id":64,"left_children":[1,3,-1,5,7,-1,-1,-1,-1],"loss_changes":[3.4629732E-1,2.5187123E-1,0E0,2.510396E-1,1.19951755E-1,0E0,0E0,0E0,0E0],"parents":[2147483647,0,0,1,1,3,3,4,4],"right_children":[2,4,-1,6,8,-1,-1,-1,-1],"split_conditions":[3E0,3E0,1.24844246E-1,5E0,3E0,4.931018E-4,-1.0587248E-1,-1.4059679E-2,-7.250573E-2],"split_indices":[84,28,0,66,0,0,0,0,0],"split_type":[0,0,0,0,0,0,0,0,0],"sum_hessian":[1.359E3,1.358E3,1E0,1.345E3,1.3E1,1.344E3,1E0,8E0,5E0],"tree_param":{"num_deleted":"0","num_feature":"117","num_nodes":"9","size_leaf_vector":"1"}},{"base_weights":[1.9017402E-4,-3.302531E-4,1.061176E-1,-2.9007986E-3,6.5653555E-2,-2.9867634E-4,-3.4293115E-2,6.417105E-2,-2.9124757E-2],"categories":[],"categories_nodes":[],"categories_segments":[],"categories_sizes":[],"default_left":[0,0,0,0,0,0,0,0,0],"id":65,"left_children":[1,3,-1,5,7,-1,-1,-1,-1],"loss_changes":[2.5034225E-1,2.3069641E-1,0E0,2.7773288E-1,1.2511724E0,0E0,0E0,0E0,0E0],"parents":[2147483647,0,0,1,1,3,3,4,4],"right_children":[2,4,-1,6,8,-1,-1,-1,-1],"split_conditions":[3E0,1E0,1.061176E-1,2E0,1E0,-2.9867634E-4,-3.4293115E-2,6.417105E-2,-2.9124757E-2],"split_indices":[84,99,0,42,8,0,0,0,0],"split_type":[0,0,0,0,0,0,0,0,0],"sum_hessian":[1.359E3,1.358E3,1E0,1.308E3,5E1,1.287E3,2.1E1,2.6E1,2.4E1],"tree_param":{"num_deleted":"0","num_feature":"117","num_nodes":"9","size_leaf_vector":"1"}},{"base_weights":[2.1147013E-4,2.9018484E-3,-7.033448E-2,4.085672E-3,-1.688119E-1,-1.6584414E-1,1.0631832E-2,6.4676214E-4,4.0315785E-2,-7.29698E-2,1.833215E-2,-7.5922E-2,-8.141671E-3,6.3032575E-2,-6.5129157E-3],"categories":[],"categories_nodes":[],"categories_segments":[],"categories_sizes":[],"default_left":[0,0,0,0,0,0,0,0,0,0,0,0,0,0,0],"id":66,"left_children":[1,3,5,7,9,11,13,-1,-1,-1,-1,-1,-1,-1,-1],"loss_changes":[2.583257E-1,2.6718813E-1,3.8841653E-1,3.2735386E-1,1.6886002E-1,2.714122E-1,1.8520023E-1,0E0,0E0,0E0,0E0,0E0,0E0,0E0,0E0],"parents":[2147483647,0,0,1,1,2,2,3,3,4,4,5,5,6,6],"right_children":[2,4,6,8,10,12,14,-1,-1,-1,-1,-1,-1,-1,-1],"split_conditions":[1E0,3E0,1E0,2E0,1E0,1E0,1E0,6.4676214E-4,4.0315785E-2,-7.29698E-2,1.833215E-2,-7.5922E-2,-8.141671E-3,6.3032575E-2,-6.5129157E-3],"split_indices":[79,12,10,45,31,53,1,0,0,0,0,0,0,0,0],"split_type":[0,0,0,0,0,0,0,0,0,0,0,0,0,0,0],"sum_hessian":[1.359E3,1.31E3,4.9E1,1.302E3,8E0,2.2E1,2.7E1,1.284E3,1.8E1,6E0,2E0,1.3E1,9E0,3E0,2.4E1],"tree_param":{"num_deleted":"0","num_feature":"117","num_nodes":"15","size_leaf_vector":"1"}},{"base_weights":[1.1773284E-4,3.4193278E-3,-5.0720293E-2,4.3258237E-4,9.130468E-2,-1.618317E-2,-3.7248296E-1,2.6419484E-3,-1.2098339E-2,4.3078095E-2,-3.4912907E-2,-2.857863E-2,3.247398E-2,-2.3037253E-1,-3.3806916E-2],"categories":[],"categories_nodes":[],"categories_segments":[],"categories_sizes":[],"default_left":[0,0,0,0,0,0,0,0,0,0,0,0,0,0,0],"id":67,"left_children":[1,3,5,7,9,11,13,-1,-1,-1,-1,-1,-1,-1,-1],"loss_changes":[2.2844477E-1,3.3542424E-1,9.1633093E-1,4.225727E-1,4.728067E-1,7.581345E-1,7.352954E-1,0E0,0E0,0E0,0E0,0E0,0E0,0E0,0E0],"parents":[2147483647,0,0,1,1,2,2,3,3,4,4,5,5,6,6],"right_children":[2,4,6,8,10,12,14,-1,-1,-1,-1,-1,-1,-1,-1],"split_conditions":[1E0,2E0,1E0,1E0,1E0,1E0,2E0,2.6419484E-3,-1.2098339E-2,4.3078095E-2,-3.4912907E-2,-2.857863E-2,3.247398E-2,-2.3037253E-1,-3.3806916E-2],"split_indices":[74,11,35,27,34,5,0,0,0,0,0,0,0,0,0],"split_type":[0,0,0,0,0,0,0,0,0,0,0,0,0,0,0],"sum_hessian":[1.359E3,1.277E3,8.2E1,1.236E3,4.1E1,7.5E1,7E0,1.026E3,2.1E2,3.3E1,8E0,4.6E1,2.9E1,2E0,5E0],"tree_param":{"num_deleted":"0","num_feature":"117","num_nodes":"15","size_leaf_vector":"1"}},{"base_weights":[-1.09917615E-4,9.622453E-3,-1.7244983E-2,2.3846948E-3,2.0496498E-1,7.7422033E-3,-2.1637462E-1,8.270353E-3,-3.0621145E-2,-1.7674984E-2,3.3543557E-1,-1.2980809E-3,6.498541E-2,-1.2571217E-1,-3.6745496E-2],"categories":[],"categories_nodes":[],"categories_segments":[],"categories_sizes":[],"default_left":[0,0,0,0,0,0,0,0,0,0,0,0,0,0,0],"id":68,"left_children":[1,3,5,7,9,11,13,-1,-1,-1,-1,-1,-1,-1,-1],"loss_changes":[2.2696605E-1,1.226726E0,2.4546902E0,2.2071812E0,7.5357733E0,1.1076351E0,9.952266E-1,0E0,0E0,0E0,0E0,0E0,0E0,0E0,0E0],"parents":[2147483647,0,0,1,1,2,2,3,3,4,4,5,5,6,6],"right_children":[2,4,6,8,10,12,14,-1,-1,-1,-1,-1,-1,-1,-1],"split_conditions":[3E0,1E0,2E0,1E0,1E0,1E0,1E0,8.270353E-3,-3.0621145E-2,-1.7674984E-2,3.3543557E-1,-1.2980809E-3,6.498541E-2,-1.2571217E-1,-3.6745496E-2],"split_indices":[0,111,3,18,18,101,1,0,0,0,0,0,0,0,0],"split_type":[0,0,0,0,0,0,0,0,0,0,0,0,0,0,0],"sum_hessian":[1.359E3,8.67E2,4.92E2,8.37E2,3E1,4.38E2,5.4E1,6.75E2,1.62E2,2.4E1,6E0,4.15E2,2.3E1,1.6E1,3.8E1],"tree_param":{"num_deleted":"0","num_feature":"117","num_nodes":"15","size_leaf_vector":"1"}},{"base_weights":[6.7641595E-5,-2.4231975E-3,7.290935E-2,-4.1331174E-3,1.2111065E-1,1.3327546E-2,4.041763E-1,4.1474227E-4,-1.6647488E-2,3.2441843E-1,3.0357117E-4,9.271988E-3,-1.11385934E-1],"categories":[],"categories_nodes":[],"categories_segments":[],"categories_sizes":[],"default_left":[0,0,0,0,0,0,0,0,0,0,0,0,0],"id":69,"left_children":[1,3,5,7,9,11,-1,-1,-1,-1,-1,-1,-1],"loss_changes":[2.4693096E-1,2.7848318E-1,3.3987937E0,3.6804777E-1,2.074826E0,3.0896622E-1,0E0,0E0,0E0,0E0,0E0,0E0,0E0],"parents":[2147483647,0,0,1,1,2,2,3,3,4,4,5,5],"right_children":[2,4,6,8,10,12,-1,-1,-1,-1,-1,-1,-1],"split_conditions":[1E0,1E0,1E0,5E0,1E0,2E0,4.041763E-1,4.1474227E-4,-1.6647488E-2,3.2441843E-1,3.0357117E-4,9.271988E-3,-1.11385934E-1],"split_indices":[114,104,85,0,1,108,0,0,0,0,0,0,0],"split_type":[0,0,0,0,0,0,0,0,0,0,0,0,0],"sum_hessian":[1.359E3,1.315E3,4.4E1,1.298E3,1.7E1,4.3E1,1E0,1.173E3,1.25E2,1E0,1.6E1,4.2E1,1E0],"tree_param":{"num_deleted":"0","num_feature":"117","num_nodes":"13","size_leaf_vector":"1"}},{"base_weights":[4.962882E-4,-2.7610331E-3,5.0009422E-2,-1.0654461E-2,3.156546E-2,8.5343564E-1,-2.2734076E-2,-1.2972792E-2,1.3172987E-2,3.2282867E-2,-2.7987951E-2,5.0956756E-1,-6.151383E-2,-1.6611334E-2,3.2158546E-2],"categories":[],"categories_nodes":[],"categories_segments":[],"categories_sizes":[],"default_left":[0,0,0,0,0,0,0,0,0,0,0,0,0,0,0],"id":70,"left_children":[1,3,5,7,9,11,13,-1,-1,-1,-1,-1,-1,-1,-1],"loss_changes":[2.1947913E-1,3.463442E-1,4.9287004E0,1.8494017E0,2.279287E0,6.6101117E0,3.3669487E-1,0E0,0E0,0E0,0E0,0E0,0E0,0E0,0E0],"parents":[2147483647,0,0,1,1,2,2,3,3,4,4,5,5,6,6],"right_children":[2,4,6,8,10,12,14,-1,-1,-1,-1,-1,-1,-1,-1],"split_conditions":[1E0,4E0,1E0,1E0,1E0,1E0,2E0,-1.2972792E-2,1.3172987E-2,3.2282867E-2,-2.7987951E-2,5.0956756E-1,-6.151383E-2,-1.6611334E-2,3.2158546E-2],"split_indices":[58,0,1,3,3,2,8,0,0,0,0,0,0,0,0],"split_type":[0,0,0,0,0,0,0,0,0,0,0,0,0,0,0],"sum_hessian":[1.359E3,1.276E3,8.3E1,1.038E3,2.38E2,6E0,7.7E1,6.5E2,3.88E2,1.48E2,9E1,3E0,3E0,6.2E1,1.5E1],"tree_param":{"num_deleted":"0","num_feature":"117","num_nodes":"15","size_leaf_vector":"1"}},{"base_weights":[6.915956E-4,3.625421E-3,-6.768937E-2,4.184615E-3,-1.0883447E-1,-1.0093825E-1,5.533537E-1,3.7266565E-3,-6.5154564E-3,-9.7018845E-2,3.7159616E-4,2.3773414E-1,1.1275056E-2],"categories":[],"categories_nodes":[],"categories_segments":[],"categories_sizes":[],"default_left":[0,0,0,0,0,0,0,0,0,0,0,0,0],"id":71,"left_children":[1,3,5,7,-1,9,11,-1,-1,-1,-1,-1,-1],"loss_changes":[2.730856E-1,2.6890275E-1,1.2121981E0,2.785124E-1,0E0,1.2278237E0,3.4016865E-1,0E0,0E0,0E0,0E0,0E0,0E0],"parents":[2147483647,0,0,1,1,2,2,3,3,5,5,6,6],"right_children":[2,4,6,8,-1,10,12,-1,-1,-1,-1,-1,-1],"split_conditions":[6E0,5E0,2E0,1E0,-1.0883447E-1,1E0,1E0,3.7266565E-3,-6.5154564E-3,-9.7018845E-2,3.7159616E-4,2.3773414E-1,1.1275056E-2],"split_indices":[0,4,18,10,0,1,1,0,0,0,0,0,0],"split_type":[0,0,0,0,0,0,0,0,0,0,0,0,0],"sum_hessian":[1.359E3,1.304E3,5.5E1,1.303E3,1E0,5.3E1,2E0,9.89E2,3.14E2,1.6E1,3.7E1,1E0,1E0],"tree_param":{"num_deleted":"0","num_feature":"117","num_nodes":"13","size_leaf_vector":"1"}},{"base_weights":[5.1408546E-4,-4.980364E-7,1.0497496E-1,2.786677E-3,-5.5529594E-2,-1.3192337E-3,1.0462837E-2,-1.0385675E-1,-1.0764518E-2],"categories":[],"categories_nodes":[],"categories_segments":[],"categories_sizes":[],"default_left":[0,0,0,0,0,0,0,0,0],"id":72,"left_children":[1,3,-1,5,7,-1,-1,-1,-1],"loss_changes":[2.445237E-1,2.1048623E-1,0E0,2.9869556E-1,3.587828E-1,0E0,0E0,0E0,0E0],"parents":[2147483647,0,0,1,1,3,3,4,4],"right_children":[2,4,-1,6,8,-1,-1,-1,-1],"split_conditions":[1E1,1E0,1.0497496E-1,1E0,1E0,-1.3192337E-3,1.0462837E-2,-1.0385675E-1,-1.0764518E-2],"split_indices":[0,97,0,22,1,0,0,0,0],"split_type":[0,0,0,0,0,0,0,0,0],"sum_hessian":[1.359E3,1.358E3,1E0,1.294E3,6.4E1,1.058E3,2.36E2,3E0,6.1E1],"tree_param":{"num_deleted":"0","num_feature":"117","num_nodes":"9","size_leaf_vector":"1"}},{"base_weights":[3.5950282E-4,2.5519251E-3,-7.023457E-2,-4.545005E-3,3.6204964E-2,3.075144E-2,-2.9010838E-1,-8.370537E-3,9.427246E-3,3.4007035E-2,-3.7426066E-2,2.677027E-2,-4.9739808E-2,-5.818323E-2,-2.16612E-1],"categories":[],"categories_nodes":[],"categories_segments":[],"categories_sizes":[],"default_left":[0,0,0,0,0,0,0,0,0,0,0,0,0,0,0],"id":73,"left_children":[1,3,5,7,9,11,13,-1,-1,-1,-1,-1,-1,-1,-1],"loss_changes":[2.1066916E-1,3.1542447E-1,9.1929257E-1,9.174519E-1,2.8703372E0,3.4814528E-1,3.9993775E-1,0E0,0E0,0E0,0E0,0E0,0E0,0E0,0E0],"parents":[2147483647,0,0,1,1,2,2,3,3,4,4,5,5,6,6],"right_children":[2,4,6,8,10,12,14,-1,-1,-1,-1,-1,-1,-1,-1],"split_conditions":[2E0,1E0,4E0,1E0,1E0,1E0,1E0,-8.370537E-3,9.427246E-3,3.4007035E-2,-3.7426066E-2,2.677027E-2,-4.9739808E-2,-5.818323E-2,-2.16612E-1],"split_indices":[25,25,0,3,3,16,54,0,0,0,0,0,0,0,0],"split_type":[0,0,0,0,0,0,0,0,0,0,0,0,0,0,0],"sum_hessian":[1.359E3,1.319E3,4E1,1.09E3,2.29E2,2.8E1,1.2E1,6.61E2,4.29E2,1.55E2,7.4E1,2.2E1,6E0,1.1E1,1E0],"tree_param":{"num_deleted":"0","num_feature":"117","num_nodes":"15","size_leaf_vector":"1"}},{"base_weights":[3.096947E-5,-2.1746366E-3,7.682007E-2,1.2563324E-3,-5.09325E-2,1.5317804E-1,-1.0138701E-1,-1.4400331E-2,2.7608648E-3,-2.4958227E-2,1.1953939E-1,1.00541815E-1,-4.420102E-3,-6.355257E-2,1.3312462E-2],"categories":[],"categories_nodes":[],"categories_segments":[],"categories_sizes":[],"default_left":[0,0,0,0,0,0,0,0,0,0,0,0,0,0,0],"id":74,"left_children":[1,3,5,7,9,11,13,-1,-1,-1,-1,-1,-1,-1,-1],"loss_changes":[2.305055E-1,2.213843E-1,5.326164E-1,4.8463652E-1,1.2944989E0,8.298806E-1,2.0260182E-1,0E0,0E0,0E0,0E0,0E0,0E0,0E0,0E0],"parents":[2147483647,0,0,1,1,2,2,3,3,4,4,5,5,6,6],"right_children":[2,4,6,8,10,12,14,-1,-1,-1,-1,-1,-1,-1,-1],"split_conditions":[1E0,1E0,2E0,1E0,1E0,3E0,1E0,-1.4400331E-2,2.7608648E-3,-2.4958227E-2,1.1953939E-1,1.00541815E-1,-4.420102E-3,-6.355257E-2,1.3312462E-2],"split_indices":[105,69,3,0,61,0,9,0,0,0,0,0,0,0,0],"split_type":[0,0,0,0,0,0,0,0,0,0,0,0,0,0,0],"sum_hessian":[1.359E3,1.322E3,3.7E1,1.236E3,8.6E1,2.6E1,1.1E1,1.71E2,1.065E3,8.1E1,5E0,1.2E1,1.4E1,6E0,5E0],"tree_param":{"num_deleted":"0","num_feature":"117","num_nodes":"15","size_leaf_vector":"1"}},{"base_weights":[1.1639621E-4,8.3667564E-4,-1.9524665E-1,2.0545686E-3,-1.1605382E-1,-1.4039442E-1,-1.0067638E-2,1.0853565E-3,-2.7593432E-2,-6.549896E-2,5.223669E-3,1.6286334E-2,-1.4884611E-2],"categories":[],"categories_nodes":[],"categories_segments":[],"categories_sizes":[],"default_left":[0,0,0,0,0,0,0,0,0,0,0,0,0],"id":75,"left_children":[1,3,5,7,9,-1,11,-1,-1,-1,-1,-1,-1],"loss_changes":[1.9153708E-1,1.9327874E-1,2.4781229E-1,1.9775373E-1,1.9490696E-1,0E0,1.2873951E-2,0E0,0E0,0E0,0E0,0E0,0E0],"parents":[2147483647,0,0,1,1,2,2,3,3,4,4,6,6],"right_children":[2,4,6,8,10,-1,12,-1,-1,-1,-1,-1,-1],"split_conditions":[2E0,2E0,1E0,2E0,1E0,-1.4039442E-1,1E0,1.0853565E-3,-2.7593432E-2,-6.549896E-2,5.223669E-3,1.6286334E-2,-1.4884611E-2],"split_indices":[100,50,1,43,2,0,5,0,0,0,0,0,0],"split_type":[0,0,0,0,0,0,0,0,0,0,0,0,0],"sum_hessian":[1.359E3,1.355E3,4E0,1.342E3,1.3E1,1E0,3E0,1.321E3,2.1E1,7E0,6E0,1E0,2E0],"tree_param":{"num_deleted":"0","num_feature":"117","num_nodes":"13","size_leaf_vector":"1"}},{"base_weights":[-8.4545274E-5,7.629857E-4,-1.6400918E-1,5.0169253E-3,-3.035026E-2,-7.362932E-2,-4.158501E-2,-1.4275946E-3,1.4396717E-2,1.4465501E-3,-5.0715934E-2,-1.0865616E-3,-1.5909629E-2],"categories":[],"categories_nodes":[],"categories_segments":[],"categories_sizes":[],"default_left":[0,0,0,0,0,0,0,0,0,0,0,0,0],"id":76,"left_children":[1,3,5,7,9,-1,11,-1,-1,-1,-1,-1,-1],"loss_changes":[1.890716E-1,1.793594E-1,5.9569776E-2,5.009604E-1,7.9600567E-1,0E0,1.5461943E-3,0E0,0E0,0E0,0E0,0E0,0E0],"parents":[2147483647,0,0,1,1,2,2,3,3,4,4,6,6],"right_children":[2,4,6,8,10,-1,12,-1,-1,-1,-1,-1,-1],"split_conditions":[3E0,1E0,2E0,1E0,1E0,-7.362932E-2,3E0,-1.4275946E-3,1.4396717E-2,1.4465501E-3,-5.0715934E-2,-1.0865616E-3,-1.5909629E-2],"split_indices":[33,13,0,22,22,0,0,0,0,0,0,0,0],"split_type":[0,0,0,0,0,0,0,0,0,0,0,0,0],"sum_hessian":[1.359E3,1.353E3,6E0,1.191E3,1.62E2,3E0,3E0,9.71E2,2.2E2,1.3E2,3.2E1,1E0,2E0],"tree_param":{"num_deleted":"0","num_feature":"117","num_nodes":"13","size_leaf_vector":"1"}},{"base_weights":[-1.5249605E-4,2.34356E-3,-5.622506E-2,1.2128374E-3,2.1151553E-1,-3.1320747E-2,-5.023639E-1,1.9782588E-3,-1.5634052E-2,8.047895E-2,-1.934554E-2,-2.411816E-2,4.1154653E-2,-1.972613E-1,-2.8802473E-2],"categories":[],"categories_nodes":[],"categories_segments":[],"categories_sizes":[],"default_left":[0,0,0,0,0,0,0,0,0,0,0,0,0,0,0],"id":77,"left_children":[1,3,5,7,9,11,13,-1,-1,-1,-1,-1,-1,-1,-1],"loss_changes":[1.9047774E-1,3.0792314E-1,6.2869096E-1,3.7254134E-1,1.2693569E-1,4.7409052E-1,1.260382E-1,0E0,0E0,0E0,0E0,0E0,0E0,0E0,0E0],"parents":[2147483647,0,0,1,1,2,2,3,3,4,4,5,5,6,6],"right_children":[2,4,6,8,10,12,14,-1,-1,-1,-1,-1,-1,-1,-1],"split_conditions":[1E0,2E0,2E0,5E0,2E0,5E0,3E0,1.9782588E-3,-1.5634052E-2,8.047895E-2,-1.934554E-2,-2.411816E-2,4.1154653E-2,-1.972613E-1,-2.8802473E-2],"split_indices":[76,91,45,0,4,0,0,0,0,0,0,0,0,0,0],"split_type":[0,0,0,0,0,0,0,0,0,0,0,0,0,0,0],"sum_hessian":[1.359E3,1.302E3,5.7E1,1.296E3,6E0,5.5E1,2E0,1.178E3,1.18E2,5E0,1E0,4.3E1,1.2E1,1E0,1E0],"tree_param":{"num_deleted":"0","num_feature":"117","num_nodes":"15","size_leaf_vector":"1"}},{"base_weights":[-2.2553933E-4,-6.7930645E-4,9.24666E-2,5.3307315E-4,-1.3681334E-1,-1.5858767E-3,7.833813E-3,-5.979181E-2,3.5130013E-2],"categories":[],"categories_nodes":[],"categories_segments":[],"categories_sizes":[],"default_left":[0,0,0,0,0,0,0,0,0],"id":78,"left_children":[1,3,-1,5,7,-1,-1,-1,-1],"loss_changes":[1.9055952E-1,2.2437063E-1,0E0,2.0079632E-1,2.1375147E-1,0E0,0E0,0E0,0E0],"parents":[2147483647,0,0,1,1,3,3,4,4],"right_children":[2,4,-1,6,8,-1,-1,-1,-1],"split_conditions":[1E1,8E0,9.24666E-2,4E0,2E0,-1.5858767E-3,7.833813E-3,-5.979181E-2,3.5130013E-2],"split_indices":[0,0,0,0,2,0,0,0,0],"split_type":[0,0,0,0,0,0,0,0,0],"sum_hessian":[1.359E3,1.358E3,1E0,1.347E3,1.1E1,1.098E3,2.49E2,9E0,2E0],"tree_param":{"num_deleted":"0","num_feature":"117","num_nodes":"9","size_leaf_vector":"1"}},{"base_weights":[-1.0343355E-4,5.176495E-4,-2.1078E-1,9.571862E-4,-8.9324124E-2,-8.277473E-2,-2.305916E-3,4.1893616E-4,-8.913757E-2],"categories":[],"categories_nodes":[],"categories_segments":[],"categories_sizes":[],"default_left":[0,0,0,0,0,0,0,0,0],"id":79,"left_children":[1,3,5,7,-1,-1,-1,-1,-1],"loss_changes":[1.780619E-1,1.7818539E-1,5.0793827E-2,1.7796679E-1,0E0,0E0,0E0,0E0,0E0],"parents":[2147483647,0,0,1,1,2,2,3,3],"right_children":[2,4,6,8,-1,-1,-1,-1,-1],"split_conditions":[4E0,5E0,1E0,5E0,-8.9324124E-2,-8.277473E-2,-2.305916E-3,4.1893616E-4,-8.913757E-2],"split_indices":[12,66,2,28,0,0,0,0,0],"split_type":[0,0,0,0,0,0,0,0,0],"sum_hessian":[1.359E3,1.356E3,3E0,1.355E3,1E0,2E0,1E0,1.354E3,1E0],"tree_param":{"num_deleted":"0","num_feature":"117","num_nodes":"9","size_leaf_vector":"1"}},{"base_weights":[-2.6587068E-4,-1.0809279E-3,1.5742746E-1,-1.512791E-3,8.748449E-2,1.3813631E-1,3.0180592E-2,-1.0657663E-3,1.7356584E-2,2.6476514E-2,-1.7193662E-2],"categories":[],"categories_nodes":[],"categories_segments":[],"categories_sizes":[],"default_left":[0,0,0,0,0,0,0,0,0,0,0],"id":80,"left_children":[1,3,5,7,-1,-1,9,-1,-1,-1,-1],"loss_changes":[1.7496975E-1,1.7159292E-1,2.5601777E-1,1.640495E-1,0E0,0E0,3.5544667E-2,0E0,0E0,0E0,0E0],"parents":[2147483647,0,0,1,1,2,2,3,3,6,6],"right_children":[2,4,6,8,-1,-1,10,-1,-1,-1,-1],"split_conditions":[2E0,3E0,1E0,1E0,8.748449E-2,1.3813631E-1,2E0,-1.0657663E-3,1.7356584E-2,2.6476514E-2,-1.7193662E-2],"split_indices":[54,84,1,114,0,0,1,0,0,0,0],"split_type":[0,0,0,0,0,0,0,0,0,0,0],"sum_hessian":[1.359E3,1.353E3,6E0,1.352E3,1E0,1E0,5E0,1.308E3,4.4E1,3E0,2E0],"tree_param":{"num_deleted":"0","num_feature":"117","num_nodes":"11","size_leaf_vector":"1"}},{"base_weights":[-1.4155173E-6,2.4443807E-3,-5.0392557E-2,1.3604342E-3,1.7706068E-1,-6.2107556E-2,1.013906E-1,-5.323856E-4,1.682102E-2,-1.3684899E-3,1.4438553E-1,-1.3417953E-2,-9.088534E-2],"categories":[],"categories_nodes":[],"categories_segments":[],"categories_sizes":[],"default_left":[0,0,0,0,0,0,0,0,0,0,0,0,0],"id":81,"left_children":[1,3,5,7,9,11,-1,-1,-1,-1,-1,-1,-1],"loss_changes":[1.6773836E-1,2.4543768E-1,3.0761844E-1,2.215287E-1,4.4422695E-1,2.459891E-1,0E0,0E0,0E0,0E0,0E0,0E0,0E0],"parents":[2147483647,0,0,1,1,2,2,3,3,4,4,5,5],"right_children":[2,4,6,8,10,12,-1,-1,-1,-1,-1,-1,-1],"split_conditions":[1E0,1E0,6E0,1E0,1E0,1E0,1.013906E-1,-5.323856E-4,1.682102E-2,-1.3684899E-3,1.4438553E-1,-1.3417953E-2,-9.088534E-2],"split_indices":[73,80,9,58,12,77,0,0,0,0,0,0,0],"split_type":[0,0,0,0,0,0,0,0,0,0,0,0,0],"sum_hessian":[1.359E3,1.297E3,6.2E1,1.29E3,7E0,6.1E1,1E0,1.221E3,6.9E1,5E0,2E0,5.8E1,3E0],"tree_param":{"num_deleted":"0","num_feature":"117","num_nodes":"13","size_leaf_vector":"1"}},{"base_weights":[1.1400675E-4,2.5827812E-3,-5.0752398E-2,4.728492E-3,-7.981275E-2,-2.6569733E-1,-1.0007922E-2,1.2264174E-3,1.2223167E-1,4.021949E-2,-3.683797E-2,-9.992008E-2,-2.4412869E-2,1.1122746E-1,-7.2562876E-3],"categories":[],"categories_nodes":[],"categories_segments":[],"categories_sizes":[],"default_left":[0,0,0,0,0,0,0,0,0,0,0,0,0,0,0],"id":82,"left_children":[1,3,5,7,9,11,13,-1,-1,-1,-1,-1,-1,-1,-1],"loss_changes":[1.7091674E-1,2.2985986E-1,5.490835E-1,3.248478E-1,3.1981695E-1,9.707266E-2,3.0052185E-1,0E0,0E0,0E0,0E0,0E0,0E0,0E0,0E0],"parents":[2147483647,0,0,1,1,2,2,3,3,4,4,5,5,6,6],"right_children":[2,4,6,8,10,12,14,-1,-1,-1,-1,-1,-1,-1,-1],"split_conditions":[2E0,2E0,1E0,2E0,1E0,1E0,1E0,1.2264174E-3,1.2223167E-1,4.021949E-2,-3.683797E-2,-9.992008E-2,-2.4412869E-2,1.1122746E-1,-7.2562876E-3],"split_indices":[16,37,2,107,0,6,0,0,0,0,0,0,0,0,0],"split_type":[0,0,0,0,0,0,0,0,0,0,0,0,0,0,0],"sum_hessian":[1.359E3,1.297E3,6.2E1,1.265E3,3.2E1,9E0,5.3E1,1.264E3,1E0,5E0,2.7E1,6E0,3E0,1E0,5.2E1],"tree_param":{"num_deleted":"0","num_feature":"117","num_nodes":"15","size_leaf_vector":"1"}},{"base_weights":[1.5809361E-4,3.989262E-3,-3.0091643E-2,1.2456791E-2,-6.0176052E-2,-7.940777E-2,1.4485031E-1,6.059361E-3,-2.7999563E-2,-4.1696187E-2,1.857902E-2,-5.259336E-2,2.3604829E-2,4.1496046E-3,1.5217596E-1],"categories":[],"categories_nodes":[],"categories_segments":[],"categories_sizes":[],"default_left":[0,0,0,0,0,0,0,0,0,0,0,0,0,0,0],"id":83,"left_children":[1,3,5,7,9,11,13,-1,-1,-1,-1,-1,-1,-1,-1],"loss_changes":[1.5773296E-1,6.5708214E-1,1.3315035E0,8.7649E-1,1.3654976E0,1.8331645E0,1.6073513E0,0E0,0E0,0E0,0E0,0E0,0E0,0E0,0E0],"parents":[2147483647,0,0,1,1,2,2,3,3,4,4,5,5,6,6],"right_children":[2,4,6,8,10,12,14,-1,-1,-1,-1,-1,-1,-1,-1],"split_conditions":[1E0,1E0,1E0,2E0,1E0,1E0,1E0,6.059361E-3,-2.7999563E-2,-4.1696187E-2,1.857902E-2,-5.259336E-2,2.3604829E-2,4.1496046E-3,1.5217596E-1],"split_indices":[40,36,36,9,4,5,25,0,0,0,0,0,0,0,0],"split_type":[0,0,0,0,0,0,0,0,0,0,0,0,0,0,0],"sum_hessian":[1.359E3,1.207E3,1.52E2,1.067E3,1.4E2,1.19E2,3.3E1,9.95E2,7.2E1,8.5E1,5.5E1,7.4E1,4.5E1,2.5E1,8E0],"tree_param":{"num_deleted":"0","num_feature":"117","num_nodes":"15","size_leaf_vector":"1"}},{"base_weights":[1.7115443E-4,9.538728E-4,-1.512534E-1,2.8833796E-3,-6.090773E-2,-7.777165E-2,-5.4546464E-3,2.7339456E-3,-8.441102E-3,-7.471519E-3,-1.5259194E-1,8.849286E-3,-1.6546715E-2],"categories":[],"categories_nodes":[],"categories_segments":[],"categories_sizes":[],"default_left":[0,0,0,0,0,0,0,0,0,0,0,0,0],"id":84,"left_children":[1,3,5,7,9,-1,11,-1,-1,-1,-1,-1,-1],"loss_changes":[1.6133526E-1,1.6179226E-1,1.087949E-1,2.541868E-1,6.482338E-1,0E0,8.575621E-3,0E0,0E0,0E0,0E0,0E0,0E0],"parents":[2147483647,0,0,1,1,2,2,3,3,4,4,6,6],"right_children":[2,4,6,8,10,-1,12,-1,-1,-1,-1,-1,-1],"split_conditions":[2E0,2E0,3E0,1E0,1E0,-7.777165E-2,6E0,2.7339456E-3,-8.441102E-3,-7.471519E-3,-1.5259194E-1,8.849286E-3,-1.6546715E-2],"split_indices":[61,25,2,15,75,0,0,0,0,0,0,0,0],"split_type":[0,0,0,0,0,0,0,0,0,0,0,0,0],"sum_hessian":[1.359E3,1.353E3,6E0,1.313E3,4E1,3E0,3E0,1.094E3,2.19E2,3.8E1,2E0,2E0,1E0],"tree_param":{"num_deleted":"0","num_feature":"117","num_nodes":"13","size_leaf_vector":"1"}},{"base_weights":[-6.492591E-5,5.8777933E-4,-1.770656E-1,-4.432394E-3,2.337082E-2,-1.0871822E-1,6.7284696E-2,-6.3649437E-4,-5.988484E-2,2.8853884E-3,1.148798E-1,2.9021004E-2,1.257109E-3],"categories":[],"categories_nodes":[],"categories_segments":[],"categories_sizes":[],"default_left":[0,0,0,0,0,0,0,0,0,0,0,0,0],"id":85,"left_children":[1,3,5,7,9,-1,11,-1,-1,-1,-1,-1,-1],"loss_changes":[1.5722388E-1,1.5519585E-1,2.5080884E-1,5.011108E-1,1.207843E0,0E0,5.169399E-3,0E0,0E0,0E0,0E0,0E0,0E0],"parents":[2147483647,0,0,1,1,2,2,3,3,4,4,6,6],"right_children":[2,4,6,8,10,-1,12,-1,-1,-1,-1,-1,-1],"split_conditions":[3E0,1E0,2E0,2E0,2E0,-1.0871822E-1,1E0,-6.3649437E-4,-5.988484E-2,2.8853884E-3,1.148798E-1,2.9021004E-2,1.257109E-3],"split_indices":[31,26,5,45,45,0,0,0,0,0,0,0,0],"split_type":[0,0,0,0,0,0,0,0,0,0,0,0,0],"sum_hessian":[1.359E3,1.355E3,4E0,1.111E3,2.44E2,2E0,2E0,1.099E3,1.2E1,2.36E2,8E0,1E0,1E0],"tree_param":{"num_deleted":"0","num_feature":"117","num_nodes":"13","size_leaf_vector":"1"}},{"base_weights":[-6.104051E-5,4.6020633E-4,-7.079753E-2,1.0974696E-3,-1.7220274E-1,-1.1769544E-3,6.8567675E-3,-1.2278422E-1,-3.1839195E-3],"categories":[],"categories_nodes":[],"categories_segments":[],"categories_sizes":[],"default_left":[0,0,0,0,0,0,0,0,0],"id":86,"left_children":[1,3,-1,5,7,-1,-1,-1,-1],"loss_changes":[1.6735889E-1,1.4961211E-1,0E0,1.4800255E-1,1.8720305E-1,0E0,0E0,0E0,0E0],"parents":[2147483647,0,0,1,1,3,3,4,4],"right_children":[2,4,-1,6,8,-1,-1,-1,-1],"split_conditions":[3E0,2E0,-7.079753E-2,1E0,1E0,-1.1769544E-3,6.8567675E-3,-1.2278422E-1,-3.1839195E-3],"split_indices":[45,100,0,22,1,0,0,0,0],"split_type":[0,0,0,0,0,0,0,0,0],"sum_hessian":[1.359E3,1.357E3,2E0,1.353E3,4E0,1.1E3,2.53E2,1E0,3E0],"tree_param":{"num_deleted":"0","num_feature":"117","num_nodes":"9","size_leaf_vector":"1"}},{"base_weights":[-1.8323286E-4,-1.5823708E-3,7.776804E-2,3.3856058E-3,-4.4424254E-2,1.0586148E-1,-8.5257135E-2,3.7292272E-3,-1.0072766E-2,-2.3235876E-2,1.920447E-2,5.027358E-2,-2.6288275E-3],"categories":[],"categories_nodes":[],"categories_segments":[],"categories_sizes":[],"default_left":[0,0,0,0,0,0,0,0,0,0,0,0,0],"id":87,"left_children":[1,3,5,7,9,11,-1,-1,-1,-1,-1,-1,-1],"loss_changes":[1.4845091E-1,2.847141E-1,2.7413255E-1,4.0126973E-1,5.028007E-1,1.6417685E-1,0E0,0E0,0E0,0E0,0E0,0E0,0E0],"parents":[2147483647,0,0,1,1,2,2,3,3,4,4,5,5],"right_children":[2,4,6,8,10,12,-1,-1,-1,-1,-1,-1,-1],"split_conditions":[4E0,2E0,1E0,1E0,1E0,1E0,-8.5257135E-2,3.7292272E-3,-1.0072766E-2,-2.3235876E-2,1.920447E-2,5.027358E-2,-2.6288275E-3],"split_indices":[5,5,111,12,12,4,0,0,0,0,0,0,0],"split_type":[0,0,0,0,0,0,0,0,0,0,0,0,0],"sum_hessian":[1.359E3,1.336E3,2.3E1,1.198E3,1.38E2,2.2E1,1E0,9.63E2,2.35E2,1.06E2,3.2E1,1.4E1,8E0],"tree_param":{"num_deleted":"0","num_feature":"117","num_nodes":"13","size_leaf_vector":"1"}},{"base_weights":[-1.6354705E-4,-2.3844833E-3,5.6887235E-2,-8.523085E-4,-9.204761E-2,2.5102523E-1,-6.6226736E-2,-9.786871E-4,1.8060468E-2,-8.281818E-2,3.511854E-2,2.2092281E-1,-4.0179487E-2,-3.0555282E-2,3.153599E-2],"categories":[],"categories_nodes":[],"categories_segments":[],"categories_sizes":[],"default_left":[0,0,0,0,0,0,0,0,0,0,0,0,0,0,0],"id":88,"left_children":[1,3,5,7,9,11,13,-1,-1,-1,-1,-1,-1,-1,-1],"loss_changes":[1.7245601E-1,1.7988878E-1,1.2355806E0,1.8985815E-1,8.788507E-1,3.8356678E0,2.0603742E-1,0E0,0E0,0E0,0E0,0E0,0E0,0E0,0E0],"parents":[2147483647,0,0,1,1,2,2,3,3,4,4,5,5,6,6],"right_children":[2,4,6,8,10,12,14,-1,-1,-1,-1,-1,-1,-1,-1],"split_conditions":[1E0,2E0,1E0,1E0,2E0,1E0,1E0,-9.786871E-4,1.8060468E-2,-8.281818E-2,3.511854E-2,2.2092281E-1,-4.0179487E-2,-3.0555282E-2,3.153599E-2],"split_indices":[99,42,2,110,1,8,12,0,0,0,0,0,0,0,0],"split_type":[0,0,0,0,0,0,0,0,0,0,0,0,0,0,0],"sum_hessian":[1.359E3,1.309E3,5E1,1.288E3,2.1E1,1.9E1,3.1E1,1.24E3,4.8E1,1.1E1,1E1,8E0,1.1E1,2.6E1,5E0],"tree_param":{"num_deleted":"0","num_feature":"117","num_nodes":"15","size_leaf_vector":"1"}},{"base_weights":[-3.368619E-6,2.459599E-3,-5.739925E-2,-8.171249E-4,5.5458426E-2,-1.302702E-1,1.9365619E-1,-2.5506434E-3,1.223229E-2,2.8158674E-1,-5.9868763E-3,-1.1277107E-1,-4.54102E-3,1.1049872E-1,-2.14551E-2],"categories":[],"categories_nodes":[],"categories_segments":[],"categories_sizes":[],"default_left":[0,0,0,0,0,0,0,0,0,0,0,0,0,0,0],"id":89,"left_children":[1,3,5,7,9,11,13,-1,-1,-1,-1,-1,-1,-1,-1],"loss_changes":[1.9239649E-1,2.266749E-1,1.0497278E0,3.9349267E-1,5.0805993E0,1.2386572E0,6.2848306E-1,0E0,0E0,0E0,0E0,0E0,0E0,0E0,0E0],"parents":[2147483647,0,0,1,1,2,2,3,3,4,4,5,5,6,6],"right_children":[2,4,6,8,10,12,14,-1,-1,-1,-1,-1,-1,-1,-1],"split_conditions":[6E0,1E0,1E0,4E0,1E0,1E0,1E0,-2.5506434E-3,1.223229E-2,2.8158674E-1,-5.9868763E-3,-1.1277107E-1,-4.54102E-3,1.1049872E-1,-2.14551E-2],"split_indices":[0,58,18,0,1,1,3,0,0,0,0,0,0,0,0],"split_type":[0,0,0,0,0,0,0,0,0,0,0,0,0,0,0],"sum_hessian":[1.359E3,1.304E3,5.5E1,1.229E3,7.5E1,4.3E1,1.2E1,1.038E3,1.91E2,5E0,7E1,1.3E1,3E1,7E0,5E0],"tree_param":{"num_deleted":"0","num_feature":"117","num_nodes":"15","size_leaf_vector":"1"}},{"base_weights":[1.866144E-4,-2.7459543E-4,9.404562E-2,3.7407652E-3,-3.7316497E-2,2.2070482E-3,-3.0311963E-2,-2.248849E-2,9.4783016E-2],"categories":[],"categories_nodes":[],"categories_segments":[],"categories_sizes":[],"default_left":[0,0,0,0,0,0,0,0,0],"id":90,"left_children":[1,3,-1,5,7,-1,-1,-1,-1],"loss_changes":[1.9660129E-1,2.0227261E-1,0E0,4.6564537E-1,1.7923863E0,0E0,0E0,0E0,0E0],"parents":[2147483647,0,0,1,1,3,3,4,4],"right_children":[2,4,-1,6,8,-1,-1,-1,-1],"split_conditions":[1E1,5E0,9.404562E-2,1E0,1E0,2.2070482E-3,-3.0311963E-2,-2.248849E-2,9.4783016E-2],"split_indices":[0,0,0,87,50,0,0,0,0],"split_type":[0,0,0,0,0,0,0,0,0],"sum_hessian":[1.359E3,1.358E3,1E0,1.226E3,1.32E2,1.186E3,4E1,1.2E2,1.2E1],"tree_param":{"num_deleted":"0","num_feature":"117","num_nodes":"9","size_leaf_vector":"1"}},{"base_weights":[2.3227617E-4,2.895825E-3,-5.2878365E-2,8.933311E-3,-2.166636E-2,-2.2695491E-2,-2.3816119E-1,8.813716E-3,-1.1878899E-2,-6.1678614E-2,1.8476343E-2,-2.2231227E-2,1.8737784E-2,-1.633983E-1,-2.183433E-2],"categories":[],"categories_nodes":[],"categories_segments":[],"categories_sizes":[],"default_left":[0,0,0,0,0,0,0,0,0,0,0,0,0,0,0],"id":91,"left_children":[1,3,5,7,9,11,13,-1,-1,-1,-1,-1,-1,-1,-1],"loss_changes":[1.9254254E-1,1.923824E-1,3.5809875E-1,1.034069E0,3.9327536E0,2.5415665E-1,4.1655964E-1,0E0,0E0,0E0,0E0,0E0,0E0,0E0,0E0],"parents":[2147483647,0,0,1,1,2,2,3,3,4,4,5,5,6,6],"right_children":[2,4,6,8,10,12,14,-1,-1,-1,-1,-1,-1,-1,-1],"split_conditions":[1E0,1E0,1E0,1E0,1E0,1E0,1E0,8.813716E-3,-1.1878899E-2,-6.1678614E-2,1.8476343E-2,-2.2231227E-2,1.8737784E-2,-1.633983E-1,-2.183433E-2],"split_indices":[97,12,90,5,1,8,1,0,0,0,0,0,0,0,0],"split_type":[0,0,0,0,0,0,0,0,0,0,0,0,0,0,0],"sum_hessian":[1.359E3,1.295E3,6.4E1,1.04E3,2.55E2,5.6E1,8E0,7.32E2,3.08E2,7.9E1,1.76E2,3.5E1,2.1E1,2E0,6E0],"tree_param":{"num_deleted":"0","num_feature":"117","num_nodes":"15","size_leaf_vector":"1"}},{"base_weights":[-1.0203438E-5,-5.2810303E-4,2.3442909E-1,-2.3438772E-3,6.260784E-2,1.03412054E-1,2.0810387E-3,-2.4491823E-3,7.6335273E-3,3.2204535E-2,-5.8170024E-2],"categories":[],"categories_nodes":[],"categories_segments":[],"categories_sizes":[],"default_left":[0,0,0,0,0,0,0,0,0,0,0],"id":92,"left_children":[1,3,5,7,9,-1,-1,-1,-1,-1,-1],"loss_changes":[1.6524959E-1,1.558287E-1,7.2870836E-2,2.1385778E-1,4.5691493E-1,0E0,0E0,0E0,0E0,0E0,0E0],"parents":[2147483647,0,0,1,1,2,2,3,3,4,4],"right_children":[2,4,6,8,10,-1,-1,-1,-1,-1,-1],"split_conditions":[6E0,1E0,3E0,1E0,1E0,1.03412054E-1,2.0810387E-3,-2.4491823E-3,7.6335273E-3,3.2204535E-2,-5.8170024E-2],"split_indices":[21,105,1,24,12,0,0,0,0,0,0],"split_type":[0,0,0,0,0,0,0,0,0,0,0],"sum_hessian":[1.359E3,1.357E3,2E0,1.32E3,3.7E1,1E0,1E0,1.092E3,2.28E2,3.2E1,5E0],"tree_param":{"num_deleted":"0","num_feature":"117","num_nodes":"11","size_leaf_vector":"1"}},{"base_weights":[5.5137196E-5,4.564714E-4,-8.180371E-2,1.258685E-3,-1.3517469E-1,1.1196969E-3,-1.40988985E-2,-1.2284573E-1,7.3529896E-3],"categories":[],"categories_nodes":[],"categories_segments":[],"categories_sizes":[],"default_left":[0,0,0,0,0,0,0,0,0],"id":93,"left_children":[1,3,-1,5,7,-1,-1,-1,-1],"loss_changes":[1.4898674E-1,1.4803635E-1,0E0,1.6155747E-1,3.6046258E-1,0E0,0E0,0E0,0E0],"parents":[2147483647,0,0,1,1,3,3,4,4],"right_children":[2,4,-1,6,8,-1,-1,-1,-1],"split_conditions":[5E0,2E0,-8.180371E-2,1E0,1E0,1.1196969E-3,-1.40988985E-2,-1.2284573E-1,7.3529896E-3],"split_indices":[28,75,0,90,1,0,0,0,0],"split_type":[0,0,0,0,0,0,0,0,0],"sum_hessian":[1.359E3,1.358E3,1E0,1.351E3,7E0,1.286E3,6.5E1,2E0,5E0],"tree_param":{"num_deleted":"0","num_feature":"117","num_nodes":"9","size_leaf_vector":"1"}},